digraph Tree {
node [shape=box, style="filled, rounded", color="black", fontname="helvetica"] ;
edge [fontname="helvetica"] ;
0 [label="smoker <= 0.5\nsquared_error = 130768780.843\nsamples = 674\nvalue = 12754.395", fillcolor="#fae6d7"] ;
1 [label="age <= 0.62\nsquared_error = 38646939.822\nsamples = 546\nvalue = 8604.78", fillcolor="#fcefe5"] ;
0 -> 1 [labeldistance=2.5, labelangle=45, headlabel="True"] ;
2 [label="children <= 0.3\nsquared_error = 26222015.306\nsamples = 359\nvalue = 6323.302", fillcolor="#fdf4ed"] ;
1 -> 2 ;
3 [label="age <= 0.033\nsquared_error = 23862875.8\nsamples = 228\nvalue = 5296.976", fillcolor="#fdf6f1"] ;
2 -> 3 ;
4 [label="bmi <= 0.553\nsquared_error = 9757895.382\nsamples = 46\nvalue = 2423.851", fillcolor="#fefcfb"] ;
3 -> 4 ;
5 [label="sex <= 0.5\nsquared_error = 173511.016\nsamples = 25\nvalue = 1810.324", fillcolor="#fffefd"] ;
4 -> 5 ;
6 [label="children <= 0.1\nsquared_error = 134812.432\nsamples = 12\nvalue = 2071.319", fillcolor="#fffdfc"] ;
5 -> 6 ;
7 [label="region <= 0.5\nsquared_error = 58642.895\nsamples = 8\nvalue = 1869.612", fillcolor="#fffdfc"] ;
6 -> 7 ;
8 [label="age <= 0.011\nsquared_error = 872.749\nsamples = 3\nvalue = 2187.381", fillcolor="#fffdfb"] ;
7 -> 8 ;
9 [label="bmi <= 0.458\nsquared_error = 4.973\nsamples = 2\nvalue = 2202.118", fillcolor="#fffdfb"] ;
8 -> 9 ;
10 [label="squared_error = 0.0\nsamples = 1\nvalue = 2200.831", fillcolor="#fffdfb"] ;
9 -> 10 ;
11 [label="squared_error = 0.0\nsamples = 1\nvalue = 2205.981", fillcolor="#fffdfb"] ;
9 -> 11 ;
12 [label="squared_error = 0.0\nsamples = 1\nvalue = 2128.431", fillcolor="#fffdfc"] ;
8 -> 12 ;
13 [label="age <= 0.011\nsquared_error = 3473.463\nsamples = 5\nvalue = 1693.074", fillcolor="#fffefd"] ;
7 -> 13 ;
14 [label="bmi <= 0.253\nsquared_error = 15.149\nsamples = 2\nvalue = 1610.262", fillcolor="#fffefd"] ;
13 -> 14 ;
15 [label="squared_error = 0.0\nsamples = 1\nvalue = 1607.51", fillcolor="#fffefd"] ;
14 -> 15 ;
16 [label="squared_error = -0.0\nsamples = 1\nvalue = 1615.767", fillcolor="#fffefd"] ;
14 -> 16 ;
17 [label="bmi <= 0.172\nsquared_error = 59.26\nsamples = 3\nvalue = 1734.48", fillcolor="#fffefd"] ;
13 -> 17 ;
18 [label="squared_error = 0.0\nsamples = 1\nvalue = 1727.785", fillcolor="#fffefd"] ;
17 -> 18 ;
19 [label="bmi <= 0.417\nsquared_error = 28.87\nsamples = 2\nvalue = 1741.175", fillcolor="#fffefd"] ;
17 -> 19 ;
20 [label="squared_error = 0.0\nsamples = 1\nvalue = 1737.376", fillcolor="#fffefd"] ;
19 -> 20 ;
21 [label="squared_error = -0.0\nsamples = 1\nvalue = 1748.774", fillcolor="#fffefd"] ;
19 -> 21 ;
22 [label="region <= 0.5\nsquared_error = 43038.525\nsamples = 4\nvalue = 2474.732", fillcolor="#fefcfa"] ;
6 -> 22 ;
23 [label="bmi <= 0.279\nsquared_error = 0.004\nsamples = 2\nvalue = 2709.156", fillcolor="#fefcfa"] ;
22 -> 23 ;
24 [label="squared_error = 0.0\nsamples = 1\nvalue = 2709.112", fillcolor="#fefcfa"] ;
23 -> 24 ;
25 [label="squared_error = 0.0\nsamples = 1\nvalue = 2709.244", fillcolor="#fefcfa"] ;
23 -> 25 ;
26 [label="age <= 0.011\nsquared_error = 3189.351\nsamples = 2\nvalue = 2298.914", fillcolor="#fefcfb"] ;
22 -> 26 ;
27 [label="squared_error = 0.0\nsamples = 1\nvalue = 2201.097", fillcolor="#fffdfb"] ;
26 -> 27 ;
28 [label="squared_error = -0.0\nsamples = 1\nvalue = 2331.519", fillcolor="#fefcfb"] ;
26 -> 28 ;
29 [label="bmi <= 0.503\nsquared_error = 57780.815\nsamples = 13\nvalue = 1521.856", fillcolor="#fffefe"] ;
5 -> 29 ;
30 [label="region <= 0.833\nsquared_error = 40015.444\nsamples = 12\nvalue = 1589.055", fillcolor="#fffefd"] ;
29 -> 30 ;
31 [label="age <= 0.011\nsquared_error = 1142.023\nsamples = 8\nvalue = 1688.569", fillcolor="#fffefd"] ;
30 -> 31 ;
32 [label="bmi <= 0.358\nsquared_error = 65.866\nsamples = 6\nvalue = 1708.713", fillcolor="#fffefd"] ;
31 -> 32 ;
33 [label="bmi <= 0.114\nsquared_error = 19.986\nsamples = 4\nvalue = 1703.353", fillcolor="#fffefd"] ;
32 -> 33 ;
34 [label="squared_error = 0.0\nsamples = 1\nvalue = 1694.796", fillcolor="#fffefd"] ;
33 -> 34 ;
35 [label="bmi <= 0.27\nsquared_error = 2.101\nsamples = 3\nvalue = 1705.492", fillcolor="#fffefd"] ;
33 -> 35 ;
36 [label="bmi <= 0.23\nsquared_error = 0.004\nsamples = 2\nvalue = 1704.656", fillcolor="#fffefd"] ;
35 -> 36 ;
37 [label="squared_error = 0.0\nsamples = 1\nvalue = 1704.568", fillcolor="#fffefd"] ;
36 -> 37 ;
38 [label="squared_error = 0.0\nsamples = 1\nvalue = 1704.7", fillcolor="#fffefd"] ;
36 -> 38 ;
39 [label="squared_error = 0.0\nsamples = 1\nvalue = 1708.001", fillcolor="#fffefd"] ;
35 -> 39 ;
40 [label="region <= 0.333\nsquared_error = 14.676\nsamples = 2\nvalue = 1717.645", fillcolor="#fffefd"] ;
32 -> 40 ;
41 [label="squared_error = 0.0\nsamples = 1\nvalue = 1712.227", fillcolor="#fffefd"] ;
40 -> 41 ;
42 [label="squared_error = 0.0\nsamples = 1\nvalue = 1720.354", fillcolor="#fffefd"] ;
40 -> 42 ;
43 [label="bmi <= 0.31\nsquared_error = 44.364\nsamples = 2\nvalue = 1634.853", fillcolor="#fffefd"] ;
31 -> 43 ;
44 [label="squared_error = 0.0\nsamples = 1\nvalue = 1625.434", fillcolor="#fffefd"] ;
43 -> 44 ;
45 [label="squared_error = 0.0\nsamples = 1\nvalue = 1639.563", fillcolor="#fffefd"] ;
43 -> 45 ;
46 [label="children <= 0.1\nsquared_error = 55819.273\nsamples = 4\nvalue = 1370.124", fillcolor="#fffefe"] ;
30 -> 46 ;
47 [label="bmi <= 0.269\nsquared_error = 37.399\nsamples = 3\nvalue = 1252.025", fillcolor="#ffffff"] ;
46 -> 47 ;
48 [label="squared_error = 0.0\nsamples = 1\nvalue = 1241.565", fillcolor="#ffffff"] ;
47 -> 48 ;
49 [label="bmi <= 0.441\nsquared_error = 1.241\nsamples = 2\nvalue = 1255.511", fillcolor="#ffffff"] ;
47 -> 49 ;
50 [label="squared_error = 0.0\nsamples = 1\nvalue = 1253.936", fillcolor="#ffffff"] ;
49 -> 50 ;
51 [label="squared_error = 0.0\nsamples = 1\nvalue = 1256.299", fillcolor="#ffffff"] ;
49 -> 51 ;
52 [label="squared_error = -0.0\nsamples = 1\nvalue = 1842.519", fillcolor="#fffdfd"] ;
46 -> 52 ;
53 [label="squared_error = -0.0\nsamples = 1\nvalue = 1163.463", fillcolor="#ffffff"] ;
29 -> 53 ;
54 [label="bmi <= 0.558\nsquared_error = 22573179.576\nsamples = 21\nvalue = 3332.78", fillcolor="#fefaf7"] ;
4 -> 54 ;
55 [label="squared_error = 0.0\nsamples = 1\nvalue = 23082.955", fillcolor="#f5cfb3"] ;
54 -> 55 ;
56 [label="region <= 0.167\nsquared_error = 7861682.321\nsamples = 20\nvalue = 2573.158", fillcolor="#fefcfa"] ;
54 -> 56 ;
57 [label="sex <= 0.5\nsquared_error = 18243844.945\nsamples = 4\nvalue = 4347.497", fillcolor="#fef8f4"] ;
56 -> 57 ;
58 [label="bmi <= 0.713\nsquared_error = 12.463\nsamples = 3\nvalue = 2211.857", fillcolor="#fffdfb"] ;
57 -> 58 ;
59 [label="bmi <= 0.599\nsquared_error = 2.619\nsamples = 2\nvalue = 2209.986", fillcolor="#fffdfb"] ;
58 -> 59 ;
60 [label="squared_error = 0.0\nsamples = 1\nvalue = 2207.697", fillcolor="#fffdfb"] ;
59 -> 60 ;
61 [label="squared_error = -0.0\nsamples = 1\nvalue = 2211.131", fillcolor="#fffdfb"] ;
59 -> 61 ;
62 [label="squared_error = 0.0\nsamples = 1\nvalue = 2217.469", fillcolor="#fffdfb"] ;
58 -> 62 ;
63 [label="squared_error = 0.0\nsamples = 1\nvalue = 12890.058", fillcolor="#fae5d6"] ;
57 -> 63 ;
64 [label="bmi <= 0.586\nsquared_error = 4461674.149\nsamples = 16\nvalue = 2150.696", fillcolor="#fffdfc"] ;
56 -> 64 ;
65 [label="sex <= 0.5\nsquared_error = 21155702.197\nsamples = 2\nvalue = 4977.913", fillcolor="#fdf7f2"] ;
64 -> 65 ;
66 [label="squared_error = 0.0\nsamples = 1\nvalue = 11482.635", fillcolor="#fae8db"] ;
65 -> 66 ;
67 [label="squared_error = 0.0\nsamples = 1\nvalue = 1725.552", fillcolor="#fffefd"] ;
65 -> 67 ;
68 [label="sex <= 0.5\nsquared_error = 125110.93\nsamples = 14\nvalue = 1679.493", fillcolor="#fffefd"] ;
64 -> 68 ;
69 [label="bmi <= 0.709\nsquared_error = 63183.298\nsamples = 8\nvalue = 1905.992", fillcolor="#fffdfc"] ;
68 -> 69 ;
70 [label="region <= 0.5\nsquared_error = 1081.725\nsamples = 3\nvalue = 2153.712", fillcolor="#fffdfc"] ;
69 -> 70 ;
71 [label="bmi <= 0.66\nsquared_error = 1.883\nsamples = 2\nvalue = 2137.278", fillcolor="#fffdfc"] ;
70 -> 71 ;
72 [label="squared_error = 0.0\nsamples = 1\nvalue = 2134.902", fillcolor="#fffdfc"] ;
71 -> 72 ;
73 [label="squared_error = -0.0\nsamples = 1\nvalue = 2138.071", fillcolor="#fffdfc"] ;
71 -> 73 ;
74 [label="squared_error = -0.0\nsamples = 1\nvalue = 2219.445", fillcolor="#fffdfb"] ;
70 -> 74 ;
75 [label="bmi <= 0.793\nsquared_error = 2554.869\nsamples = 5\nvalue = 1658.273", fillcolor="#fffefd"] ;
69 -> 75 ;
76 [label="bmi <= 0.75\nsquared_error = 1.641\nsamples = 4\nvalue = 1633.006", fillcolor="#fffefd"] ;
75 -> 76 ;
77 [label="bmi <= 0.723\nsquared_error = 0.006\nsamples = 2\nvalue = 1631.745", fillcolor="#fffefd"] ;
76 -> 77 ;
78 [label="squared_error = 0.0\nsamples = 1\nvalue = 1631.668", fillcolor="#fffefd"] ;
77 -> 78 ;
79 [label="squared_error = 0.0\nsamples = 1\nvalue = 1631.821", fillcolor="#fffefd"] ;
77 -> 79 ;
80 [label="bmi <= 0.782\nsquared_error = 0.094\nsamples = 2\nvalue = 1634.268", fillcolor="#fffefd"] ;
76 -> 80 ;
81 [label="squared_error = 0.0\nsamples = 1\nvalue = 1633.962", fillcolor="#fffefd"] ;
80 -> 81 ;
82 [label="squared_error = -0.0\nsamples = 1\nvalue = 1634.573", fillcolor="#fffefd"] ;
80 -> 82 ;
83 [label="squared_error = -0.0\nsamples = 1\nvalue = 1759.338", fillcolor="#fffefd"] ;
75 -> 83 ;
84 [label="children <= 0.1\nsquared_error = 58233.797\nsamples = 6\nvalue = 1396.369", fillcolor="#fffefe"] ;
68 -> 84 ;
85 [label="region <= 0.5\nsquared_error = 28900.883\nsamples = 5\nvalue = 1285.978", fillcolor="#ffffff"] ;
84 -> 85 ;
86 [label="squared_error = 0.0\nsamples = 1\nvalue = 1646.43", fillcolor="#fffefd"] ;
85 -> 86 ;
87 [label="bmi <= 0.662\nsquared_error = 3499.011\nsamples = 4\nvalue = 1213.888", fillcolor="#ffffff"] ;
85 -> 87 ;
88 [label="bmi <= 0.615\nsquared_error = 0.597\nsamples = 3\nvalue = 1262.183", fillcolor="#ffffff"] ;
87 -> 88 ;
89 [label="bmi <= 0.594\nsquared_error = 0.043\nsamples = 2\nvalue = 1261.65", fillcolor="#ffffff"] ;
88 -> 89 ;
90 [label="squared_error = 0.0\nsamples = 1\nvalue = 1261.442", fillcolor="#ffffff"] ;
89 -> 90 ;
91 [label="squared_error = 0.0\nsamples = 1\nvalue = 1261.859", fillcolor="#ffffff"] ;
89 -> 91 ;
92 [label="squared_error = 0.0\nsamples = 1\nvalue = 1263.249", fillcolor="#ffffff"] ;
88 -> 92 ;
93 [label="squared_error = -0.0\nsamples = 1\nvalue = 1141.445", fillcolor="#ffffff"] ;
87 -> 93 ;
94 [label="squared_error = -0.0\nsamples = 1\nvalue = 1727.54", fillcolor="#fffefd"] ;
84 -> 94 ;
95 [label="age <= 0.402\nsquared_error = 24762509.907\nsamples = 182\nvalue = 5945.122", fillcolor="#fdf4ee"] ;
3 -> 95 ;
96 [label="age <= 0.054\nsquared_error = 30294830.282\nsamples = 122\nvalue = 5149.738", fillcolor="#fdf6f1"] ;
95 -> 96 ;
97 [label="bmi <= 0.581\nsquared_error = 144939183.454\nsamples = 7\nvalue = 10701.084", fillcolor="#fbeade"] ;
96 -> 97 ;
98 [label="bmi <= 0.461\nsquared_error = 66659.361\nsamples = 6\nvalue = 2189.482", fillcolor="#fffdfb"] ;
97 -> 98 ;
99 [label="sex <= 0.5\nsquared_error = 40161.595\nsamples = 3\nvalue = 1998.01", fillcolor="#fffdfc"] ;
98 -> 99 ;
100 [label="squared_error = 0.0\nsamples = 1\nvalue = 2257.475", fillcolor="#fefdfb"] ;
99 -> 100 ;
101 [label="region <= 0.167\nsquared_error = 9750.679\nsamples = 2\nvalue = 1868.277", fillcolor="#fffdfc"] ;
99 -> 101 ;
102 [label="squared_error = 0.0\nsamples = 1\nvalue = 1967.023", fillcolor="#fffdfc"] ;
101 -> 102 ;
103 [label="squared_error = 0.0\nsamples = 1\nvalue = 1769.532", fillcolor="#fffefd"] ;
101 -> 103 ;
104 [label="region <= 0.5\nsquared_error = 47362.846\nsamples = 3\nvalue = 2304.366", fillcolor="#fefcfb"] ;
98 -> 104 ;
105 [label="sex <= 0.5\nsquared_error = 2376.126\nsamples = 2\nvalue = 2410.975", fillcolor="#fefcfb"] ;
104 -> 105 ;
106 [label="squared_error = 0.0\nsamples = 1\nvalue = 2459.72", fillcolor="#fefcfa"] ;
105 -> 106 ;
107 [label="squared_error = -0.0\nsamples = 1\nvalue = 2362.229", fillcolor="#fefcfb"] ;
105 -> 107 ;
108 [label="squared_error = 0.0\nsamples = 1\nvalue = 1877.929", fillcolor="#fffdfc"] ;
104 -> 108 ;
109 [label="squared_error = 0.0\nsamples = 1\nvalue = 27724.289", fillcolor="#f3c5a3"] ;
97 -> 109 ;
110 [label="age <= 0.098\nsquared_error = 20677115.057\nsamples = 115\nvalue = 4787.694", fillcolor="#fdf7f2"] ;
96 -> 110 ;
111 [label="bmi <= 0.479\nsquared_error = 6380263.997\nsamples = 20\nvalue = 2660.813", fillcolor="#fefcfa"] ;
110 -> 111 ;
112 [label="region <= 0.5\nsquared_error = 127619.386\nsamples = 11\nvalue = 2303.803", fillcolor="#fefcfb"] ;
111 -> 112 ;
113 [label="bmi <= 0.35\nsquared_error = 50593.115\nsamples = 5\nvalue = 2530.301", fillcolor="#fefcfa"] ;
112 -> 113 ;
114 [label="bmi <= 0.25\nsquared_error = 57400.109\nsamples = 3\nvalue = 2423.227", fillcolor="#fefcfb"] ;
113 -> 114 ;
115 [label="region <= 0.167\nsquared_error = 538.834\nsamples = 2\nvalue = 2574.244", fillcolor="#fefcfa"] ;
114 -> 115 ;
116 [label="squared_error = 0.0\nsamples = 1\nvalue = 2585.851", fillcolor="#fefcfa"] ;
115 -> 116 ;
117 [label="squared_error = 0.0\nsamples = 1\nvalue = 2527.819", fillcolor="#fefcfa"] ;
115 -> 117 ;
118 [label="squared_error = -0.0\nsamples = 1\nvalue = 2045.685", fillcolor="#fffdfc"] ;
114 -> 118 ;
119 [label="bmi <= 0.435\nsquared_error = 2541.47\nsamples = 2\nvalue = 2680.205", fillcolor="#fefcfa"] ;
113 -> 119 ;
120 [label="squared_error = -0.0\nsamples = 1\nvalue = 2639.043", fillcolor="#fefcfa"] ;
119 -> 120 ;
121 [label="squared_error = 0.0\nsamples = 1\nvalue = 2741.948", fillcolor="#fefbf9"] ;
119 -> 121 ;
122 [label="region <= 0.833\nsquared_error = 50777.568\nsamples = 6\nvalue = 1964.055", fillcolor="#fffdfc"] ;
112 -> 122 ;
123 [label="bmi <= 0.373\nsquared_error = 74799.58\nsamples = 3\nvalue = 1778.675", fillcolor="#fffefd"] ;
122 -> 123 ;
124 [label="age <= 0.076\nsquared_error = 5599.132\nsamples = 2\nvalue = 1590.172", fillcolor="#fffefd"] ;
123 -> 124 ;
125 [label="squared_error = 0.0\nsamples = 1\nvalue = 1515.345", fillcolor="#fffefe"] ;
124 -> 125 ;
126 [label="squared_error = 0.0\nsamples = 1\nvalue = 1665.0", fillcolor="#fffefd"] ;
124 -> 126 ;
127 [label="squared_error = -0.0\nsamples = 1\nvalue = 2155.682", fillcolor="#fffdfc"] ;
123 -> 127 ;
128 [label="age <= 0.076\nsquared_error = 3373.498\nsamples = 3\nvalue = 2075.282", fillcolor="#fffdfc"] ;
122 -> 128 ;
129 [label="sex <= 0.5\nsquared_error = 2262.667\nsamples = 2\nvalue = 2055.512", fillcolor="#fffdfc"] ;
128 -> 129 ;
130 [label="squared_error = 0.0\nsamples = 1\nvalue = 2007.945", fillcolor="#fffdfc"] ;
129 -> 130 ;
131 [label="squared_error = -0.0\nsamples = 1\nvalue = 2103.08", fillcolor="#fffdfc"] ;
129 -> 131 ;
132 [label="squared_error = -0.0\nsamples = 1\nvalue = 2154.361", fillcolor="#fffdfc"] ;
128 -> 132 ;
133 [label="bmi <= 0.494\nsquared_error = 16234866.68\nsamples = 9\nvalue = 3255.829", fillcolor="#fefaf8"] ;
111 -> 133 ;
134 [label="squared_error = 0.0\nsamples = 1\nvalue = 16586.498", fillcolor="#f8ddca"] ;
133 -> 134 ;
135 [label="age <= 0.076\nsquared_error = 86956.642\nsamples = 8\nvalue = 2043.95", fillcolor="#fffdfc"] ;
133 -> 135 ;
136 [label="sex <= 0.5\nsquared_error = 57970.531\nsamples = 4\nvalue = 1828.255", fillcolor="#fffdfd"] ;
135 -> 136 ;
137 [label="bmi <= 0.689\nsquared_error = 9.164\nsamples = 2\nvalue = 2024.834", fillcolor="#fffdfc"] ;
136 -> 137 ;
138 [label="squared_error = 0.0\nsamples = 1\nvalue = 2020.552", fillcolor="#fffdfc"] ;
137 -> 138 ;
139 [label="squared_error = 0.0\nsamples = 1\nvalue = 2026.974", fillcolor="#fffdfc"] ;
137 -> 139 ;
140 [label="bmi <= 0.657\nsquared_error = 0.842\nsamples = 2\nvalue = 1533.387", fillcolor="#fffefe"] ;
136 -> 140 ;
141 [label="squared_error = 0.0\nsamples = 1\nvalue = 1532.47", fillcolor="#fffefe"] ;
140 -> 141 ;
142 [label="squared_error = 0.0\nsamples = 1\nvalue = 1534.304", fillcolor="#fffefe"] ;
140 -> 142 ;
143 [label="children <= 0.1\nsquared_error = 40032.631\nsamples = 4\nvalue = 2223.696", fillcolor="#fffdfb"] ;
135 -> 143 ;
144 [label="region <= 0.167\nsquared_error = 5789.398\nsamples = 3\nvalue = 2139.782", fillcolor="#fffdfc"] ;
143 -> 144 ;
145 [label="squared_error = 0.0\nsamples = 1\nvalue = 2254.797", fillcolor="#fefdfb"] ;
144 -> 145 ;
146 [label="bmi <= 0.588\nsquared_error = 3102.885\nsamples = 2\nvalue = 2111.028", fillcolor="#fffdfc"] ;
144 -> 146 ;
147 [label="squared_error = 0.0\nsamples = 1\nvalue = 2055.325", fillcolor="#fffdfc"] ;
146 -> 147 ;
148 [label="squared_error = 0.0\nsamples = 1\nvalue = 2166.732", fillcolor="#fffdfb"] ;
146 -> 148 ;
149 [label="squared_error = 0.0\nsamples = 1\nvalue = 2643.268", fillcolor="#fefcfa"] ;
143 -> 149 ;
150 [label="age <= 0.141\nsquared_error = 22534143.841\nsamples = 95\nvalue = 5235.458", fillcolor="#fdf6f1"] ;
110 -> 150 ;
151 [label="bmi <= 0.239\nsquared_error = 74462708.692\nsamples = 12\nvalue = 7942.821", fillcolor="#fcf0e8"] ;
150 -> 151 ;
152 [label="bmi <= 0.068\nsquared_error = 95993084.458\nsamples = 3\nvalue = 16484.114", fillcolor="#f8ddca"] ;
151 -> 152 ;
153 [label="squared_error = 0.0\nsamples = 1\nvalue = 2775.192", fillcolor="#fefbf9"] ;
152 -> 153 ;
154 [label="region <= 0.5\nsquared_error = 3038721.051\nsamples = 2\nvalue = 23338.575", fillcolor="#f5ceb2"] ;
152 -> 154 ;
155 [label="squared_error = 0.0\nsamples = 1\nvalue = 21595.382", fillcolor="#f6d2b8"] ;
154 -> 155 ;
156 [label="squared_error = -0.0\nsamples = 1\nvalue = 25081.768", fillcolor="#f4caac"] ;
154 -> 156 ;
157 [label="bmi <= 0.386\nsquared_error = 15314249.099\nsamples = 9\nvalue = 4000.686", fillcolor="#fef9f5"] ;
151 -> 157 ;
158 [label="sex <= 0.5\nsquared_error = 222652.17\nsamples = 7\nvalue = 2333.86", fillcolor="#fefcfb"] ;
157 -> 158 ;
159 [label="region <= 0.5\nsquared_error = 56362.908\nsamples = 3\nvalue = 2849.876", fillcolor="#fefbf9"] ;
158 -> 159 ;
160 [label="bmi <= 0.307\nsquared_error = 9184.755\nsamples = 2\nvalue = 2978.295", fillcolor="#fefbf9"] ;
159 -> 160 ;
161 [label="squared_error = 0.0\nsamples = 1\nvalue = 2842.761", fillcolor="#fefbf9"] ;
160 -> 161 ;
162 [label="squared_error = 0.0\nsamples = 1\nvalue = 3046.062", fillcolor="#fefbf8"] ;
160 -> 162 ;
163 [label="squared_error = 0.0\nsamples = 1\nvalue = 2464.619", fillcolor="#fefcfa"] ;
159 -> 163 ;
164 [label="region <= 0.333\nsquared_error = 37654.023\nsamples = 4\nvalue = 1989.85", fillcolor="#fffdfc"] ;
158 -> 164 ;
165 [label="squared_error = 0.0\nsamples = 1\nvalue = 2395.172", fillcolor="#fefcfb"] ;
164 -> 165 ;
166 [label="bmi <= 0.331\nsquared_error = 5756.337\nsamples = 3\nvalue = 1908.786", fillcolor="#fffdfc"] ;
164 -> 166 ;
167 [label="bmi <= 0.281\nsquared_error = 2.473\nsamples = 2\nvalue = 1970.726", fillcolor="#fffdfc"] ;
166 -> 167 ;
168 [label="squared_error = 0.0\nsamples = 1\nvalue = 1969.614", fillcolor="#fffdfc"] ;
167 -> 168 ;
169 [label="squared_error = 0.0\nsamples = 1\nvalue = 1972.95", fillcolor="#fffdfc"] ;
167 -> 169 ;
170 [label="squared_error = -0.0\nsamples = 1\nvalue = 1815.876", fillcolor="#fffefd"] ;
166 -> 170 ;
171 [label="children <= 0.1\nsquared_error = 25488478.879\nsamples = 2\nvalue = 9556.77", fillcolor="#fbede2"] ;
157 -> 171 ;
172 [label="squared_error = 0.0\nsamples = 1\nvalue = 13126.677", fillcolor="#fae5d6"] ;
171 -> 172 ;
173 [label="squared_error = -0.0\nsamples = 1\nvalue = 2416.955", fillcolor="#fefcfb"] ;
171 -> 173 ;
174 [label="children <= 0.1\nsquared_error = 13919073.068\nsamples = 83\nvalue = 4848.692", fillcolor="#fdf7f2"] ;
150 -> 174 ;
175 [label="bmi <= 0.577\nsquared_error = 4730737.499\nsamples = 40\nvalue = 3991.537", fillcolor="#fef9f5"] ;
174 -> 175 ;
176 [label="age <= 0.337\nsquared_error = 697184.449\nsamples = 34\nvalue = 3697.006", fillcolor="#fef9f6"] ;
175 -> 176 ;
177 [label="age <= 0.228\nsquared_error = 266556.181\nsamples = 27\nvalue = 3324.727", fillcolor="#fefaf7"] ;
176 -> 177 ;
178 [label="sex <= 0.5\nsquared_error = 155795.178\nsamples = 17\nvalue = 3027.823", fillcolor="#fefbf8"] ;
177 -> 178 ;
179 [label="region <= 0.167\nsquared_error = 43630.202\nsamples = 8\nvalue = 3320.745", fillcolor="#fefaf7"] ;
178 -> 179 ;
180 [label="bmi <= 0.358\nsquared_error = 16730.174\nsamples = 3\nvalue = 3501.011", fillcolor="#fefaf7"] ;
179 -> 180 ;
181 [label="bmi <= 0.171\nsquared_error = 6728.375\nsamples = 2\nvalue = 3616.622", fillcolor="#fefaf6"] ;
180 -> 181 ;
182 [label="squared_error = 0.0\nsamples = 1\nvalue = 3732.625", fillcolor="#fef9f6"] ;
181 -> 182 ;
183 [label="squared_error = -0.0\nsamples = 1\nvalue = 3558.62", fillcolor="#fefaf7"] ;
181 -> 183 ;
184 [label="squared_error = -0.0\nsamples = 1\nvalue = 3385.399", fillcolor="#fefaf7"] ;
180 -> 184 ;
185 [label="region <= 0.833\nsquared_error = 5539.136\nsamples = 5\nvalue = 3140.48", fillcolor="#fefbf8"] ;
179 -> 185 ;
186 [label="region <= 0.5\nsquared_error = 5.463\nsamples = 3\nvalue = 3174.906", fillcolor="#fefbf8"] ;
185 -> 186 ;
187 [label="bmi <= 0.21\nsquared_error = 0.07\nsamples = 2\nvalue = 3176.552", fillcolor="#fefbf8"] ;
186 -> 187 ;
188 [label="squared_error = 0.0\nsamples = 1\nvalue = 3176.288", fillcolor="#fefbf8"] ;
187 -> 188 ;
189 [label="squared_error = -0.0\nsamples = 1\nvalue = 3176.816", fillcolor="#fefbf8"] ;
187 -> 189 ;
190 [label="squared_error = -0.0\nsamples = 1\nvalue = 3171.615", fillcolor="#fefbf8"] ;
186 -> 190 ;
191 [label="bmi <= 0.415\nsquared_error = 8702.499\nsamples = 2\nvalue = 3106.054", fillcolor="#fefbf8"] ;
185 -> 191 ;
192 [label="squared_error = 0.0\nsamples = 1\nvalue = 2974.126", fillcolor="#fefbf9"] ;
191 -> 192 ;
193 [label="squared_error = 0.0\nsamples = 1\nvalue = 3172.018", fillcolor="#fefbf8"] ;
191 -> 193 ;
194 [label="region <= 0.333\nsquared_error = 63872.34\nsamples = 9\nvalue = 2676.317", fillcolor="#fefcfa"] ;
178 -> 194 ;
195 [label="age <= 0.185\nsquared_error = 24009.325\nsamples = 4\nvalue = 2897.531", fillcolor="#fefbf9"] ;
194 -> 195 ;
196 [label="age <= 0.163\nsquared_error = 6654.39\nsamples = 3\nvalue = 2782.013", fillcolor="#fefbf9"] ;
195 -> 196 ;
197 [label="bmi <= 0.404\nsquared_error = 9.224\nsamples = 2\nvalue = 2724.358", fillcolor="#fefcfa"] ;
196 -> 197 ;
198 [label="squared_error = 0.0\nsamples = 1\nvalue = 2721.321", fillcolor="#fefcfa"] ;
197 -> 198 ;
199 [label="squared_error = 0.0\nsamples = 1\nvalue = 2727.395", fillcolor="#fefcfa"] ;
197 -> 199 ;
200 [label="squared_error = -0.0\nsamples = 1\nvalue = 2897.324", fillcolor="#fefbf9"] ;
196 -> 200 ;
201 [label="squared_error = -0.0\nsamples = 1\nvalue = 3070.809", fillcolor="#fefbf8"] ;
195 -> 201 ;
202 [label="age <= 0.185\nsquared_error = 5863.548\nsamples = 5\nvalue = 2455.102", fillcolor="#fefcfa"] ;
194 -> 202 ;
203 [label="squared_error = 0.0\nsamples = 1\nvalue = 2302.3", fillcolor="#fefcfb"] ;
202 -> 203 ;
204 [label="bmi <= 0.352\nsquared_error = 33.031\nsamples = 4\nvalue = 2493.303", fillcolor="#fefcfa"] ;
202 -> 204 ;
205 [label="squared_error = 0.0\nsamples = 1\nvalue = 2483.736", fillcolor="#fefcfa"] ;
204 -> 205 ;
206 [label="region <= 0.833\nsquared_error = 3.365\nsamples = 3\nvalue = 2496.492", fillcolor="#fefcfa"] ;
204 -> 206 ;
207 [label="bmi <= 0.559\nsquared_error = 0.473\nsamples = 2\nvalue = 2497.726", fillcolor="#fefcfa"] ;
206 -> 207 ;
208 [label="squared_error = 0.0\nsamples = 1\nvalue = 2497.038", fillcolor="#fefcfa"] ;
207 -> 208 ;
209 [label="squared_error = 0.0\nsamples = 1\nvalue = 2498.414", fillcolor="#fefcfa"] ;
207 -> 209 ;
210 [label="squared_error = -0.0\nsamples = 1\nvalue = 2494.022", fillcolor="#fefcfa"] ;
206 -> 210 ;
211 [label="region <= 0.833\nsquared_error = 148184.208\nsamples = 10\nvalue = 3708.955", fillcolor="#fef9f6"] ;
177 -> 211 ;
212 [label="bmi <= 0.299\nsquared_error = 104787.321\nsamples = 7\nvalue = 3832.118", fillcolor="#fef9f6"] ;
211 -> 212 ;
213 [label="region <= 0.5\nsquared_error = 578.35\nsamples = 2\nvalue = 4168.093", fillcolor="#fef8f5"] ;
212 -> 213 ;
214 [label="squared_error = 0.0\nsamples = 1\nvalue = 4134.082", fillcolor="#fef8f5"] ;
213 -> 214 ;
215 [label="squared_error = -0.0\nsamples = 1\nvalue = 4185.098", fillcolor="#fef8f5"] ;
213 -> 215 ;
216 [label="region <= 0.5\nsquared_error = 92027.166\nsamples = 5\nvalue = 3731.325", fillcolor="#fef9f6"] ;
212 -> 216 ;
217 [label="bmi <= 0.373\nsquared_error = 7362.446\nsamples = 3\nvalue = 3862.489", fillcolor="#fef9f6"] ;
216 -> 217 ;
218 [label="squared_error = 0.0\nsamples = 1\nvalue = 3736.465", fillcolor="#fef9f6"] ;
217 -> 218 ;
219 [label="age <= 0.272\nsquared_error = 1413.374\nsamples = 2\nvalue = 3912.899", fillcolor="#fef9f5"] ;
217 -> 219 ;
220 [label="squared_error = -0.0\nsamples = 1\nvalue = 3943.595", fillcolor="#fef9f5"] ;
219 -> 220 ;
221 [label="squared_error = 0.0\nsamples = 1\nvalue = 3866.855", fillcolor="#fef9f6"] ;
219 -> 221 ;
222 [label="age <= 0.283\nsquared_error = 155769.395\nsamples = 2\nvalue = 3425.276", fillcolor="#fefaf7"] ;
216 -> 222 ;
223 [label="squared_error = 0.0\nsamples = 1\nvalue = 2867.12", fillcolor="#fefbf9"] ;
222 -> 223 ;
224 [label="squared_error = -0.0\nsamples = 1\nvalue = 3704.354", fillcolor="#fef9f6"] ;
222 -> 224 ;
225 [label="age <= 0.25\nsquared_error = 79699.629\nsamples = 3\nvalue = 3308.674", fillcolor="#fefaf8"] ;
211 -> 225 ;
226 [label="squared_error = 0.0\nsamples = 1\nvalue = 2866.091", fillcolor="#fefbf9"] ;
225 -> 226 ;
227 [label="bmi <= 0.263\nsquared_error = 19208.523\nsamples = 2\nvalue = 3456.202", fillcolor="#fefaf7"] ;
225 -> 227 ;
228 [label="squared_error = 0.0\nsamples = 1\nvalue = 3260.199", fillcolor="#fefaf8"] ;
227 -> 228 ;
229 [label="squared_error = 0.0\nsamples = 1\nvalue = 3554.203", fillcolor="#fefaf7"] ;
227 -> 229 ;
230 [label="region <= 0.5\nsquared_error = 182421.955\nsamples = 7\nvalue = 4906.915", fillcolor="#fdf7f2"] ;
176 -> 230 ;
231 [label="bmi <= 0.301\nsquared_error = 89857.417\nsamples = 5\nvalue = 5154.409", fillcolor="#fdf6f1"] ;
230 -> 231 ;
232 [label="sex <= 0.5\nsquared_error = 53800.124\nsamples = 2\nvalue = 4828.364", fillcolor="#fdf7f2"] ;
231 -> 232 ;
233 [label="squared_error = 0.0\nsamples = 1\nvalue = 4992.376", fillcolor="#fdf7f2"] ;
232 -> 233 ;
234 [label="squared_error = 0.0\nsamples = 1\nvalue = 4500.339", fillcolor="#fdf8f3"] ;
232 -> 234 ;
235 [label="region <= 0.167\nsquared_error = 9438.441\nsamples = 3\nvalue = 5350.037", fillcolor="#fdf6f0"] ;
231 -> 235 ;
236 [label="squared_error = 0.0\nsamples = 1\nvalue = 5469.007", fillcolor="#fdf6f0"] ;
235 -> 236 ;
237 [label="bmi <= 0.406\nsquared_error = 4.22\nsamples = 2\nvalue = 5270.723", fillcolor="#fdf6f1"] ;
235 -> 237 ;
238 [label="squared_error = 0.0\nsamples = 1\nvalue = 5267.818", fillcolor="#fdf6f1"] ;
237 -> 238 ;
239 [label="squared_error = -0.0\nsamples = 1\nvalue = 5272.176", fillcolor="#fdf6f1"] ;
237 -> 239 ;
240 [label="bmi <= 0.443\nsquared_error = 31.327\nsamples = 2\nvalue = 4411.927", fillcolor="#fef8f4"] ;
230 -> 240 ;
241 [label="squared_error = 0.0\nsamples = 1\nvalue = 4415.159", fillcolor="#fef8f4"] ;
240 -> 241 ;
242 [label="squared_error = 0.0\nsamples = 1\nvalue = 4402.233", fillcolor="#fef8f4"] ;
240 -> 242 ;
243 [label="bmi <= 0.594\nsquared_error = 22603123.346\nsamples = 6\nvalue = 5493.642", fillcolor="#fdf5f0"] ;
175 -> 243 ;
244 [label="squared_error = 0.0\nsamples = 1\nvalue = 19673.336", fillcolor="#f7d6bf"] ;
243 -> 244 ;
245 [label="age <= 0.261\nsquared_error = 291899.506\nsamples = 5\nvalue = 3918.12", fillcolor="#fef9f5"] ;
243 -> 245 ;
246 [label="bmi <= 0.664\nsquared_error = 167206.539\nsamples = 2\nvalue = 3267.78", fillcolor="#fefaf8"] ;
245 -> 246 ;
247 [label="squared_error = 0.0\nsamples = 1\nvalue = 3556.922", fillcolor="#fefaf7"] ;
246 -> 247 ;
248 [label="squared_error = 0.0\nsamples = 1\nvalue = 2689.495", fillcolor="#fefcfa"] ;
246 -> 248 ;
249 [label="region <= 0.667\nsquared_error = 37039.315\nsamples = 3\nvalue = 4243.29", fillcolor="#fef8f4"] ;
245 -> 249 ;
250 [label="region <= 0.167\nsquared_error = 7381.626\nsamples = 2\nvalue = 4370.015", fillcolor="#fef8f4"] ;
249 -> 250 ;
251 [label="squared_error = 0.0\nsamples = 1\nvalue = 4518.826", fillcolor="#fdf8f3"] ;
250 -> 251 ;
252 [label="squared_error = 0.0\nsamples = 1\nvalue = 4320.411", fillcolor="#fef8f4"] ;
250 -> 252 ;
253 [label="squared_error = -0.0\nsamples = 1\nvalue = 3989.841", fillcolor="#fef9f5"] ;
249 -> 253 ;
254 [label="sex <= 0.5\nsquared_error = 20553800.503\nsamples = 43\nvalue = 5574.893", fillcolor="#fdf5f0"] ;
174 -> 254 ;
255 [label="region <= 0.167\nsquared_error = 29063013.431\nsamples = 29\nvalue = 6568.212", fillcolor="#fdf3ec"] ;
254 -> 255 ;
256 [label="bmi <= 0.52\nsquared_error = 58897842.718\nsamples = 6\nvalue = 11544.114", fillcolor="#fae8db"] ;
255 -> 256 ;
257 [label="bmi <= 0.346\nsquared_error = 47726435.131\nsamples = 5\nvalue = 7864.425", fillcolor="#fcf0e8"] ;
256 -> 257 ;
258 [label="bmi <= 0.248\nsquared_error = 74098267.935\nsamples = 3\nvalue = 11120.842", fillcolor="#fae9dd"] ;
257 -> 258 ;
259 [label="bmi <= 0.213\nsquared_error = 100663.616\nsamples = 2\nvalue = 5036.799", fillcolor="#fdf6f2"] ;
258 -> 259 ;
260 [label="squared_error = 0.0\nsamples = 1\nvalue = 5354.075", fillcolor="#fdf6f0"] ;
259 -> 260 ;
261 [label="squared_error = 0.0\nsamples = 1\nvalue = 4719.524", fillcolor="#fdf7f3"] ;
259 -> 261 ;
262 [label="squared_error = 0.0\nsamples = 1\nvalue = 23288.928", fillcolor="#f5ceb3"] ;
258 -> 262 ;
263 [label="age <= 0.261\nsquared_error = 146094.412\nsamples = 2\nvalue = 4608.008", fillcolor="#fdf7f3"] ;
257 -> 263 ;
264 [label="squared_error = 0.0\nsamples = 1\nvalue = 4337.735", fillcolor="#fef8f4"] ;
263 -> 264 ;
265 [label="squared_error = -0.0\nsamples = 1\nvalue = 5148.553", fillcolor="#fdf6f1"] ;
263 -> 265 ;
266 [label="squared_error = 0.0\nsamples = 1\nvalue = 18903.491", fillcolor="#f7d8c2"] ;
256 -> 266 ;
267 [label="age <= 0.293\nsquared_error = 14318330.264\nsamples = 23\nvalue = 5357.858", fillcolor="#fdf6f0"] ;
255 -> 267 ;
268 [label="bmi <= 0.554\nsquared_error = 8963419.411\nsamples = 14\nvalue = 4405.363", fillcolor="#fef8f4"] ;
267 -> 268 ;
269 [label="bmi <= 0.48\nsquared_error = 13748636.971\nsamples = 8\nvalue = 5005.405", fillcolor="#fdf7f2"] ;
268 -> 269 ;
270 [label="age <= 0.228\nsquared_error = 305119.726\nsamples = 5\nvalue = 3823.124", fillcolor="#fef9f6"] ;
269 -> 270 ;
271 [label="bmi <= 0.196\nsquared_error = 20789.341\nsamples = 3\nvalue = 3383.195", fillcolor="#fefaf7"] ;
270 -> 271 ;
272 [label="bmi <= 0.141\nsquared_error = 7235.459\nsamples = 2\nvalue = 3293.848", fillcolor="#fefaf8"] ;
271 -> 272 ;
273 [label="squared_error = 0.0\nsamples = 1\nvalue = 3378.91", fillcolor="#fefaf7"] ;
272 -> 273 ;
274 [label="squared_error = -0.0\nsamples = 1\nvalue = 3208.787", fillcolor="#fefaf8"] ;
272 -> 274 ;
275 [label="squared_error = -0.0\nsamples = 1\nvalue = 3561.889", fillcolor="#fefaf7"] ;
271 -> 275 ;
276 [label="region <= 0.5\nsquared_error = 5852.208\nsamples = 2\nvalue = 4483.016", fillcolor="#fdf8f3"] ;
270 -> 276 ;
277 [label="squared_error = 0.0\nsamples = 1\nvalue = 4527.183", fillcolor="#fdf8f3"] ;
276 -> 277 ;
278 [label="squared_error = 0.0\nsamples = 1\nvalue = 4350.514", fillcolor="#fef8f4"] ;
276 -> 278 ;
279 [label="age <= 0.207\nsquared_error = 35126773.38\nsamples = 3\nvalue = 7961.108", fillcolor="#fcf0e7"] ;
269 -> 279 ;
280 [label="squared_error = 0.0\nsamples = 1\nvalue = 18218.161", fillcolor="#f7dac4"] ;
279 -> 280 ;
281 [label="region <= 0.667\nsquared_error = 76971.145\nsamples = 2\nvalue = 4542.091", fillcolor="#fdf8f3"] ;
279 -> 281 ;
282 [label="squared_error = 0.0\nsamples = 1\nvalue = 4738.268", fillcolor="#fdf7f3"] ;
281 -> 282 ;
283 [label="squared_error = -0.0\nsamples = 1\nvalue = 4149.736", fillcolor="#fef8f5"] ;
281 -> 283 ;
284 [label="age <= 0.207\nsquared_error = 88435.109\nsamples = 6\nvalue = 3471.964", fillcolor="#fefaf7"] ;
268 -> 284 ;
285 [label="age <= 0.163\nsquared_error = 16041.113\nsamples = 4\nvalue = 3332.823", fillcolor="#fefaf7"] ;
284 -> 285 ;
286 [label="bmi <= 0.718\nsquared_error = 32.005\nsamples = 2\nvalue = 3232.778", fillcolor="#fefaf8"] ;
285 -> 286 ;
287 [label="squared_error = 0.0\nsamples = 1\nvalue = 3227.121", fillcolor="#fefaf8"] ;
286 -> 287 ;
288 [label="squared_error = -0.0\nsamples = 1\nvalue = 3238.436", fillcolor="#fefaf8"] ;
286 -> 288 ;
289 [label="bmi <= 0.735\nsquared_error = 6247.757\nsamples = 2\nvalue = 3466.216", fillcolor="#fefaf7"] ;
285 -> 289 ;
290 [label="squared_error = 0.0\nsamples = 1\nvalue = 3577.999", fillcolor="#fefaf7"] ;
289 -> 290 ;
291 [label="squared_error = -0.0\nsamples = 1\nvalue = 3410.324", fillcolor="#fefaf7"] ;
289 -> 291 ;
292 [label="age <= 0.239\nsquared_error = 36891.826\nsamples = 2\nvalue = 3958.956", fillcolor="#fef9f5"] ;
284 -> 292 ;
293 [label="squared_error = 0.0\nsamples = 1\nvalue = 3766.884", fillcolor="#fef9f6"] ;
292 -> 293 ;
294 [label="squared_error = -0.0\nsamples = 1\nvalue = 4151.029", fillcolor="#fef8f5"] ;
292 -> 294 ;
295 [label="age <= 0.315\nsquared_error = 19176566.144\nsamples = 9\nvalue = 6922.671", fillcolor="#fcf2eb"] ;
267 -> 295 ;
296 [label="squared_error = 0.0\nsamples = 1\nvalue = 17626.24", fillcolor="#f8dbc6"] ;
295 -> 296 ;
297 [label="age <= 0.359\nsquared_error = 95864.902\nsamples = 8\nvalue = 5138.743", fillcolor="#fdf6f1"] ;
295 -> 297 ;
298 [label="age <= 0.337\nsquared_error = 11145.724\nsamples = 4\nvalue = 4854.999", fillcolor="#fdf7f2"] ;
297 -> 298 ;
299 [label="region <= 0.833\nsquared_error = 219.555\nsamples = 2\nvalue = 4780.839", fillcolor="#fdf7f2"] ;
298 -> 299 ;
300 [label="squared_error = 0.0\nsamples = 1\nvalue = 4795.657", fillcolor="#fdf7f2"] ;
299 -> 300 ;
301 [label="squared_error = 0.0\nsamples = 1\nvalue = 4766.022", fillcolor="#fdf7f3"] ;
299 -> 301 ;
302 [label="bmi <= 0.362\nsquared_error = 0.286\nsamples = 2\nvalue = 5003.318", fillcolor="#fdf7f2"] ;
298 -> 302 ;
303 [label="squared_error = 0.0\nsamples = 1\nvalue = 5002.783", fillcolor="#fdf7f2"] ;
302 -> 303 ;
304 [label="squared_error = 0.0\nsamples = 1\nvalue = 5003.853", fillcolor="#fdf7f2"] ;
302 -> 304 ;
305 [label="region <= 0.833\nsquared_error = 19562.638\nsamples = 4\nvalue = 5422.487", fillcolor="#fdf6f0"] ;
297 -> 305 ;
306 [label="region <= 0.5\nsquared_error = 5808.044\nsamples = 2\nvalue = 5554.247", fillcolor="#fdf5f0"] ;
305 -> 306 ;
307 [label="squared_error = 0.0\nsamples = 1\nvalue = 5630.458", fillcolor="#fdf5f0"] ;
306 -> 307 ;
308 [label="squared_error = -0.0\nsamples = 1\nvalue = 5478.037", fillcolor="#fdf5f0"] ;
306 -> 308 ;
309 [label="bmi <= 0.406\nsquared_error = 13419.369\nsamples = 2\nvalue = 5356.607", fillcolor="#fdf6f0"] ;
305 -> 309 ;
310 [label="squared_error = 0.0\nsamples = 1\nvalue = 5472.449", fillcolor="#fdf5f0"] ;
309 -> 310 ;
311 [label="squared_error = 0.0\nsamples = 1\nvalue = 5240.765", fillcolor="#fdf6f1"] ;
309 -> 311 ;
312 [label="age <= 0.217\nsquared_error = 664874.469\nsamples = 14\nvalue = 3817.482", fillcolor="#fef9f6"] ;
254 -> 312 ;
313 [label="region <= 0.333\nsquared_error = 63309.176\nsamples = 5\nvalue = 3073.805", fillcolor="#fefbf8"] ;
312 -> 313 ;
314 [label="bmi <= 0.429\nsquared_error = 6126.171\nsamples = 2\nvalue = 3445.36", fillcolor="#fefaf7"] ;
313 -> 314 ;
315 [label="squared_error = 0.0\nsamples = 1\nvalue = 3309.793", fillcolor="#fefaf8"] ;
314 -> 315 ;
316 [label="squared_error = 0.0\nsamples = 1\nvalue = 3490.549", fillcolor="#fefaf7"] ;
314 -> 316 ;
317 [label="bmi <= 0.724\nsquared_error = 96.954\nsamples = 3\nvalue = 2908.669", fillcolor="#fefbf9"] ;
313 -> 317 ;
318 [label="region <= 0.833\nsquared_error = 0.342\nsamples = 2\nvalue = 2903.413", fillcolor="#fefbf9"] ;
317 -> 318 ;
319 [label="squared_error = 0.0\nsamples = 1\nvalue = 2902.906", fillcolor="#fefbf9"] ;
318 -> 319 ;
320 [label="squared_error = 0.0\nsamples = 1\nvalue = 2904.088", fillcolor="#fefbf9"] ;
318 -> 320 ;
321 [label="squared_error = 0.0\nsamples = 1\nvalue = 2927.065", fillcolor="#fefbf9"] ;
317 -> 321 ;
322 [label="age <= 0.359\nsquared_error = 160328.59\nsamples = 9\nvalue = 4561.159", fillcolor="#fdf7f3"] ;
312 -> 322 ;
323 [label="bmi <= 0.542\nsquared_error = 31013.445\nsamples = 6\nvalue = 4326.849", fillcolor="#fef8f4"] ;
322 -> 323 ;
324 [label="age <= 0.293\nsquared_error = 3708.233\nsamples = 3\nvalue = 4212.509", fillcolor="#fef8f4"] ;
323 -> 324 ;
325 [label="region <= 0.167\nsquared_error = 10.026\nsamples = 2\nvalue = 4239.712", fillcolor="#fef8f4"] ;
324 -> 325 ;
326 [label="squared_error = 0.0\nsamples = 1\nvalue = 4237.127", fillcolor="#fef8f4"] ;
325 -> 326 ;
327 [label="squared_error = -0.0\nsamples = 1\nvalue = 4243.59", fillcolor="#fef8f4"] ;
325 -> 327 ;
328 [label="squared_error = 0.0\nsamples = 1\nvalue = 4076.497", fillcolor="#fef9f5"] ;
324 -> 328 ;
329 [label="region <= 0.167\nsquared_error = 7182.044\nsamples = 3\nvalue = 4555.529", fillcolor="#fdf8f3"] ;
323 -> 329 ;
330 [label="squared_error = 0.0\nsamples = 1\nvalue = 4667.608", fillcolor="#fdf7f3"] ;
329 -> 330 ;
331 [label="region <= 0.667\nsquared_error = 1351.93\nsamples = 2\nvalue = 4499.49", fillcolor="#fdf8f3"] ;
329 -> 331 ;
332 [label="squared_error = 0.0\nsamples = 1\nvalue = 4462.722", fillcolor="#fdf8f4"] ;
331 -> 332 ;
333 [label="squared_error = -0.0\nsamples = 1\nvalue = 4536.259", fillcolor="#fdf8f3"] ;
331 -> 333 ;
334 [label="region <= 0.5\nsquared_error = 49825.431\nsamples = 3\nvalue = 5088.354", fillcolor="#fdf6f1"] ;
322 -> 334 ;
335 [label="age <= 0.38\nsquared_error = 14662.008\nsamples = 2\nvalue = 5202.122", fillcolor="#fdf6f1"] ;
334 -> 335 ;
336 [label="squared_error = 0.0\nsamples = 1\nvalue = 5116.5", fillcolor="#fdf6f1"] ;
335 -> 336 ;
337 [label="squared_error = -0.0\nsamples = 1\nvalue = 5373.364", fillcolor="#fdf6f0"] ;
335 -> 337 ;
338 [label="squared_error = 0.0\nsamples = 1\nvalue = 4747.053", fillcolor="#fdf7f3"] ;
334 -> 338 ;
339 [label="bmi <= 0.825\nsquared_error = 10416389.222\nsamples = 60\nvalue = 7488.639", fillcolor="#fcf1e9"] ;
95 -> 339 ;
340 [label="age <= 0.424\nsquared_error = 6071501.185\nsamples = 59\nvalue = 7278.758", fillcolor="#fcf2ea"] ;
339 -> 340 ;
341 [label="bmi <= 0.466\nsquared_error = 56826782.014\nsamples = 3\nvalue = 12900.08", fillcolor="#fae5d6"] ;
340 -> 341 ;
342 [label="squared_error = 0.0\nsamples = 1\nvalue = 20420.605", fillcolor="#f6d5bd"] ;
341 -> 342 ;
343 [label="children <= 0.1\nsquared_error = 536991.407\nsamples = 2\nvalue = 5379.556", fillcolor="#fdf6f0"] ;
341 -> 343 ;
344 [label="squared_error = 0.0\nsamples = 1\nvalue = 4646.759", fillcolor="#fdf7f3"] ;
343 -> 344 ;
345 [label="squared_error = 0.0\nsamples = 1\nvalue = 6112.353", fillcolor="#fdf4ee"] ;
343 -> 345 ;
346 [label="age <= 0.533\nsquared_error = 2585201.771\nsamples = 56\nvalue = 7044.536", fillcolor="#fcf2eb"] ;
340 -> 346 ;
347 [label="region <= 0.5\nsquared_error = 403664.827\nsamples = 35\nvalue = 6352.098", fillcolor="#fdf4ed"] ;
346 -> 347 ;
348 [label="age <= 0.511\nsquared_error = 248283.014\nsamples = 14\nvalue = 6887.515", fillcolor="#fcf2eb"] ;
347 -> 348 ;
349 [label="sex <= 0.5\nsquared_error = 131615.227\nsamples = 11\nvalue = 6649.88", fillcolor="#fdf3ec"] ;
348 -> 349 ;
350 [label="children <= 0.1\nsquared_error = 98731.249\nsamples = 4\nvalue = 6922.221", fillcolor="#fcf2eb"] ;
349 -> 350 ;
351 [label="squared_error = 0.0\nsamples = 1\nvalue = 6571.024", fillcolor="#fdf3ec"] ;
350 -> 351 ;
352 [label="bmi <= 0.455\nsquared_error = 10897.279\nsamples = 3\nvalue = 7185.618", fillcolor="#fcf2ea"] ;
350 -> 352 ;
353 [label="bmi <= 0.355\nsquared_error = 1295.897\nsamples = 2\nvalue = 7128.099", fillcolor="#fcf2ea"] ;
352 -> 353 ;
354 [label="squared_error = 0.0\nsamples = 1\nvalue = 7077.189", fillcolor="#fcf2eb"] ;
353 -> 354 ;
355 [label="squared_error = -0.0\nsamples = 1\nvalue = 7153.554", fillcolor="#fcf2ea"] ;
353 -> 355 ;
356 [label="squared_error = -0.0\nsamples = 1\nvalue = 7358.176", fillcolor="#fcf1ea"] ;
352 -> 356 ;
357 [label="age <= 0.467\nsquared_error = 38704.049\nsamples = 7\nvalue = 6411.581", fillcolor="#fdf3ed"] ;
349 -> 357 ;
358 [label="bmi <= 0.262\nsquared_error = 9.224\nsamples = 2\nvalue = 6120.532", fillcolor="#fdf4ee"] ;
357 -> 358 ;
359 [label="squared_error = 0.0\nsamples = 1\nvalue = 6117.494", fillcolor="#fdf4ee"] ;
358 -> 359 ;
360 [label="squared_error = -0.0\nsamples = 1\nvalue = 6123.569", fillcolor="#fdf4ee"] ;
358 -> 360 ;
361 [label="age <= 0.489\nsquared_error = 13953.505\nsamples = 5\nvalue = 6508.598", fillcolor="#fdf3ec"] ;
357 -> 361 ;
362 [label="bmi <= 0.512\nsquared_error = 10896.957\nsamples = 4\nvalue = 6477.38", fillcolor="#fdf3ed"] ;
361 -> 362 ;
363 [label="bmi <= 0.386\nsquared_error = 3.968\nsamples = 2\nvalue = 6392.195", fillcolor="#fdf3ed"] ;
362 -> 363 ;
364 [label="squared_error = 0.0\nsamples = 1\nvalue = 6389.378", fillcolor="#fdf3ed"] ;
363 -> 364 ;
365 [label="squared_error = 0.0\nsamples = 1\nvalue = 6393.603", fillcolor="#fdf3ed"] ;
363 -> 365 ;
366 [label="bmi <= 0.705\nsquared_error = 24.521\nsamples = 2\nvalue = 6605.158", fillcolor="#fdf3ec"] ;
362 -> 366 ;
367 [label="squared_error = 0.0\nsamples = 1\nvalue = 6600.206", fillcolor="#fdf3ec"] ;
366 -> 367 ;
368 [label="squared_error = -0.0\nsamples = 1\nvalue = 6610.11", fillcolor="#fdf3ec"] ;
366 -> 368 ;
369 [label="squared_error = 0.0\nsamples = 1\nvalue = 6664.686", fillcolor="#fcf3ec"] ;
361 -> 369 ;
370 [label="bmi <= 0.603\nsquared_error = 45833.485\nsamples = 3\nvalue = 7481.605", fillcolor="#fcf1e9"] ;
348 -> 370 ;
371 [label="squared_error = 0.0\nsamples = 1\nvalue = 7050.021", fillcolor="#fcf2eb"] ;
370 -> 371 ;
372 [label="bmi <= 0.741\nsquared_error = 10296.75\nsamples = 2\nvalue = 7567.921", fillcolor="#fcf1e9"] ;
370 -> 372 ;
373 [label="squared_error = 0.0\nsamples = 1\nvalue = 7443.643", fillcolor="#fcf1e9"] ;
372 -> 373 ;
374 [label="squared_error = -0.0\nsamples = 1\nvalue = 7650.774", fillcolor="#fcf1e9"] ;
372 -> 374 ;
375 [label="age <= 0.489\nsquared_error = 229530.711\nsamples = 21\nvalue = 6039.771", fillcolor="#fdf4ee"] ;
347 -> 375 ;
376 [label="sex <= 0.5\nsquared_error = 99600.328\nsamples = 10\nvalue = 5700.322", fillcolor="#fdf5ef"] ;
375 -> 376 ;
377 [label="children <= 0.1\nsquared_error = 110153.897\nsamples = 7\nvalue = 5835.577", fillcolor="#fdf5ef"] ;
376 -> 377 ;
378 [label="age <= 0.457\nsquared_error = 67339.719\nsamples = 4\nvalue = 5654.582", fillcolor="#fdf5ef"] ;
377 -> 378 ;
379 [label="region <= 0.833\nsquared_error = 67.625\nsamples = 2\nvalue = 5395.166", fillcolor="#fdf6f0"] ;
378 -> 379 ;
380 [label="squared_error = 0.0\nsamples = 1\nvalue = 5400.98", fillcolor="#fdf6f0"] ;
379 -> 380 ;
381 [label="squared_error = 0.0\nsamples = 1\nvalue = 5383.536", fillcolor="#fdf6f0"] ;
379 -> 381 ;
382 [label="bmi <= 0.55\nsquared_error = 18.646\nsamples = 2\nvalue = 5913.997", fillcolor="#fdf5ef"] ;
378 -> 382 ;
383 [label="squared_error = 0.0\nsamples = 1\nvalue = 5910.944", fillcolor="#fdf5ef"] ;
382 -> 383 ;
384 [label="squared_error = 0.0\nsamples = 1\nvalue = 5920.104", fillcolor="#fdf5ef"] ;
382 -> 384 ;
385 [label="age <= 0.457\nsquared_error = 51527.289\nsamples = 3\nvalue = 6107.071", fillcolor="#fdf4ee"] ;
377 -> 385 ;
386 [label="bmi <= 0.45\nsquared_error = 1.33\nsamples = 2\nvalue = 5976.016", fillcolor="#fdf4ee"] ;
385 -> 386 ;
387 [label="squared_error = 0.0\nsamples = 1\nvalue = 5974.385", fillcolor="#fdf4ee"] ;
386 -> 387 ;
388 [label="squared_error = -0.0\nsamples = 1\nvalue = 5976.831", fillcolor="#fdf4ee"] ;
386 -> 388 ;
389 [label="squared_error = 0.0\nsamples = 1\nvalue = 6500.236", fillcolor="#fdf3ed"] ;
385 -> 389 ;
390 [label="age <= 0.457\nsquared_error = 704.655\nsamples = 3\nvalue = 5474.897", fillcolor="#fdf5f0"] ;
376 -> 390 ;
391 [label="bmi <= 0.444\nsquared_error = 3.456\nsamples = 2\nvalue = 5486.744", fillcolor="#fdf5f0"] ;
390 -> 391 ;
392 [label="squared_error = 0.0\nsamples = 1\nvalue = 5484.467", fillcolor="#fdf5f0"] ;
391 -> 392 ;
393 [label="squared_error = 0.0\nsamples = 1\nvalue = 5488.262", fillcolor="#fdf5f0"] ;
391 -> 393 ;
394 [label="squared_error = 0.0\nsamples = 1\nvalue = 5415.661", fillcolor="#fdf6f0"] ;
390 -> 394 ;
395 [label="children <= 0.1\nsquared_error = 167550.406\nsamples = 11\nvalue = 6311.33", fillcolor="#fdf4ed"] ;
375 -> 395 ;
396 [label="sex <= 0.5\nsquared_error = 43177.201\nsamples = 6\nvalue = 6039.612", fillcolor="#fdf4ee"] ;
395 -> 396 ;
397 [label="bmi <= 0.61\nsquared_error = 13297.827\nsamples = 3\nvalue = 6243.382", fillcolor="#fdf4ed"] ;
396 -> 397 ;
398 [label="bmi <= 0.499\nsquared_error = 0.162\nsamples = 2\nvalue = 6185.724", fillcolor="#fdf4ee"] ;
397 -> 398 ;
399 [label="squared_error = 0.0\nsamples = 1\nvalue = 6185.321", fillcolor="#fdf4ee"] ;
398 -> 399 ;
400 [label="squared_error = -0.0\nsamples = 1\nvalue = 6186.127", fillcolor="#fdf4ee"] ;
398 -> 400 ;
401 [label="squared_error = 0.0\nsamples = 1\nvalue = 6474.013", fillcolor="#fdf3ed"] ;
397 -> 401 ;
402 [label="age <= 0.511\nsquared_error = 13676.291\nsamples = 3\nvalue = 5894.062", fillcolor="#fdf5ef"] ;
396 -> 402 ;
403 [label="squared_error = 0.0\nsamples = 1\nvalue = 5709.164", fillcolor="#fdf5ef"] ;
402 -> 403 ;
404 [label="bmi <= 0.322\nsquared_error = 1.93\nsamples = 2\nvalue = 5968.022", fillcolor="#fdf4ee"] ;
402 -> 404 ;
405 [label="squared_error = -0.0\nsamples = 1\nvalue = 5966.887", fillcolor="#fdf4ee"] ;
404 -> 405 ;
406 [label="squared_error = 0.0\nsamples = 1\nvalue = 5969.723", fillcolor="#fdf4ee"] ;
404 -> 406 ;
407 [label="sex <= 0.5\nsquared_error = 77245.915\nsamples = 5\nvalue = 6718.906", fillcolor="#fcf3ec"] ;
395 -> 407 ;
408 [label="age <= 0.511\nsquared_error = 16334.826\nsamples = 3\nvalue = 6866.09", fillcolor="#fcf2eb"] ;
407 -> 408 ;
409 [label="bmi <= 0.523\nsquared_error = 31.146\nsamples = 2\nvalue = 6775.773", fillcolor="#fcf3ec"] ;
408 -> 409 ;
410 [label="squared_error = 0.0\nsamples = 1\nvalue = 6770.192", fillcolor="#fcf3ec"] ;
409 -> 410 ;
411 [label="squared_error = 0.0\nsamples = 1\nvalue = 6781.354", fillcolor="#fcf3ec"] ;
409 -> 411 ;
412 [label="squared_error = -0.0\nsamples = 1\nvalue = 7046.722", fillcolor="#fcf2eb"] ;
408 -> 412 ;
413 [label="region <= 0.833\nsquared_error = 23.804\nsamples = 2\nvalue = 6277.356", fillcolor="#fdf4ed"] ;
407 -> 413 ;
414 [label="squared_error = 0.0\nsamples = 1\nvalue = 6272.477", fillcolor="#fdf4ed"] ;
413 -> 414 ;
415 [label="squared_error = 0.0\nsamples = 1\nvalue = 6282.235", fillcolor="#fdf4ed"] ;
413 -> 415 ;
416 [label="bmi <= 0.488\nsquared_error = 4048643.112\nsamples = 21\nvalue = 8056.561", fillcolor="#fcf0e7"] ;
346 -> 416 ;
417 [label="age <= 0.554\nsquared_error = 86607.321\nsamples = 9\nvalue = 7349.958", fillcolor="#fcf1ea"] ;
416 -> 417 ;
418 [label="region <= 0.5\nsquared_error = 184766.965\nsamples = 2\nvalue = 7110.126", fillcolor="#fcf2ea"] ;
417 -> 418 ;
419 [label="squared_error = 0.0\nsamples = 1\nvalue = 7325.048", fillcolor="#fcf1ea"] ;
418 -> 419 ;
420 [label="squared_error = -0.0\nsamples = 1\nvalue = 6250.435", fillcolor="#fdf4ed"] ;
418 -> 420 ;
421 [label="children <= 0.1\nsquared_error = 18221.999\nsamples = 7\nvalue = 7442.201", fillcolor="#fcf1e9"] ;
417 -> 421 ;
422 [label="bmi <= 0.151\nsquared_error = 19257.324\nsamples = 3\nvalue = 7356.875", fillcolor="#fcf1ea"] ;
421 -> 422 ;
423 [label="squared_error = 0.0\nsamples = 1\nvalue = 7526.706", fillcolor="#fcf1e9"] ;
422 -> 423 ;
424 [label="sex <= 0.5\nsquared_error = 7253.926\nsamples = 2\nvalue = 7271.959", fillcolor="#fcf2ea"] ;
422 -> 424 ;
425 [label="squared_error = 0.0\nsamples = 1\nvalue = 7419.478", fillcolor="#fcf1e9"] ;
424 -> 425 ;
426 [label="squared_error = 0.0\nsamples = 1\nvalue = 7222.786", fillcolor="#fcf2ea"] ;
424 -> 426 ;
427 [label="sex <= 0.5\nsquared_error = 5745.269\nsamples = 4\nvalue = 7515.337", fillcolor="#fcf1e9"] ;
421 -> 427 ;
428 [label="bmi <= 0.307\nsquared_error = 0.309\nsamples = 2\nvalue = 7624.074", fillcolor="#fcf1e9"] ;
427 -> 428 ;
429 [label="squared_error = 0.0\nsamples = 1\nvalue = 7623.518", fillcolor="#fcf1e9"] ;
428 -> 429 ;
430 [label="squared_error = -0.0\nsamples = 1\nvalue = 7624.63", fillcolor="#fcf1e9"] ;
428 -> 430 ;
431 [label="age <= 0.576\nsquared_error = 1421.938\nsamples = 2\nvalue = 7471.842", fillcolor="#fcf1e9"] ;
427 -> 431 ;
432 [label="squared_error = 0.0\nsamples = 1\nvalue = 7518.025", fillcolor="#fcf1e9"] ;
431 -> 432 ;
433 [label="squared_error = -0.0\nsamples = 1\nvalue = 7441.053", fillcolor="#fcf1e9"] ;
431 -> 433 ;
434 [label="bmi <= 0.523\nsquared_error = 6649888.726\nsamples = 12\nvalue = 8662.221", fillcolor="#fceee5"] ;
416 -> 434 ;
435 [label="squared_error = 0.0\nsamples = 1\nvalue = 17929.303", fillcolor="#f7dac5"] ;
434 -> 435 ;
436 [label="region <= 0.167\nsquared_error = 2473744.903\nsamples = 11\nvalue = 8198.866", fillcolor="#fcf0e7"] ;
434 -> 436 ;
437 [label="age <= 0.576\nsquared_error = 5126968.742\nsamples = 4\nvalue = 9300.932", fillcolor="#fbede3"] ;
436 -> 437 ;
438 [label="squared_error = 0.0\nsamples = 1\nvalue = 12797.21", fillcolor="#fae5d7"] ;
437 -> 438 ;
439 [label="children <= 0.1\nsquared_error = 332341.098\nsamples = 3\nvalue = 7902.421", fillcolor="#fcf0e8"] ;
437 -> 439 ;
440 [label="squared_error = 0.0\nsamples = 1\nvalue = 7448.404", fillcolor="#fcf1e9"] ;
439 -> 440 ;
441 [label="sex <= 0.5\nsquared_error = 57858.77\nsamples = 2\nvalue = 8583.447", fillcolor="#fcefe5"] ;
439 -> 441 ;
442 [label="squared_error = 0.0\nsamples = 1\nvalue = 8823.986", fillcolor="#fceee5"] ;
441 -> 442 ;
443 [label="squared_error = -0.0\nsamples = 1\nvalue = 8342.909", fillcolor="#fcefe6"] ;
441 -> 443 ;
444 [label="region <= 0.833\nsquared_error = 38950.592\nsamples = 7\nvalue = 7605.446", fillcolor="#fcf1e9"] ;
436 -> 444 ;
445 [label="bmi <= 0.663\nsquared_error = 12903.352\nsamples = 4\nvalue = 7742.582", fillcolor="#fcf1e8"] ;
444 -> 445 ;
446 [label="region <= 0.5\nsquared_error = 1896.043\nsamples = 3\nvalue = 7702.503", fillcolor="#fcf1e8"] ;
445 -> 446 ;
447 [label="age <= 0.565\nsquared_error = 5.089\nsamples = 2\nvalue = 7730.016", fillcolor="#fcf1e8"] ;
446 -> 447 ;
448 [label="squared_error = 0.0\nsamples = 1\nvalue = 7727.253", fillcolor="#fcf1e8"] ;
447 -> 448 ;
449 [label="squared_error = 0.0\nsamples = 1\nvalue = 7731.858", fillcolor="#fcf1e8"] ;
447 -> 449 ;
450 [label="squared_error = -0.0\nsamples = 1\nvalue = 7633.721", fillcolor="#fcf1e9"] ;
446 -> 450 ;
451 [label="squared_error = 0.0\nsamples = 1\nvalue = 8023.135", fillcolor="#fcf0e7"] ;
445 -> 451 ;
452 [label="children <= 0.1\nsquared_error = 2392.359\nsamples = 3\nvalue = 7386.029", fillcolor="#fcf1e9"] ;
444 -> 452 ;
453 [label="bmi <= 0.592\nsquared_error = 2.078\nsamples = 2\nvalue = 7346.103", fillcolor="#fcf1ea"] ;
452 -> 453 ;
454 [label="squared_error = 0.0\nsamples = 1\nvalue = 7345.084", fillcolor="#fcf1ea"] ;
453 -> 454 ;
455 [label="squared_error = 0.0\nsamples = 1\nvalue = 7348.142", fillcolor="#fcf1ea"] ;
453 -> 455 ;
456 [label="squared_error = 0.0\nsamples = 1\nvalue = 7445.918", fillcolor="#fcf1e9"] ;
452 -> 456 ;
457 [label="squared_error = -0.0\nsamples = 1\nvalue = 28476.735", fillcolor="#f3c3a1"] ;
339 -> 457 ;
458 [label="age <= 0.033\nsquared_error = 25448542.372\nsamples = 131\nvalue = 8044.882", fillcolor="#fcf0e7"] ;
2 -> 458 ;
459 [label="bmi <= 0.457\nsquared_error = 55396790.286\nsamples = 6\nvalue = 13767.941", fillcolor="#f9e3d3"] ;
458 -> 459 ;
460 [label="bmi <= 0.304\nsquared_error = 33642070.662\nsamples = 4\nvalue = 16435.599", fillcolor="#f8ddca"] ;
459 -> 460 ;
461 [label="sex <= 0.5\nsquared_error = 20117375.974\nsamples = 2\nvalue = 7398.809", fillcolor="#fcf1e9"] ;
460 -> 461 ;
462 [label="squared_error = 0.0\nsamples = 1\nvalue = 2913.569", fillcolor="#fefbf9"] ;
461 -> 462 ;
463 [label="squared_error = 0.0\nsamples = 1\nvalue = 11884.049", fillcolor="#fae7da"] ;
461 -> 463 ;
464 [label="sex <= 0.5\nsquared_error = 1855375.447\nsamples = 2\nvalue = 19447.863", fillcolor="#f7d7c0"] ;
460 -> 464 ;
465 [label="squared_error = 0.0\nsamples = 1\nvalue = 18838.704", fillcolor="#f7d8c2"] ;
464 -> 465 ;
466 [label="squared_error = -0.0\nsamples = 1\nvalue = 22493.66", fillcolor="#f5d0b5"] ;
464 -> 466 ;
467 [label="bmi <= 0.631\nsquared_error = 87644.877\nsamples = 2\nvalue = 3097.308", fillcolor="#fefbf8"] ;
459 -> 467 ;
468 [label="squared_error = 0.0\nsamples = 1\nvalue = 2801.259", fillcolor="#fefbf9"] ;
467 -> 468 ;
469 [label="squared_error = 0.0\nsamples = 1\nvalue = 3393.356", fillcolor="#fefaf7"] ;
467 -> 469 ;
470 [label="children <= 0.7\nsquared_error = 22343037.713\nsamples = 125\nvalue = 7768.405", fillcolor="#fcf0e8"] ;
458 -> 470 ;
471 [label="age <= 0.446\nsquared_error = 17603672.957\nsamples = 107\nvalue = 7234.012", fillcolor="#fcf2ea"] ;
470 -> 471 ;
472 [label="region <= 0.5\nsquared_error = 21103087.829\nsamples = 73\nvalue = 6696.916", fillcolor="#fcf3ec"] ;
471 -> 472 ;
473 [label="age <= 0.207\nsquared_error = 30157868.078\nsamples = 44\nvalue = 7691.43", fillcolor="#fcf1e8"] ;
472 -> 473 ;
474 [label="sex <= 0.5\nsquared_error = 59720123.106\nsamples = 12\nvalue = 9513.616", fillcolor="#fbede2"] ;
473 -> 474 ;
475 [label="children <= 0.5\nsquared_error = 61387892.972\nsamples = 6\nvalue = 11745.457", fillcolor="#fae8da"] ;
474 -> 475 ;
476 [label="bmi <= 0.251\nsquared_error = 25559280.936\nsamples = 3\nvalue = 19316.711", fillcolor="#f7d7c0"] ;
475 -> 476 ;
477 [label="squared_error = 0.0\nsamples = 1\nvalue = 14426.074", fillcolor="#f9e2d1"] ;
476 -> 477 ;
478 [label="region <= 0.167\nsquared_error = 3281905.937\nsamples = 2\nvalue = 24207.347", fillcolor="#f5ccaf"] ;
476 -> 478 ;
479 [label="squared_error = 0.0\nsamples = 1\nvalue = 22395.744", fillcolor="#f5d0b6"] ;
478 -> 479 ;
480 [label="squared_error = -0.0\nsamples = 1\nvalue = 26018.951", fillcolor="#f4c8a9"] ;
478 -> 480 ;
481 [label="age <= 0.152\nsquared_error = 43617964.777\nsamples = 3\nvalue = 8716.956", fillcolor="#fceee5"] ;
475 -> 481 ;
482 [label="age <= 0.098\nsquared_error = 7106.741\nsamples = 2\nvalue = 4393.614", fillcolor="#fef8f4"] ;
481 -> 482 ;
483 [label="squared_error = 0.0\nsamples = 1\nvalue = 4296.271", fillcolor="#fef8f4"] ;
482 -> 483 ;
484 [label="squared_error = 0.0\nsamples = 1\nvalue = 4466.621", fillcolor="#fdf8f4"] ;
482 -> 484 ;
485 [label="squared_error = 0.0\nsamples = 1\nvalue = 18804.752", fillcolor="#f7d8c2"] ;
481 -> 485 ;
486 [label="bmi <= 0.305\nsquared_error = 37324338.551\nsamples = 6\nvalue = 6041.862", fillcolor="#fdf4ee"] ;
474 -> 486 ;
487 [label="children <= 0.5\nsquared_error = 92506424.425\nsamples = 2\nvalue = 13623.449", fillcolor="#f9e4d4"] ;
486 -> 487 ;
488 [label="squared_error = 0.0\nsamples = 1\nvalue = 23241.475", fillcolor="#f5cfb3"] ;
487 -> 488 ;
489 [label="squared_error = 0.0\nsamples = 1\nvalue = 4005.422", fillcolor="#fef9f5"] ;
487 -> 489 ;
490 [label="children <= 0.5\nsquared_error = 442759.72\nsamples = 4\nvalue = 3875.694", fillcolor="#fef9f6"] ;
486 -> 490 ;
491 [label="bmi <= 0.483\nsquared_error = 91627.205\nsamples = 3\nvalue = 3487.204", fillcolor="#fefaf7"] ;
490 -> 491 ;
492 [label="bmi <= 0.363\nsquared_error = 12464.738\nsamples = 2\nvalue = 3344.327", fillcolor="#fefaf7"] ;
491 -> 492 ;
493 [label="squared_error = -0.0\nsamples = 1\nvalue = 3279.869", fillcolor="#fefaf8"] ;
492 -> 493 ;
494 [label="squared_error = 0.0\nsamples = 1\nvalue = 3537.703", fillcolor="#fefaf7"] ;
492 -> 494 ;
495 [label="squared_error = 0.0\nsamples = 1\nvalue = 4058.712", fillcolor="#fef9f5"] ;
491 -> 495 ;
496 [label="squared_error = -0.0\nsamples = 1\nvalue = 4846.92", fillcolor="#fdf7f2"] ;
490 -> 496 ;
497 [label="bmi <= 0.211\nsquared_error = 14964052.955\nsamples = 32\nvalue = 6885.464", fillcolor="#fcf2eb"] ;
473 -> 497 ;
498 [label="bmi <= 0.174\nsquared_error = 53958562.889\nsamples = 5\nvalue = 9454.704", fillcolor="#fbede2"] ;
497 -> 498 ;
499 [label="bmi <= 0.127\nsquared_error = 502042.513\nsamples = 4\nvalue = 6467.837", fillcolor="#fdf3ed"] ;
498 -> 499 ;
500 [label="bmi <= 0.106\nsquared_error = 17317.745\nsamples = 3\nvalue = 6780.122", fillcolor="#fcf3ec"] ;
499 -> 500 ;
501 [label="age <= 0.391\nsquared_error = 2812.158\nsamples = 2\nvalue = 6678.043", fillcolor="#fcf3ec"] ;
500 -> 501 ;
502 [label="squared_error = 0.0\nsamples = 1\nvalue = 6753.038", fillcolor="#fcf3ec"] ;
501 -> 502 ;
503 [label="squared_error = 0.0\nsamples = 1\nvalue = 6640.545", fillcolor="#fdf3ec"] ;
501 -> 503 ;
504 [label="squared_error = 0.0\nsamples = 1\nvalue = 6933.242", fillcolor="#fcf2eb"] ;
500 -> 504 ;
505 [label="squared_error = -0.0\nsamples = 1\nvalue = 4906.41", fillcolor="#fdf7f2"] ;
499 -> 505 ;
506 [label="squared_error = 0.0\nsamples = 1\nvalue = 27375.905", fillcolor="#f3c5a5"] ;
498 -> 506 ;
507 [label="bmi <= 0.375\nsquared_error = 7711691.227\nsamples = 27\nvalue = 6485.804", fillcolor="#fdf3ed"] ;
497 -> 507 ;
508 [label="age <= 0.348\nsquared_error = 557056.257\nsamples = 9\nvalue = 5577.518", fillcolor="#fdf5f0"] ;
507 -> 508 ;
509 [label="region <= 0.167\nsquared_error = 120363.552\nsamples = 6\nvalue = 5046.18", fillcolor="#fdf6f2"] ;
508 -> 509 ;
510 [label="bmi <= 0.285\nsquared_error = 133294.772\nsamples = 2\nvalue = 4693.256", fillcolor="#fdf7f3"] ;
509 -> 510 ;
511 [label="squared_error = 0.0\nsamples = 1\nvalue = 5209.579", fillcolor="#fdf6f1"] ;
510 -> 511 ;
512 [label="squared_error = 0.0\nsamples = 1\nvalue = 4435.094", fillcolor="#fef8f4"] ;
510 -> 512 ;
513 [label="bmi <= 0.268\nsquared_error = 38563.189\nsamples = 4\nvalue = 5197.433", fillcolor="#fdf6f1"] ;
509 -> 513 ;
514 [label="squared_error = 0.0\nsamples = 1\nvalue = 4719.737", fillcolor="#fdf7f3"] ;
513 -> 514 ;
515 [label="children <= 0.5\nsquared_error = 619.35\nsamples = 3\nvalue = 5277.049", fillcolor="#fdf6f1"] ;
513 -> 515 ;
516 [label="bmi <= 0.327\nsquared_error = 3.923\nsamples = 2\nvalue = 5259.489", fillcolor="#fdf6f1"] ;
515 -> 516 ;
517 [label="squared_error = 0.0\nsamples = 1\nvalue = 5257.508", fillcolor="#fdf6f1"] ;
516 -> 517 ;
518 [label="squared_error = 0.0\nsamples = 1\nvalue = 5261.469", fillcolor="#fdf6f1"] ;
516 -> 518 ;
519 [label="squared_error = -0.0\nsamples = 1\nvalue = 5312.17", fillcolor="#fdf6f1"] ;
515 -> 519 ;
520 [label="bmi <= 0.242\nsquared_error = 30121.131\nsamples = 3\nvalue = 6463.081", fillcolor="#fdf3ed"] ;
508 -> 520 ;
521 [label="squared_error = 0.0\nsamples = 1\nvalue = 6686.431", fillcolor="#fcf3ec"] ;
520 -> 521 ;
522 [label="region <= 0.167\nsquared_error = 7767.815\nsamples = 2\nvalue = 6351.406", fillcolor="#fdf4ed"] ;
520 -> 522 ;
523 [label="squared_error = 0.0\nsamples = 1\nvalue = 6402.291", fillcolor="#fdf3ed"] ;
522 -> 523 ;
524 [label="squared_error = -0.0\nsamples = 1\nvalue = 6198.752", fillcolor="#fdf4ee"] ;
522 -> 524 ;
525 [label="age <= 0.25\nsquared_error = 10952787.659\nsamples = 18\nvalue = 6986.928", fillcolor="#fcf2eb"] ;
507 -> 525 ;
526 [label="sex <= 0.5\nsquared_error = 43720392.798\nsamples = 4\nvalue = 9467.061", fillcolor="#fbede2"] ;
525 -> 526 ;
527 [label="squared_error = -0.0\nsamples = 1\nvalue = 4922.916", fillcolor="#fdf7f2"] ;
526 -> 527 ;
528 [label="bmi <= 0.538\nsquared_error = 46142279.548\nsamples = 3\nvalue = 14011.206", fillcolor="#f9e3d3"] ;
526 -> 528 ;
529 [label="bmi <= 0.48\nsquared_error = 47090394.774\nsamples = 2\nvalue = 11295.632", fillcolor="#fae9dc"] ;
528 -> 529 ;
530 [label="squared_error = 0.0\nsamples = 1\nvalue = 18157.876", fillcolor="#f7dac4"] ;
529 -> 530 ;
531 [label="squared_error = 0.0\nsamples = 1\nvalue = 4433.388", fillcolor="#fef8f4"] ;
529 -> 531 ;
532 [label="squared_error = 0.0\nsamples = 1\nvalue = 19442.354", fillcolor="#f7d7c0"] ;
528 -> 532 ;
533 [label="age <= 0.293\nsquared_error = 381494.741\nsamples = 14\nvalue = 6339.937", fillcolor="#fdf4ed"] ;
525 -> 533 ;
534 [label="children <= 0.5\nsquared_error = 1614.928\nsamples = 3\nvalue = 5407.721", fillcolor="#fdf6f0"] ;
533 -> 534 ;
535 [label="squared_error = 0.0\nsamples = 1\nvalue = 5327.4", fillcolor="#fdf6f1"] ;
534 -> 535 ;
536 [label="bmi <= 0.594\nsquared_error = 2.573\nsamples = 2\nvalue = 5427.802", fillcolor="#fdf6f0"] ;
534 -> 536 ;
537 [label="squared_error = 0.0\nsamples = 1\nvalue = 5425.023", fillcolor="#fdf6f0"] ;
536 -> 537 ;
538 [label="squared_error = 0.0\nsamples = 1\nvalue = 5428.728", fillcolor="#fdf6f0"] ;
536 -> 538 ;
539 [label="age <= 0.424\nsquared_error = 178566.632\nsamples = 11\nvalue = 6598.885", fillcolor="#fdf3ec"] ;
533 -> 539 ;
540 [label="sex <= 0.5\nsquared_error = 58704.841\nsamples = 8\nvalue = 6434.235", fillcolor="#fdf3ed"] ;
539 -> 540 ;
541 [label="bmi <= 0.623\nsquared_error = 10763.831\nsamples = 3\nvalue = 6274.712", fillcolor="#fdf4ed"] ;
540 -> 541 ;
542 [label="squared_error = 0.0\nsamples = 1\nvalue = 6128.797", fillcolor="#fdf4ee"] ;
541 -> 542 ;
543 [label="region <= 0.167\nsquared_error = 177.556\nsamples = 2\nvalue = 6347.669", fillcolor="#fdf4ed"] ;
541 -> 543 ;
544 [label="squared_error = 0.0\nsamples = 1\nvalue = 6334.344", fillcolor="#fdf4ed"] ;
543 -> 544 ;
545 [label="squared_error = 0.0\nsamples = 1\nvalue = 6360.994", fillcolor="#fdf4ed"] ;
543 -> 545 ;
546 [label="children <= 0.5\nsquared_error = 59288.459\nsamples = 5\nvalue = 6570.97", fillcolor="#fdf3ec"] ;
540 -> 546 ;
547 [label="squared_error = 0.0\nsamples = 1\nvalue = 6203.902", fillcolor="#fdf4ee"] ;
546 -> 547 ;
548 [label="bmi <= 0.415\nsquared_error = 7550.14\nsamples = 4\nvalue = 6717.797", fillcolor="#fcf3ec"] ;
546 -> 548 ;
549 [label="region <= 0.167\nsquared_error = 9855.272\nsamples = 2\nvalue = 6647.469", fillcolor="#fdf3ec"] ;
548 -> 549 ;
550 [label="squared_error = 0.0\nsamples = 1\nvalue = 6746.742", fillcolor="#fcf3ec"] ;
549 -> 550 ;
551 [label="squared_error = -0.0\nsamples = 1\nvalue = 6548.195", fillcolor="#fdf3ec"] ;
549 -> 551 ;
552 [label="region <= 0.167\nsquared_error = 517.82\nsamples = 2\nvalue = 6764.682", fillcolor="#fcf3ec"] ;
548 -> 552 ;
553 [label="squared_error = 0.0\nsamples = 1\nvalue = 6748.591", fillcolor="#fcf3ec"] ;
552 -> 553 ;
554 [label="squared_error = -0.0\nsamples = 1\nvalue = 6796.863", fillcolor="#fcf3ec"] ;
552 -> 554 ;
555 [label="sex <= 0.5\nsquared_error = 236460.896\nsamples = 3\nvalue = 7026.975", fillcolor="#fcf2eb"] ;
539 -> 555 ;
556 [label="bmi <= 0.424\nsquared_error = 34200.06\nsamples = 2\nvalue = 7406.397", fillcolor="#fcf1e9"] ;
555 -> 556 ;
557 [label="squared_error = 0.0\nsamples = 1\nvalue = 7144.863", fillcolor="#fcf2ea"] ;
556 -> 557 ;
558 [label="squared_error = 0.0\nsamples = 1\nvalue = 7537.164", fillcolor="#fcf1e9"] ;
556 -> 558 ;
559 [label="squared_error = -0.0\nsamples = 1\nvalue = 6457.843", fillcolor="#fdf3ed"] ;
555 -> 559 ;
560 [label="age <= 0.337\nsquared_error = 3811949.748\nsamples = 29\nvalue = 5205.145", fillcolor="#fdf6f1"] ;
472 -> 560 ;
561 [label="age <= 0.098\nsquared_error = 663051.425\nsamples = 20\nvalue = 4302.61", fillcolor="#fef8f4"] ;
560 -> 561 ;
562 [label="sex <= 0.5\nsquared_error = 55834.007\nsamples = 3\nvalue = 2934.143", fillcolor="#fefbf9"] ;
561 -> 562 ;
563 [label="bmi <= 0.353\nsquared_error = 2465.003\nsamples = 2\nvalue = 3081.212", fillcolor="#fefbf8"] ;
562 -> 563 ;
564 [label="squared_error = 0.0\nsamples = 1\nvalue = 3180.51", fillcolor="#fefbf8"] ;
563 -> 564 ;
565 [label="squared_error = 0.0\nsamples = 1\nvalue = 3056.388", fillcolor="#fefbf8"] ;
563 -> 565 ;
566 [label="squared_error = -0.0\nsamples = 1\nvalue = 2566.471", fillcolor="#fefcfa"] ;
562 -> 566 ;
567 [label="age <= 0.228\nsquared_error = 186601.055\nsamples = 17\nvalue = 4671.044", fillcolor="#fdf7f3"] ;
561 -> 567 ;
568 [label="bmi <= 0.299\nsquared_error = 31254.084\nsamples = 5\nvalue = 4154.418", fillcolor="#fef8f5"] ;
567 -> 568 ;
569 [label="squared_error = 0.0\nsamples = 1\nvalue = 3847.674", fillcolor="#fef9f6"] ;
568 -> 569 ;
570 [label="age <= 0.185\nsquared_error = 14922.881\nsamples = 4\nvalue = 4215.767", fillcolor="#fef8f4"] ;
568 -> 570 ;
571 [label="age <= 0.152\nsquared_error = 15995.951\nsamples = 2\nvalue = 4108.452", fillcolor="#fef8f5"] ;
570 -> 571 ;
572 [label="squared_error = 0.0\nsamples = 1\nvalue = 4234.927", fillcolor="#fef8f4"] ;
571 -> 572 ;
573 [label="squared_error = -0.0\nsamples = 1\nvalue = 3981.977", fillcolor="#fef9f5"] ;
571 -> 573 ;
574 [label="children <= 0.5\nsquared_error = 1411.466\nsamples = 2\nvalue = 4287.31", fillcolor="#fef8f4"] ;
570 -> 574 ;
575 [label="squared_error = 0.0\nsamples = 1\nvalue = 4340.441", fillcolor="#fef8f4"] ;
574 -> 575 ;
576 [label="squared_error = -0.0\nsamples = 1\nvalue = 4260.744", fillcolor="#fef8f4"] ;
574 -> 576 ;
577 [label="bmi <= 0.9\nsquared_error = 129113.281\nsamples = 12\nvalue = 4826.031", fillcolor="#fdf7f2"] ;
567 -> 577 ;
578 [label="children <= 0.5\nsquared_error = 89806.85\nsamples = 10\nvalue = 4956.623", fillcolor="#fdf7f2"] ;
577 -> 578 ;
579 [label="age <= 0.315\nsquared_error = 80232.618\nsamples = 7\nvalue = 4852.581", fillcolor="#fdf7f2"] ;
578 -> 579 ;
580 [label="age <= 0.25\nsquared_error = 23924.576\nsamples = 6\nvalue = 4736.48", fillcolor="#fdf7f3"] ;
579 -> 580 ;
581 [label="squared_error = 0.0\nsamples = 1\nvalue = 4529.477", fillcolor="#fdf8f3"] ;
580 -> 581 ;
582 [label="bmi <= 0.472\nsquared_error = 15019.263\nsamples = 5\nvalue = 4795.624", fillcolor="#fdf7f2"] ;
580 -> 582 ;
583 [label="bmi <= 0.284\nsquared_error = 2.078\nsamples = 2\nvalue = 4933.686", fillcolor="#fdf7f2"] ;
582 -> 583 ;
584 [label="squared_error = 0.0\nsamples = 1\nvalue = 4931.647", fillcolor="#fdf7f2"] ;
583 -> 584 ;
585 [label="squared_error = 0.0\nsamples = 1\nvalue = 4934.705", fillcolor="#fdf7f2"] ;
583 -> 585 ;
586 [label="age <= 0.283\nsquared_error = 1264.455\nsamples = 3\nvalue = 4692.077", fillcolor="#fdf7f3"] ;
582 -> 586 ;
587 [label="squared_error = 0.0\nsamples = 1\nvalue = 4753.637", fillcolor="#fdf7f3"] ;
586 -> 587 ;
588 [label="bmi <= 0.657\nsquared_error = 1.683\nsamples = 2\nvalue = 4671.557", fillcolor="#fdf7f3"] ;
586 -> 588 ;
589 [label="squared_error = 0.0\nsamples = 1\nvalue = 4670.64", fillcolor="#fdf7f3"] ;
588 -> 589 ;
590 [label="squared_error = 0.0\nsamples = 1\nvalue = 4673.392", fillcolor="#fdf7f3"] ;
588 -> 590 ;
591 [label="squared_error = -0.0\nsamples = 1\nvalue = 5375.038", fillcolor="#fdf6f0"] ;
579 -> 591 ;
592 [label="region <= 0.833\nsquared_error = 4505.896\nsamples = 3\nvalue = 5242.739", fillcolor="#fdf6f1"] ;
578 -> 592 ;
593 [label="squared_error = 0.0\nsamples = 1\nvalue = 5138.257", fillcolor="#fdf6f1"] ;
592 -> 593 ;
594 [label="age <= 0.283\nsquared_error = 1156.068\nsamples = 2\nvalue = 5277.566", fillcolor="#fdf6f1"] ;
592 -> 594 ;
595 [label="squared_error = 0.0\nsamples = 1\nvalue = 5325.651", fillcolor="#fdf6f1"] ;
594 -> 595 ;
596 [label="squared_error = 0.0\nsamples = 1\nvalue = 5253.524", fillcolor="#fdf6f1"] ;
594 -> 596 ;
597 [label="age <= 0.283\nsquared_error = 42380.949\nsamples = 2\nvalue = 4434.255", fillcolor="#fef8f4"] ;
577 -> 597 ;
598 [label="squared_error = 0.0\nsamples = 1\nvalue = 4266.166", fillcolor="#fef8f4"] ;
597 -> 598 ;
599 [label="squared_error = 0.0\nsamples = 1\nvalue = 4686.389", fillcolor="#fdf7f3"] ;
597 -> 599 ;
600 [label="bmi <= 0.375\nsquared_error = 5273859.382\nsamples = 9\nvalue = 6957.125", fillcolor="#fcf2eb"] ;
560 -> 600 ;
601 [label="bmi <= 0.263\nsquared_error = 4848839.983\nsamples = 2\nvalue = 10466.519", fillcolor="#fbebdf"] ;
600 -> 601 ;
602 [label="squared_error = 0.0\nsamples = 1\nvalue = 6652.529", fillcolor="#fdf3ec"] ;
601 -> 602 ;
603 [label="squared_error = 0.0\nsamples = 1\nvalue = 11737.849", fillcolor="#fae8da"] ;
601 -> 603 ;
604 [label="bmi <= 0.406\nsquared_error = 449147.864\nsamples = 7\nvalue = 5877.312", fillcolor="#fdf5ef"] ;
600 -> 604 ;
605 [label="squared_error = 0.0\nsamples = 1\nvalue = 7151.092", fillcolor="#fcf2ea"] ;
604 -> 605 ;
606 [label="age <= 0.359\nsquared_error = 182171.466\nsamples = 6\nvalue = 5645.716", fillcolor="#fdf5ef"] ;
604 -> 606 ;
607 [label="squared_error = 0.0\nsamples = 1\nvalue = 5124.189", fillcolor="#fdf6f1"] ;
606 -> 607 ;
608 [label="age <= 0.402\nsquared_error = 42033.125\nsamples = 5\nvalue = 5943.731", fillcolor="#fdf4ee"] ;
606 -> 608 ;
609 [label="age <= 0.38\nsquared_error = 17605.289\nsamples = 3\nvalue = 5842.352", fillcolor="#fdf5ef"] ;
608 -> 609 ;
610 [label="bmi <= 0.655\nsquared_error = 1197.853\nsamples = 2\nvalue = 5906.864", fillcolor="#fdf5ef"] ;
609 -> 610 ;
611 [label="squared_error = -0.0\nsamples = 1\nvalue = 5926.846", fillcolor="#fdf5ef"] ;
610 -> 611 ;
612 [label="squared_error = -0.0\nsamples = 1\nvalue = 5846.918", fillcolor="#fdf5ef"] ;
610 -> 612 ;
613 [label="squared_error = 0.0\nsamples = 1\nvalue = 5584.306", fillcolor="#fdf5f0"] ;
609 -> 613 ;
614 [label="age <= 0.424\nsquared_error = 13172.956\nsamples = 2\nvalue = 6197.178", fillcolor="#fdf4ee"] ;
608 -> 614 ;
615 [label="squared_error = 0.0\nsamples = 1\nvalue = 6311.952", fillcolor="#fdf4ed"] ;
614 -> 615 ;
616 [label="squared_error = -0.0\nsamples = 1\nvalue = 6082.405", fillcolor="#fdf4ee"] ;
614 -> 616 ;
617 [label="age <= 0.533\nsquared_error = 7289681.269\nsamples = 34\nvalue = 8477.288", fillcolor="#fcefe6"] ;
471 -> 617 ;
618 [label="age <= 0.467\nsquared_error = 9097391.036\nsamples = 16\nvalue = 7900.88", fillcolor="#fcf0e8"] ;
617 -> 618 ;
619 [label="bmi <= 0.773\nsquared_error = 34945954.581\nsamples = 4\nvalue = 9108.715", fillcolor="#fbeee4"] ;
618 -> 619 ;
620 [label="region <= 0.5\nsquared_error = 51211987.893\nsamples = 3\nvalue = 11173.048", fillcolor="#fae9dc"] ;
619 -> 620 ;
621 [label="sex <= 0.5\nsquared_error = 55400.087\nsamples = 2\nvalue = 7043.058", fillcolor="#fcf2eb"] ;
620 -> 621 ;
622 [label="squared_error = 0.0\nsamples = 1\nvalue = 7209.492", fillcolor="#fcf2ea"] ;
621 -> 622 ;
623 [label="squared_error = 0.0\nsamples = 1\nvalue = 6710.192", fillcolor="#fcf3ec"] ;
621 -> 623 ;
624 [label="squared_error = 0.0\nsamples = 1\nvalue = 23563.016", fillcolor="#f5ceb2"] ;
620 -> 624 ;
625 [label="squared_error = 0.0\nsamples = 1\nvalue = 6356.271", fillcolor="#fdf4ed"] ;
619 -> 625 ;
626 [label="children <= 0.5\nsquared_error = 260968.316\nsamples = 12\nvalue = 7516.568", fillcolor="#fcf1e9"] ;
618 -> 626 ;
627 [label="age <= 0.489\nsquared_error = 151410.388\nsamples = 8\nvalue = 7295.621", fillcolor="#fcf1ea"] ;
626 -> 627 ;
628 [label="region <= 0.667\nsquared_error = 46019.939\nsamples = 3\nvalue = 6889.029", fillcolor="#fcf2eb"] ;
627 -> 628 ;
629 [label="bmi <= 0.375\nsquared_error = 6533.073\nsamples = 2\nvalue = 7033.363", fillcolor="#fcf2eb"] ;
628 -> 629 ;
630 [label="squared_error = 0.0\nsamples = 1\nvalue = 7173.36", fillcolor="#fcf2ea"] ;
629 -> 630 ;
631 [label="squared_error = 0.0\nsamples = 1\nvalue = 6986.697", fillcolor="#fcf2eb"] ;
629 -> 631 ;
632 [label="squared_error = -0.0\nsamples = 1\nvalue = 6600.361", fillcolor="#fdf3ec"] ;
628 -> 632 ;
633 [label="bmi <= 0.516\nsquared_error = 55939.857\nsamples = 5\nvalue = 7539.577", fillcolor="#fcf1e9"] ;
627 -> 633 ;
634 [label="bmi <= 0.312\nsquared_error = 19240.935\nsamples = 3\nvalue = 7751.394", fillcolor="#fcf0e8"] ;
633 -> 634 ;
635 [label="squared_error = 0.0\nsamples = 1\nvalue = 8017.061", fillcolor="#fcf0e7"] ;
634 -> 635 ;
636 [label="sex <= 0.5\nsquared_error = 1995.255\nsamples = 2\nvalue = 7684.977", fillcolor="#fcf1e8"] ;
634 -> 636 ;
637 [label="squared_error = 0.0\nsamples = 1\nvalue = 7640.309", fillcolor="#fcf1e9"] ;
636 -> 637 ;
638 [label="squared_error = 0.0\nsamples = 1\nvalue = 7729.646", fillcolor="#fcf1e8"] ;
636 -> 638 ;
639 [label="region <= 0.667\nsquared_error = 2905.637\nsamples = 2\nvalue = 7327.76", fillcolor="#fcf1ea"] ;
633 -> 639 ;
640 [label="squared_error = 0.0\nsamples = 1\nvalue = 7261.741", fillcolor="#fcf2ea"] ;
639 -> 640 ;
641 [label="squared_error = 0.0\nsamples = 1\nvalue = 7371.772", fillcolor="#fcf1ea"] ;
639 -> 641 ;
642 [label="region <= 0.333\nsquared_error = 75795.607\nsamples = 4\nvalue = 8105.76", fillcolor="#fcf0e7"] ;
626 -> 642 ;
643 [label="bmi <= 0.4\nsquared_error = 18177.416\nsamples = 2\nvalue = 8347.619", fillcolor="#fcefe6"] ;
642 -> 643 ;
644 [label="squared_error = 0.0\nsamples = 1\nvalue = 8252.284", fillcolor="#fcefe6"] ;
643 -> 644 ;
645 [label="squared_error = 0.0\nsamples = 1\nvalue = 8538.288", fillcolor="#fcefe5"] ;
643 -> 645 ;
646 [label="age <= 0.489\nsquared_error = 16422.398\nsamples = 2\nvalue = 7863.901", fillcolor="#fcf0e8"] ;
642 -> 646 ;
647 [label="squared_error = 0.0\nsamples = 1\nvalue = 7682.67", fillcolor="#fcf1e8"] ;
646 -> 647 ;
648 [label="squared_error = 0.0\nsamples = 1\nvalue = 7954.517", fillcolor="#fcf0e8"] ;
646 -> 648 ;
649 [label="bmi <= 0.62\nsquared_error = 4360260.058\nsamples = 18\nvalue = 9145.922", fillcolor="#fbede3"] ;
617 -> 649 ;
650 [label="age <= 0.598\nsquared_error = 133566.757\nsamples = 15\nvalue = 8729.931", fillcolor="#fceee5"] ;
649 -> 650 ;
651 [label="bmi <= 0.343\nsquared_error = 88767.125\nsamples = 13\nvalue = 8657.345", fillcolor="#fcefe5"] ;
650 -> 651 ;
652 [label="sex <= 0.5\nsquared_error = 42142.804\nsamples = 5\nvalue = 8888.689", fillcolor="#fbeee4"] ;
651 -> 652 ;
653 [label="bmi <= 0.308\nsquared_error = 8.492\nsamples = 2\nvalue = 9100.116", fillcolor="#fbeee4"] ;
652 -> 653 ;
654 [label="squared_error = 0.0\nsamples = 1\nvalue = 9095.068", fillcolor="#fbeee4"] ;
653 -> 654 ;
655 [label="squared_error = 0.0\nsamples = 1\nvalue = 9101.798", fillcolor="#fbeee4"] ;
653 -> 655 ;
656 [label="age <= 0.576\nsquared_error = 20564.31\nsamples = 3\nvalue = 8747.738", fillcolor="#fceee5"] ;
652 -> 656 ;
657 [label="squared_error = 0.0\nsamples = 1\nvalue = 8891.14", fillcolor="#fbeee4"] ;
656 -> 657 ;
658 [label="bmi <= 0.195\nsquared_error = 0.526\nsamples = 2\nvalue = 8604.336", fillcolor="#fcefe5"] ;
656 -> 658 ;
659 [label="squared_error = 0.0\nsamples = 1\nvalue = 8605.362", fillcolor="#fcefe5"] ;
658 -> 659 ;
660 [label="squared_error = -0.0\nsamples = 1\nvalue = 8603.823", fillcolor="#fcefe5"] ;
658 -> 660 ;
661 [label="bmi <= 0.43\nsquared_error = 28351.235\nsamples = 8\nvalue = 8426.001", fillcolor="#fcefe6"] ;
651 -> 661 ;
662 [label="sex <= 0.5\nsquared_error = 2158.164\nsamples = 4\nvalue = 8553.973", fillcolor="#fcefe5"] ;
661 -> 662 ;
663 [label="bmi <= 0.398\nsquared_error = 0.255\nsamples = 2\nvalue = 8516.115", fillcolor="#fcefe6"] ;
662 -> 663 ;
664 [label="squared_error = 0.0\nsamples = 1\nvalue = 8515.759", fillcolor="#fcefe6"] ;
663 -> 664 ;
665 [label="squared_error = -0.0\nsamples = 1\nvalue = 8516.829", fillcolor="#fcefe6"] ;
663 -> 665 ;
666 [label="region <= 0.5\nsquared_error = 20.623\nsamples = 2\nvalue = 8610.759", fillcolor="#fcefe5"] ;
662 -> 666 ;
667 [label="squared_error = 0.0\nsamples = 1\nvalue = 8606.217", fillcolor="#fcefe5"] ;
666 -> 667 ;
668 [label="squared_error = 0.0\nsamples = 1\nvalue = 8615.3", fillcolor="#fcefe5"] ;
666 -> 668 ;
669 [label="age <= 0.554\nsquared_error = 21790.583\nsamples = 4\nvalue = 8298.029", fillcolor="#fcefe6"] ;
661 -> 669 ;
670 [label="squared_error = 0.0\nsamples = 1\nvalue = 8522.003", fillcolor="#fcefe6"] ;
669 -> 670 ;
671 [label="age <= 0.576\nsquared_error = 11561.805\nsamples = 3\nvalue = 8242.035", fillcolor="#fcefe7"] ;
669 -> 671 ;
672 [label="sex <= 0.5\nsquared_error = 2354.583\nsamples = 2\nvalue = 8184.892", fillcolor="#fcf0e7"] ;
671 -> 672 ;
673 [label="squared_error = 0.0\nsamples = 1\nvalue = 8219.204", fillcolor="#fcefe7"] ;
672 -> 673 ;
674 [label="squared_error = 0.0\nsamples = 1\nvalue = 8116.269", fillcolor="#fcf0e7"] ;
672 -> 674 ;
675 [label="squared_error = 0.0\nsamples = 1\nvalue = 8413.463", fillcolor="#fcefe6"] ;
671 -> 675 ;
676 [label="bmi <= 0.409\nsquared_error = 2005.609\nsamples = 2\nvalue = 9455.789", fillcolor="#fbede2"] ;
650 -> 676 ;
677 [label="squared_error = 0.0\nsamples = 1\nvalue = 9500.573", fillcolor="#fbede2"] ;
676 -> 677 ;
678 [label="squared_error = 0.0\nsamples = 1\nvalue = 9411.005", fillcolor="#fbede2"] ;
676 -> 678 ;
679 [label="age <= 0.554\nsquared_error = 24780794.158\nsamples = 3\nvalue = 12196.527", fillcolor="#fae7d9"] ;
649 -> 679 ;
680 [label="squared_error = 0.0\nsamples = 1\nvalue = 19144.577", fillcolor="#f7d8c1"] ;
679 -> 680 ;
681 [label="age <= 0.576\nsquared_error = 964649.118\nsamples = 2\nvalue = 8722.503", fillcolor="#fceee5"] ;
679 -> 681 ;
682 [label="squared_error = 0.0\nsamples = 1\nvalue = 7740.337", fillcolor="#fcf1e8"] ;
681 -> 682 ;
683 [label="squared_error = -0.0\nsamples = 1\nvalue = 9704.668", fillcolor="#fbece1"] ;
681 -> 683 ;
684 [label="sex <= 0.5\nsquared_error = 39144347.999\nsamples = 18\nvalue = 11184.708", fillcolor="#fae9dc"] ;
470 -> 684 ;
685 [label="age <= 0.283\nsquared_error = 46418574.532\nsamples = 5\nvalue = 15450.67", fillcolor="#f9e0ce"] ;
684 -> 685 ;
686 [label="squared_error = 0.0\nsamples = 1\nvalue = 24671.663", fillcolor="#f4cbae"] ;
685 -> 686 ;
687 [label="region <= 0.833\nsquared_error = 14255076.304\nsamples = 4\nvalue = 11498.816", fillcolor="#fae8db"] ;
685 -> 687 ;
688 [label="age <= 0.424\nsquared_error = 338385.838\nsamples = 3\nvalue = 8251.312", fillcolor="#fcefe6"] ;
687 -> 688 ;
689 [label="squared_error = 0.0\nsamples = 1\nvalue = 7243.814", fillcolor="#fcf2ea"] ;
688 -> 689 ;
690 [label="bmi <= 0.427\nsquared_error = 46.887\nsamples = 2\nvalue = 8587.144", fillcolor="#fcefe5"] ;
688 -> 690 ;
691 [label="squared_error = 0.0\nsamples = 1\nvalue = 8582.302", fillcolor="#fcefe5"] ;
690 -> 691 ;
692 [label="squared_error = 0.0\nsamples = 1\nvalue = 8596.828", fillcolor="#fcefe5"] ;
690 -> 692 ;
693 [label="squared_error = -0.0\nsamples = 1\nvalue = 15828.822", fillcolor="#f8dfcc"] ;
687 -> 693 ;
694 [label="region <= 0.167\nsquared_error = 19376068.168\nsamples = 13\nvalue = 8814.729", fillcolor="#fceee5"] ;
684 -> 694 ;
695 [label="children <= 0.9\nsquared_error = 25445280.472\nsamples = 5\nvalue = 11103.862", fillcolor="#fae9dd"] ;
694 -> 695 ;
696 [label="age <= 0.25\nsquared_error = 1246402.702\nsamples = 2\nvalue = 17917.857", fillcolor="#f7dac5"] ;
695 -> 696 ;
697 [label="squared_error = 0.0\nsamples = 1\nvalue = 17128.426", fillcolor="#f8dcc8"] ;
696 -> 697 ;
698 [label="squared_error = -0.0\nsamples = 1\nvalue = 19496.719", fillcolor="#f7d7c0"] ;
696 -> 698 ;
699 [label="age <= 0.391\nsquared_error = 2721818.908\nsamples = 3\nvalue = 7696.864", fillcolor="#fcf1e8"] ;
695 -> 699 ;
700 [label="age <= 0.163\nsquared_error = 789101.419\nsamples = 2\nvalue = 6171.325", fillcolor="#fdf4ee"] ;
699 -> 700 ;
701 [label="squared_error = 0.0\nsamples = 1\nvalue = 4915.06", fillcolor="#fdf7f2"] ;
700 -> 701 ;
702 [label="squared_error = 0.0\nsamples = 1\nvalue = 6799.458", fillcolor="#fcf3eb"] ;
700 -> 702 ;
703 [label="squared_error = -0.0\nsamples = 1\nvalue = 9222.403", fillcolor="#fbede3"] ;
699 -> 703 ;
704 [label="age <= 0.391\nsquared_error = 2826595.378\nsamples = 8\nvalue = 6525.596", fillcolor="#fdf3ec"] ;
694 -> 704 ;
705 [label="age <= 0.239\nsquared_error = 893414.799\nsamples = 5\nvalue = 5544.418", fillcolor="#fdf5f0"] ;
704 -> 705 ;
706 [label="region <= 0.5\nsquared_error = 30970.403\nsamples = 2\nvalue = 4629.102", fillcolor="#fdf7f3"] ;
705 -> 706 ;
707 [label="squared_error = 0.0\nsamples = 1\nvalue = 4877.981", fillcolor="#fdf7f2"] ;
706 -> 707 ;
708 [label="squared_error = 0.0\nsamples = 1\nvalue = 4504.662", fillcolor="#fdf8f3"] ;
706 -> 708 ;
709 [label="children <= 0.9\nsquared_error = 80250.757\nsamples = 3\nvalue = 6459.735", fillcolor="#fdf3ed"] ;
705 -> 709 ;
710 [label="squared_error = 0.0\nsamples = 1\nvalue = 6059.173", fillcolor="#fdf4ee"] ;
709 -> 710 ;
711 [label="region <= 0.833\nsquared_error = 38.778\nsamples = 2\nvalue = 6660.016", fillcolor="#fdf3ec"] ;
709 -> 711 ;
712 [label="squared_error = 0.0\nsamples = 1\nvalue = 6653.789", fillcolor="#fdf3ec"] ;
711 -> 712 ;
713 [label="squared_error = 0.0\nsamples = 1\nvalue = 6666.243", fillcolor="#fcf3ec"] ;
711 -> 713 ;
714 [label="age <= 0.533\nsquared_error = 916705.496\nsamples = 3\nvalue = 8487.95", fillcolor="#fcefe6"] ;
704 -> 714 ;
715 [label="region <= 0.667\nsquared_error = 105771.057\nsamples = 2\nvalue = 7837.492", fillcolor="#fcf0e8"] ;
714 -> 715 ;
716 [label="squared_error = 0.0\nsamples = 1\nvalue = 8162.716", fillcolor="#fcf0e7"] ;
715 -> 716 ;
717 [label="squared_error = -0.0\nsamples = 1\nvalue = 7512.267", fillcolor="#fcf1e9"] ;
715 -> 717 ;
718 [label="squared_error = 0.0\nsamples = 1\nvalue = 9788.866", fillcolor="#fbece1"] ;
714 -> 718 ;
719 [label="age <= 0.88\nsquared_error = 32124205.329\nsamples = 187\nvalue = 13191.418", fillcolor="#fae5d5"] ;
1 -> 719 ;
720 [label="bmi <= 0.363\nsquared_error = 29179700.287\nsamples = 138\nvalue = 12391.594", fillcolor="#fae6d8"] ;
719 -> 720 ;
721 [label="bmi <= 0.35\nsquared_error = 57996434.724\nsamples = 29\nvalue = 14347.765", fillcolor="#f9e2d1"] ;
720 -> 721 ;
722 [label="age <= 0.707\nsquared_error = 30034915.535\nsamples = 26\nvalue = 12605.813", fillcolor="#fae6d7"] ;
721 -> 722 ;
723 [label="region <= 0.167\nsquared_error = 85934058.887\nsamples = 8\nvalue = 15947.236", fillcolor="#f8dfcc"] ;
722 -> 723 ;
724 [label="bmi <= 0.213\nsquared_error = 200127.073\nsamples = 3\nvalue = 9208.621", fillcolor="#fbede3"] ;
723 -> 724 ;
725 [label="squared_error = 0.0\nsamples = 1\nvalue = 8627.541", fillcolor="#fcefe5"] ;
724 -> 725 ;
726 [label="children <= 0.3\nsquared_error = 46950.309\nsamples = 2\nvalue = 9499.161", fillcolor="#fbede2"] ;
724 -> 726 ;
727 [label="squared_error = 0.0\nsamples = 1\nvalue = 9282.481", fillcolor="#fbede3"] ;
726 -> 727 ;
728 [label="squared_error = -0.0\nsamples = 1\nvalue = 9715.841", fillcolor="#fbece1"] ;
726 -> 728 ;
729 [label="children <= 0.1\nsquared_error = 94744324.077\nsamples = 5\nvalue = 19316.544", fillcolor="#f7d7c0"] ;
723 -> 729 ;
730 [label="squared_error = 0.0\nsamples = 1\nvalue = 8442.667", fillcolor="#fcefe6"] ;
729 -> 730 ;
731 [label="sex <= 0.5\nsquared_error = 85315302.521\nsamples = 4\nvalue = 21491.319", fillcolor="#f6d2b9"] ;
729 -> 731 ;
732 [label="children <= 0.3\nsquared_error = 56278230.377\nsamples = 3\nvalue = 15629.103", fillcolor="#f8dfcd"] ;
731 -> 732 ;
733 [label="squared_error = 0.0\nsamples = 1\nvalue = 26236.58", fillcolor="#f4c8a8"] ;
732 -> 733 ;
734 [label="age <= 0.685\nsquared_error = 28419.655\nsamples = 2\nvalue = 10325.364", fillcolor="#fbebdf"] ;
732 -> 734 ;
735 [label="squared_error = 0.0\nsamples = 1\nvalue = 10156.783", fillcolor="#fbebe0"] ;
734 -> 735 ;
736 [label="squared_error = -0.0\nsamples = 1\nvalue = 10493.946", fillcolor="#fbeadf"] ;
734 -> 736 ;
737 [label="squared_error = 0.0\nsamples = 1\nvalue = 30284.643", fillcolor="#f2bf9b"] ;
731 -> 737 ;
738 [label="age <= 0.837\nsquared_error = 5482536.868\nsamples = 18\nvalue = 11449.167", fillcolor="#fae8db"] ;
722 -> 738 ;
739 [label="children <= 0.3\nsquared_error = 863443.489\nsamples = 12\nvalue = 10781.709", fillcolor="#fbeade"] ;
738 -> 739 ;
740 [label="age <= 0.739\nsquared_error = 586075.162\nsamples = 8\nvalue = 10351.324", fillcolor="#fbebdf"] ;
739 -> 740 ;
741 [label="region <= 0.833\nsquared_error = 192415.514\nsamples = 3\nvalue = 9300.799", fillcolor="#fbede3"] ;
740 -> 741 ;
742 [label="squared_error = 0.0\nsamples = 1\nvalue = 9855.131", fillcolor="#fbece1"] ;
741 -> 742 ;
743 [label="sex <= 0.5\nsquared_error = 58160.075\nsamples = 2\nvalue = 9023.633", fillcolor="#fbeee4"] ;
741 -> 743 ;
744 [label="squared_error = 0.0\nsamples = 1\nvalue = 9264.797", fillcolor="#fbede3"] ;
743 -> 744 ;
745 [label="squared_error = 0.0\nsamples = 1\nvalue = 8782.469", fillcolor="#fceee5"] ;
743 -> 745 ;
746 [label="bmi <= 0.279\nsquared_error = 273768.093\nsamples = 5\nvalue = 10666.481", fillcolor="#fbeade"] ;
740 -> 746 ;
747 [label="age <= 0.772\nsquared_error = 75114.85\nsamples = 2\nvalue = 10199.139", fillcolor="#fbebe0"] ;
746 -> 747 ;
748 [label="squared_error = 0.0\nsamples = 1\nvalue = 9863.472", fillcolor="#fbece1"] ;
747 -> 748 ;
749 [label="squared_error = 0.0\nsamples = 1\nvalue = 10422.917", fillcolor="#fbebdf"] ;
747 -> 749 ;
750 [label="children <= 0.1\nsquared_error = 35602.873\nsamples = 3\nvalue = 11133.824", fillcolor="#fae9dd"] ;
746 -> 750 ;
751 [label="region <= 0.167\nsquared_error = 18509.374\nsamples = 2\nvalue = 11261.619", fillcolor="#fae9dc"] ;
750 -> 751 ;
752 [label="squared_error = 0.0\nsamples = 1\nvalue = 11165.418", fillcolor="#fae9dc"] ;
751 -> 752 ;
753 [label="squared_error = -0.0\nsamples = 1\nvalue = 11454.022", fillcolor="#fae8db"] ;
751 -> 753 ;
754 [label="squared_error = 0.0\nsamples = 1\nvalue = 10942.132", fillcolor="#fbe9dd"] ;
750 -> 754 ;
755 [label="age <= 0.772\nsquared_error = 193513.668\nsamples = 4\nvalue = 11714.211", fillcolor="#fae8db"] ;
739 -> 755 ;
756 [label="children <= 0.6\nsquared_error = 25574.466\nsamples = 2\nvalue = 11427.77", fillcolor="#fae8dc"] ;
755 -> 756 ;
757 [label="squared_error = 0.0\nsamples = 1\nvalue = 11150.78", fillcolor="#fae9dc"] ;
756 -> 757 ;
758 [label="squared_error = 0.0\nsamples = 1\nvalue = 11520.1", fillcolor="#fae8db"] ;
756 -> 758 ;
759 [label="bmi <= 0.255\nsquared_error = 37100.721\nsamples = 2\nvalue = 12287.093", fillcolor="#fae7d9"] ;
755 -> 759 ;
760 [label="squared_error = 0.0\nsamples = 1\nvalue = 12094.478", fillcolor="#fae7d9"] ;
759 -> 760 ;
761 [label="squared_error = 0.0\nsamples = 1\nvalue = 12479.709", fillcolor="#fae6d8"] ;
759 -> 761 ;
762 [label="children <= 0.1\nsquared_error = 13528712.81\nsamples = 6\nvalue = 13260.837", fillcolor="#fae4d5"] ;
738 -> 762 ;
763 [label="bmi <= 0.275\nsquared_error = 150149.546\nsamples = 4\nvalue = 11600.852", fillcolor="#fae8db"] ;
762 -> 763 ;
764 [label="bmi <= 0.245\nsquared_error = 37285.486\nsamples = 2\nvalue = 11152.425", fillcolor="#fae9dc"] ;
763 -> 764 ;
765 [label="squared_error = 0.0\nsamples = 1\nvalue = 11345.519", fillcolor="#fae9dc"] ;
764 -> 765 ;
766 [label="squared_error = -0.0\nsamples = 1\nvalue = 10959.33", fillcolor="#fbe9dd"] ;
764 -> 766 ;
767 [label="region <= 0.5\nsquared_error = 1962.104\nsamples = 2\nvalue = 11899.804", fillcolor="#fae7da"] ;
763 -> 767 ;
768 [label="squared_error = 0.0\nsamples = 1\nvalue = 11931.125", fillcolor="#fae7da"] ;
767 -> 768 ;
769 [label="squared_error = 0.0\nsamples = 1\nvalue = 11837.16", fillcolor="#fae8da"] ;
767 -> 769 ;
770 [label="children <= 0.3\nsquared_error = 22864040.493\nsamples = 2\nvalue = 17410.801", fillcolor="#f8dbc7"] ;
762 -> 770 ;
771 [label="squared_error = 0.0\nsamples = 1\nvalue = 22192.437", fillcolor="#f5d1b6"] ;
770 -> 771 ;
772 [label="squared_error = 0.0\nsamples = 1\nvalue = 12629.166", fillcolor="#fae6d7"] ;
770 -> 772 ;
773 [label="region <= 0.5\nsquared_error = 83800959.426\nsamples = 3\nvalue = 26541.425", fillcolor="#f4c7a7"] ;
721 -> 773 ;
774 [label="squared_error = 0.0\nsamples = 1\nvalue = 10106.134", fillcolor="#fbebe0"] ;
773 -> 774 ;
775 [label="bmi <= 0.357\nsquared_error = 20339081.97\nsamples = 2\nvalue = 30650.247", fillcolor="#f2be99"] ;
773 -> 775 ;
776 [label="squared_error = 0.0\nsamples = 1\nvalue = 35160.135", fillcolor="#f0b48a"] ;
775 -> 776 ;
777 [label="squared_error = 0.0\nsamples = 1\nvalue = 26140.36", fillcolor="#f4c8a9"] ;
775 -> 777 ;
778 [label="age <= 0.728\nsquared_error = 21778816.762\nsamples = 109\nvalue = 11959.291", fillcolor="#fae7da"] ;
720 -> 778 ;
779 [label="region <= 0.167\nsquared_error = 18592091.841\nsamples = 38\nvalue = 10760.005", fillcolor="#fbeade"] ;
778 -> 779 ;
780 [label="age <= 0.663\nsquared_error = 43519489.14\nsamples = 11\nvalue = 13642.401", fillcolor="#f9e4d4"] ;
779 -> 780 ;
781 [label="bmi <= 0.481\nsquared_error = 51531094.45\nsamples = 4\nvalue = 17691.991", fillcolor="#f8dbc6"] ;
780 -> 781 ;
782 [label="age <= 0.641\nsquared_error = 204673.492\nsamples = 2\nvalue = 9767.284", fillcolor="#fbece1"] ;
781 -> 782 ;
783 [label="squared_error = 0.0\nsamples = 1\nvalue = 10407.086", fillcolor="#fbebdf"] ;
782 -> 783 ;
784 [label="squared_error = 0.0\nsamples = 1\nvalue = 9447.382", fillcolor="#fbede2"] ;
782 -> 784 ;
785 [label="children <= 0.1\nsquared_error = 7599604.015\nsamples = 2\nvalue = 23635.522", fillcolor="#f5ceb1"] ;
781 -> 785 ;
786 [label="squared_error = 0.0\nsamples = 1\nvalue = 20878.784", fillcolor="#f6d4bb"] ;
785 -> 786 ;
787 [label="squared_error = 0.0\nsamples = 1\nvalue = 26392.26", fillcolor="#f4c8a8"] ;
785 -> 787 ;
788 [label="bmi <= 0.372\nsquared_error = 21344361.17\nsamples = 7\nvalue = 11065.389", fillcolor="#fbe9dd"] ;
780 -> 788 ;
789 [label="squared_error = 0.0\nsamples = 1\nvalue = 25656.575", fillcolor="#f4c9aa"] ;
788 -> 789 ;
790 [label="age <= 0.707\nsquared_error = 59498.931\nsamples = 6\nvalue = 9606.271", fillcolor="#fbece2"] ;
788 -> 790 ;
791 [label="age <= 0.685\nsquared_error = 19904.742\nsamples = 4\nvalue = 9428.227", fillcolor="#fbede2"] ;
790 -> 791 ;
792 [label="bmi <= 0.475\nsquared_error = 0.992\nsamples = 2\nvalue = 9289.435", fillcolor="#fbede3"] ;
791 -> 792 ;
793 [label="squared_error = 0.0\nsamples = 1\nvalue = 9288.027", fillcolor="#fbede3"] ;
792 -> 793 ;
794 [label="squared_error = 0.0\nsamples = 1\nvalue = 9290.14", fillcolor="#fbede3"] ;
792 -> 794 ;
795 [label="sex <= 0.5\nsquared_error = 1282.438\nsamples = 2\nvalue = 9567.018", fillcolor="#fbede2"] ;
791 -> 795 ;
796 [label="squared_error = 0.0\nsamples = 1\nvalue = 9541.696", fillcolor="#fbede2"] ;
795 -> 796 ;
797 [label="squared_error = -0.0\nsamples = 1\nvalue = 9617.662", fillcolor="#fbece2"] ;
795 -> 797 ;
798 [label="bmi <= 0.693\nsquared_error = 16.481\nsamples = 2\nvalue = 9873.337", fillcolor="#fbece1"] ;
790 -> 798 ;
799 [label="squared_error = 0.0\nsamples = 1\nvalue = 9866.305", fillcolor="#fbece1"] ;
798 -> 799 ;
800 [label="squared_error = 0.0\nsamples = 1\nvalue = 9875.68", fillcolor="#fbece1"] ;
798 -> 800 ;
801 [label="children <= 0.5\nsquared_error = 5550529.562\nsamples = 27\nvalue = 9722.342", fillcolor="#fbece1"] ;
779 -> 801 ;
802 [label="age <= 0.641\nsquared_error = 4023553.332\nsamples = 20\nvalue = 9309.243", fillcolor="#fbede3"] ;
801 -> 802 ;
803 [label="sex <= 0.5\nsquared_error = 73682.632\nsamples = 6\nvalue = 8444.935", fillcolor="#fcefe6"] ;
802 -> 803 ;
804 [label="region <= 0.5\nsquared_error = 17519.92\nsamples = 4\nvalue = 8607.174", fillcolor="#fcefe5"] ;
803 -> 804 ;
805 [label="squared_error = 0.0\nsamples = 1\nvalue = 8930.935", fillcolor="#fbeee4"] ;
804 -> 805 ;
806 [label="bmi <= 0.737\nsquared_error = 58.101\nsamples = 3\nvalue = 8553.214", fillcolor="#fcefe5"] ;
804 -> 806 ;
807 [label="bmi <= 0.478\nsquared_error = 3.207\nsamples = 2\nvalue = 8549.885", fillcolor="#fcefe5"] ;
806 -> 807 ;
808 [label="squared_error = 0.0\nsamples = 1\nvalue = 8547.691", fillcolor="#fcefe5"] ;
807 -> 808 ;
809 [label="squared_error = 0.0\nsamples = 1\nvalue = 8551.347", fillcolor="#fcefe5"] ;
807 -> 809 ;
810 [label="squared_error = 0.0\nsamples = 1\nvalue = 8569.862", fillcolor="#fcefe5"] ;
806 -> 810 ;
811 [label="bmi <= 0.594\nsquared_error = 6.53\nsamples = 2\nvalue = 8066.378", fillcolor="#fcf0e7"] ;
803 -> 811 ;
812 [label="squared_error = 0.0\nsamples = 1\nvalue = 8062.764", fillcolor="#fcf0e7"] ;
811 -> 812 ;
813 [label="squared_error = -0.0\nsamples = 1\nvalue = 8068.185", fillcolor="#fcf0e7"] ;
811 -> 813 ;
814 [label="region <= 0.833\nsquared_error = 5008164.673\nsamples = 14\nvalue = 9597.345", fillcolor="#fbece2"] ;
802 -> 814 ;
815 [label="age <= 0.696\nsquared_error = 268018.441\nsamples = 8\nvalue = 8994.175", fillcolor="#fbeee4"] ;
814 -> 815 ;
816 [label="region <= 0.5\nsquared_error = 131337.058\nsamples = 6\nvalue = 8763.527", fillcolor="#fceee5"] ;
815 -> 816 ;
817 [label="bmi <= 0.571\nsquared_error = 75088.569\nsamples = 3\nvalue = 9013.145", fillcolor="#fbeee4"] ;
816 -> 817 ;
818 [label="children <= 0.1\nsquared_error = 11925.302\nsamples = 2\nvalue = 8898.995", fillcolor="#fbeee4"] ;
817 -> 818 ;
819 [label="squared_error = 0.0\nsamples = 1\nvalue = 8988.159", fillcolor="#fbeee4"] ;
818 -> 819 ;
820 [label="squared_error = 0.0\nsamples = 1\nvalue = 8765.249", fillcolor="#fceee5"] ;
818 -> 820 ;
821 [label="squared_error = 0.0\nsamples = 1\nvalue = 9583.893", fillcolor="#fbece2"] ;
817 -> 821 ;
822 [label="children <= 0.2\nsquared_error = 91742.646\nsamples = 3\nvalue = 8576.313", fillcolor="#fcefe5"] ;
816 -> 822 ;
823 [label="bmi <= 0.505\nsquared_error = 50545.232\nsamples = 2\nvalue = 8442.356", fillcolor="#fcefe6"] ;
822 -> 823 ;
824 [label="squared_error = 0.0\nsamples = 1\nvalue = 8601.329", fillcolor="#fcefe5"] ;
823 -> 824 ;
825 [label="squared_error = -0.0\nsamples = 1\nvalue = 8124.408", fillcolor="#fcf0e7"] ;
823 -> 825 ;
826 [label="squared_error = -0.0\nsamples = 1\nvalue = 8978.185", fillcolor="#fbeee4"] ;
822 -> 826 ;
827 [label="children <= 0.1\nsquared_error = 84693.67\nsamples = 2\nvalue = 9639.989", fillcolor="#fbece2"] ;
815 -> 827 ;
828 [label="squared_error = 0.0\nsamples = 1\nvalue = 9283.562", fillcolor="#fbede3"] ;
827 -> 828 ;
829 [label="squared_error = -0.0\nsamples = 1\nvalue = 9877.608", fillcolor="#fbece1"] ;
827 -> 829 ;
830 [label="bmi <= 0.454\nsquared_error = 11481850.884\nsamples = 6\nvalue = 10639.186", fillcolor="#fbeade"] ;
814 -> 830 ;
831 [label="squared_error = 0.0\nsamples = 1\nvalue = 21232.182", fillcolor="#f6d3ba"] ;
830 -> 831 ;
832 [label="bmi <= 0.487\nsquared_error = 286762.929\nsamples = 5\nvalue = 9579.886", fillcolor="#fbece2"] ;
830 -> 832 ;
833 [label="squared_error = 0.0\nsamples = 1\nvalue = 8116.68", fillcolor="#fcf0e7"] ;
832 -> 833 ;
834 [label="sex <= 0.5\nsquared_error = 54307.899\nsamples = 4\nvalue = 9742.465", fillcolor="#fbece1"] ;
832 -> 834 ;
835 [label="bmi <= 0.636\nsquared_error = 9090.173\nsamples = 2\nvalue = 9927.739", fillcolor="#fbece1"] ;
834 -> 835 ;
836 [label="squared_error = 0.0\nsamples = 1\nvalue = 10118.424", fillcolor="#fbebe0"] ;
835 -> 836 ;
837 [label="squared_error = 0.0\nsamples = 1\nvalue = 9880.068", fillcolor="#fbece1"] ;
835 -> 837 ;
838 [label="age <= 0.707\nsquared_error = 14286.345\nsamples = 2\nvalue = 9510.872", fillcolor="#fbede2"] ;
834 -> 838 ;
839 [label="squared_error = 0.0\nsamples = 1\nvalue = 9630.397", fillcolor="#fbece2"] ;
838 -> 839 ;
840 [label="squared_error = -0.0\nsamples = 1\nvalue = 9391.346", fillcolor="#fbede3"] ;
838 -> 840 ;
841 [label="bmi <= 0.391\nsquared_error = 8245417.842\nsamples = 7\nvalue = 11374.738", fillcolor="#fae9dc"] ;
801 -> 841 ;
842 [label="squared_error = 0.0\nsamples = 1\nvalue = 19749.383", fillcolor="#f7d6bf"] ;
841 -> 842 ;
843 [label="age <= 0.685\nsquared_error = 502972.715\nsamples = 6\nvalue = 10444.222", fillcolor="#fbebdf"] ;
841 -> 843 ;
844 [label="age <= 0.663\nsquared_error = 134305.585\nsamples = 4\nvalue = 9879.465", fillcolor="#fbece1"] ;
843 -> 844 ;
845 [label="age <= 0.641\nsquared_error = 729.663\nsamples = 2\nvalue = 9582.13", fillcolor="#fbece2"] ;
844 -> 845 ;
846 [label="squared_error = 0.0\nsamples = 1\nvalue = 9620.331", fillcolor="#fbece2"] ;
845 -> 846 ;
847 [label="squared_error = -0.0\nsamples = 1\nvalue = 9563.029", fillcolor="#fbede2"] ;
845 -> 847 ;
848 [label="sex <= 0.5\nsquared_error = 3137.047\nsamples = 2\nvalue = 10325.469", fillcolor="#fbebdf"] ;
844 -> 848 ;
849 [label="squared_error = 0.0\nsamples = 1\nvalue = 10381.479", fillcolor="#fbebdf"] ;
848 -> 849 ;
850 [label="squared_error = 0.0\nsamples = 1\nvalue = 10269.46", fillcolor="#fbebe0"] ;
848 -> 850 ;
851 [label="children <= 0.7\nsquared_error = 66759.676\nsamples = 2\nvalue = 11150.168", fillcolor="#fae9dc"] ;
843 -> 851 ;
852 [label="squared_error = 0.0\nsamples = 1\nvalue = 10702.642", fillcolor="#fbeade"] ;
851 -> 852 ;
853 [label="squared_error = -0.0\nsamples = 1\nvalue = 11299.343", fillcolor="#fae9dc"] ;
851 -> 853 ;
854 [label="bmi <= 0.675\nsquared_error = 22310131.481\nsamples = 71\nvalue = 12680.985", fillcolor="#fae6d7"] ;
778 -> 854 ;
855 [label="age <= 0.75\nsquared_error = 13884010.475\nsamples = 52\nvalue = 11927.104", fillcolor="#fae7da"] ;
854 -> 855 ;
856 [label="children <= 0.3\nsquared_error = 429822.18\nsamples = 8\nvalue = 9654.202", fillcolor="#fbece2"] ;
855 -> 856 ;
857 [label="bmi <= 0.575\nsquared_error = 79981.201\nsamples = 6\nvalue = 9400.789", fillcolor="#fbede3"] ;
856 -> 857 ;
858 [label="sex <= 0.5\nsquared_error = 1823.104\nsamples = 4\nvalue = 9708.98", fillcolor="#fbece1"] ;
857 -> 858 ;
859 [label="squared_error = 0.0\nsamples = 1\nvalue = 9625.92", fillcolor="#fbece2"] ;
858 -> 859 ;
860 [label="bmi <= 0.546\nsquared_error = 122.958\nsamples = 3\nvalue = 9729.745", fillcolor="#fbece1"] ;
858 -> 860 ;
861 [label="bmi <= 0.497\nsquared_error = 148.603\nsamples = 2\nvalue = 9736.72", fillcolor="#fbece1"] ;
860 -> 861 ;
862 [label="squared_error = 0.0\nsamples = 1\nvalue = 9724.53", fillcolor="#fbece1"] ;
861 -> 862 ;
863 [label="squared_error = -0.0\nsamples = 1\nvalue = 9748.911", fillcolor="#fbece1"] ;
861 -> 863 ;
864 [label="squared_error = -0.0\nsamples = 1\nvalue = 9722.77", fillcolor="#fbece1"] ;
860 -> 864 ;
865 [label="region <= 0.833\nsquared_error = 1.814\nsamples = 2\nvalue = 9143.963", fillcolor="#fbede3"] ;
857 -> 865 ;
866 [label="squared_error = 0.0\nsamples = 1\nvalue = 9140.951", fillcolor="#fbede3"] ;
865 -> 866 ;
867 [label="squared_error = 0.0\nsamples = 1\nvalue = 9144.565", fillcolor="#fbede3"] ;
865 -> 867 ;
868 [label="bmi <= 0.555\nsquared_error = 58146.149\nsamples = 2\nvalue = 11047.974", fillcolor="#fbe9dd"] ;
856 -> 868 ;
869 [label="squared_error = 0.0\nsamples = 1\nvalue = 11289.109", fillcolor="#fae9dc"] ;
868 -> 869 ;
870 [label="squared_error = -0.0\nsamples = 1\nvalue = 10806.839", fillcolor="#fbeade"] ;
868 -> 870 ;
871 [label="age <= 0.772\nsquared_error = 15354380.649\nsamples = 44\nvalue = 12388.787", fillcolor="#fae6d8"] ;
855 -> 871 ;
872 [label="bmi <= 0.497\nsquared_error = 58306921.343\nsamples = 7\nvalue = 14780.895", fillcolor="#f9e1d0"] ;
871 -> 872 ;
873 [label="children <= 0.1\nsquared_error = 255421.524\nsamples = 4\nvalue = 10291.075", fillcolor="#fbebdf"] ;
872 -> 873 ;
874 [label="bmi <= 0.429\nsquared_error = 32455.745\nsamples = 2\nvalue = 9742.422", fillcolor="#fbece1"] ;
873 -> 874 ;
875 [label="squared_error = 0.0\nsamples = 1\nvalue = 9869.81", fillcolor="#fbece1"] ;
874 -> 875 ;
876 [label="squared_error = -0.0\nsamples = 1\nvalue = 9487.644", fillcolor="#fbede2"] ;
874 -> 876 ;
877 [label="bmi <= 0.452\nsquared_error = 100220.769\nsamples = 2\nvalue = 10620.268", fillcolor="#fbeade"] ;
873 -> 877 ;
878 [label="squared_error = 0.0\nsamples = 1\nvalue = 11253.421", fillcolor="#fae9dc"] ;
877 -> 878 ;
879 [label="squared_error = 0.0\nsamples = 1\nvalue = 10461.979", fillcolor="#fbebdf"] ;
877 -> 879 ;
880 [label="region <= 0.833\nsquared_error = 53459051.063\nsamples = 3\nvalue = 23760.534", fillcolor="#f5cdb1"] ;
872 -> 880 ;
881 [label="children <= 0.2\nsquared_error = 752715.658\nsamples = 2\nvalue = 27959.522", fillcolor="#f3c4a3"] ;
880 -> 881 ;
882 [label="squared_error = 0.0\nsamples = 1\nvalue = 27346.042", fillcolor="#f3c6a5"] ;
881 -> 882 ;
883 [label="squared_error = 0.0\nsamples = 1\nvalue = 29186.482", fillcolor="#f2c19e"] ;
881 -> 883 ;
884 [label="squared_error = -0.0\nsamples = 1\nvalue = 11163.568", fillcolor="#fae9dc"] ;
880 -> 884 ;
885 [label="region <= 0.5\nsquared_error = 3817021.04\nsamples = 37\nvalue = 11836.762", fillcolor="#fae8da"] ;
871 -> 885 ;
886 [label="bmi <= 0.46\nsquared_error = 5668472.59\nsamples = 24\nvalue = 12195.786", fillcolor="#fae7d9"] ;
885 -> 886 ;
887 [label="bmi <= 0.454\nsquared_error = 12612369.488\nsamples = 9\nvalue = 13002.083", fillcolor="#fae5d6"] ;
886 -> 887 ;
888 [label="children <= 0.6\nsquared_error = 701584.213\nsamples = 8\nvalue = 11958.956", fillcolor="#fae7da"] ;
887 -> 888 ;
889 [label="age <= 0.848\nsquared_error = 119290.959\nsamples = 7\nvalue = 11715.412", fillcolor="#fae8db"] ;
888 -> 889 ;
890 [label="children <= 0.3\nsquared_error = 74347.064\nsamples = 5\nvalue = 11567.077", fillcolor="#fae8db"] ;
889 -> 890 ;
891 [label="age <= 0.815\nsquared_error = 32206.441\nsamples = 4\nvalue = 11478.814", fillcolor="#fae8db"] ;
890 -> 891 ;
892 [label="region <= 0.167\nsquared_error = 83.6\nsamples = 2\nvalue = 11299.469", fillcolor="#fae9dc"] ;
891 -> 892 ;
893 [label="squared_error = 0.0\nsamples = 1\nvalue = 11286.539", fillcolor="#fae9dc"] ;
892 -> 893 ;
894 [label="squared_error = -0.0\nsamples = 1\nvalue = 11305.935", fillcolor="#fae9dc"] ;
892 -> 894 ;
895 [label="bmi <= 0.409\nsquared_error = 0.097\nsamples = 2\nvalue = 11658.159", fillcolor="#fae8db"] ;
891 -> 895 ;
896 [label="squared_error = 0.0\nsamples = 1\nvalue = 11657.719", fillcolor="#fae8db"] ;
895 -> 896 ;
