digraph Tree {
node [shape=box, style="filled, rounded", color="black", fontname="helvetica"] ;
edge [fontname="helvetica"] ;
0 [label="smoker <= 0.5\nsquared_error = 136914670.12\nsamples = 1069\nvalue = 13030.203", fillcolor="#fae7d9"] ;
1 [label="age <= 0.533\nsquared_error = 36870696.71\nsamples = 855\nvalue = 8498.479", fillcolor="#fcf0e7"] ;
0 -> 1 [labeldistance=2.5, labelangle=45, headlabel="True"] ;
2 [label="children <= 0.1\nsquared_error = 23425781.406\nsamples = 484\nvalue = 5519.406", fillcolor="#fdf6f1"] ;
1 -> 2 ;
3 [label="age <= 0.098\nsquared_error = 18378178.161\nsamples = 204\nvalue = 3952.958", fillcolor="#fef9f6"] ;
2 -> 3 ;
4 [label="bmi <= 0.455\nsquared_error = 12988533.039\nsamples = 94\nvalue = 2619.845", fillcolor="#fefcfa"] ;
3 -> 4 ;
5 [label="age <= 0.033\nsquared_error = 138804.379\nsamples = 45\nvalue = 1827.315", fillcolor="#fffefd"] ;
4 -> 5 ;
6 [label="region <= 0.167\nsquared_error = 66108.802\nsamples = 26\nvalue = 1615.102", fillcolor="#fffefd"] ;
5 -> 6 ;
7 [label="sex <= 0.5\nsquared_error = 42203.841\nsamples = 9\nvalue = 1814.409", fillcolor="#fffefd"] ;
6 -> 7 ;
8 [label="bmi <= 0.347\nsquared_error = 4.747\nsamples = 2\nvalue = 2198.652", fillcolor="#fffdfc"] ;
7 -> 8 ;
9 [label="squared_error = 0.0\nsamples = 1\nvalue = 2196.473", fillcolor="#fffdfc"] ;
8 -> 9 ;
10 [label="squared_error = -0.0\nsamples = 1\nvalue = 2200.831", fillcolor="#fffdfc"] ;
8 -> 10 ;
11 [label="bmi <= 0.089\nsquared_error = 24.501\nsamples = 7\nvalue = 1704.625", fillcolor="#fffefd"] ;
7 -> 11 ;
12 [label="squared_error = 0.0\nsamples = 1\nvalue = 1694.796", fillcolor="#fffefd"] ;
11 -> 12 ;
13 [label="bmi <= 0.281\nsquared_error = 9.802\nsamples = 6\nvalue = 1706.263", fillcolor="#fffefd"] ;
11 -> 13 ;
14 [label="bmi <= 0.204\nsquared_error = 1.346\nsamples = 4\nvalue = 1704.337", fillcolor="#fffefd"] ;
13 -> 14 ;
15 [label="squared_error = 0.0\nsamples = 1\nvalue = 1702.455", fillcolor="#fffefd"] ;
14 -> 15 ;
16 [label="bmi <= 0.242\nsquared_error = 0.221\nsamples = 3\nvalue = 1704.964", fillcolor="#fffefd"] ;
14 -> 16 ;
17 [label="bmi <= 0.23\nsquared_error = 0.004\nsamples = 2\nvalue = 1704.634", fillcolor="#fffefd"] ;
16 -> 17 ;
18 [label="squared_error = 0.0\nsamples = 1\nvalue = 1704.568", fillcolor="#fffefd"] ;
17 -> 18 ;
19 [label="squared_error = -0.0\nsamples = 1\nvalue = 1704.7", fillcolor="#fffefd"] ;
17 -> 19 ;
20 [label="squared_error = 0.0\nsamples = 1\nvalue = 1705.624", fillcolor="#fffefd"] ;
16 -> 20 ;
21 [label="bmi <= 0.358\nsquared_error = 4.464\nsamples = 2\nvalue = 1710.114", fillcolor="#fffefd"] ;
13 -> 21 ;
22 [label="squared_error = 0.0\nsamples = 1\nvalue = 1708.001", fillcolor="#fffefd"] ;
21 -> 22 ;
23 [label="squared_error = 0.0\nsamples = 1\nvalue = 1712.227", fillcolor="#fffefd"] ;
21 -> 23 ;
24 [label="sex <= 0.5\nsquared_error = 46601.099\nsamples = 17\nvalue = 1509.587", fillcolor="#fffefe"] ;
6 -> 24 ;
25 [label="region <= 0.833\nsquared_error = 3431.679\nsamples = 6\nvalue = 1694.097", fillcolor="#fffefd"] ;
24 -> 25 ;
26 [label="bmi <= 0.253\nsquared_error = 17.043\nsamples = 2\nvalue = 1611.638", fillcolor="#fffefd"] ;
25 -> 26 ;
27 [label="squared_error = 0.0\nsamples = 1\nvalue = 1607.51", fillcolor="#fffefd"] ;
26 -> 27 ;
28 [label="squared_error = 0.0\nsamples = 1\nvalue = 1615.767", fillcolor="#fffefd"] ;
26 -> 28 ;
29 [label="bmi <= 0.217\nsquared_error = 39.476\nsamples = 4\nvalue = 1735.326", fillcolor="#fffefd"] ;
25 -> 29 ;
30 [label="bmi <= 0.105\nsquared_error = 3.787\nsamples = 2\nvalue = 1729.731", fillcolor="#fffefd"] ;
29 -> 30 ;
31 [label="squared_error = 0.0\nsamples = 1\nvalue = 1727.785", fillcolor="#fffefd"] ;
30 -> 31 ;
32 [label="squared_error = 0.0\nsamples = 1\nvalue = 1731.677", fillcolor="#fffefd"] ;
30 -> 32 ;
33 [label="bmi <= 0.367\nsquared_error = 12.563\nsamples = 2\nvalue = 1740.92", fillcolor="#fffefd"] ;
29 -> 33 ;
34 [label="squared_error = 0.0\nsamples = 1\nvalue = 1737.376", fillcolor="#fffefd"] ;
33 -> 34 ;
35 [label="squared_error = 0.0\nsamples = 1\nvalue = 1744.465", fillcolor="#fffefd"] ;
33 -> 35 ;
36 [label="region <= 0.5\nsquared_error = 41450.002\nsamples = 11\nvalue = 1408.946", fillcolor="#fffefe"] ;
24 -> 36 ;
37 [label="bmi <= 0.264\nsquared_error = 25.859\nsamples = 5\nvalue = 1628.709", fillcolor="#fffefd"] ;
36 -> 37 ;
38 [label="bmi <= 0.097\nsquared_error = 8.536\nsamples = 3\nvalue = 1625.082", fillcolor="#fffefd"] ;
37 -> 38 ;
39 [label="squared_error = 0.0\nsamples = 1\nvalue = 1621.34", fillcolor="#fffefd"] ;
38 -> 39 ;
40 [label="bmi <= 0.18\nsquared_error = 2.306\nsamples = 2\nvalue = 1626.952", fillcolor="#fffefd"] ;
38 -> 40 ;
41 [label="squared_error = 0.0\nsamples = 1\nvalue = 1625.434", fillcolor="#fffefd"] ;
40 -> 41 ;
42 [label="squared_error = 0.0\nsamples = 1\nvalue = 1628.471", fillcolor="#fffefd"] ;
40 -> 42 ;
43 [label="bmi <= 0.349\nsquared_error = 2.511\nsamples = 2\nvalue = 1634.149", fillcolor="#fffefd"] ;
37 -> 43 ;
44 [label="squared_error = 0.0\nsamples = 1\nvalue = 1632.564", fillcolor="#fffefd"] ;
43 -> 44 ;
45 [label="squared_error = 0.0\nsamples = 1\nvalue = 1635.734", fillcolor="#fffefd"] ;
43 -> 45 ;
46 [label="region <= 0.833\nsquared_error = 2184.869\nsamples = 6\nvalue = 1225.81", fillcolor="#ffffff"] ;
36 -> 46 ;
47 [label="squared_error = 0.0\nsamples = 1\nvalue = 1121.874", fillcolor="#ffffff"] ;
46 -> 47 ;
48 [label="bmi <= 0.266\nsquared_error = 29.209\nsamples = 5\nvalue = 1246.597", fillcolor="#ffffff"] ;
46 -> 48 ;
49 [label="bmi <= 0.133\nsquared_error = 0.262\nsamples = 3\nvalue = 1242.214", fillcolor="#ffffff"] ;
48 -> 49 ;
50 [label="squared_error = 0.0\nsamples = 1\nvalue = 1241.565", fillcolor="#ffffff"] ;
49 -> 50 ;
51 [label="bmi <= 0.147\nsquared_error = 0.077\nsamples = 2\nvalue = 1242.538", fillcolor="#ffffff"] ;
49 -> 51 ;
52 [label="squared_error = 0.0\nsamples = 1\nvalue = 1242.26", fillcolor="#ffffff"] ;
51 -> 52 ;
53 [label="squared_error = 0.0\nsamples = 1\nvalue = 1242.816", fillcolor="#ffffff"] ;
51 -> 53 ;
54 [label="bmi <= 0.396\nsquared_error = 0.584\nsamples = 2\nvalue = 1253.172", fillcolor="#ffffff"] ;
48 -> 54 ;
55 [label="squared_error = 0.0\nsamples = 1\nvalue = 1252.407", fillcolor="#ffffff"] ;
54 -> 55 ;
56 [label="squared_error = -0.0\nsamples = 1\nvalue = 1253.936", fillcolor="#ffffff"] ;
54 -> 56 ;
57 [label="bmi <= 0.235\nsquared_error = 92326.927\nsamples = 19\nvalue = 2117.711", fillcolor="#fffdfc"] ;
5 -> 57 ;
58 [label="bmi <= 0.218\nsquared_error = 7372.874\nsamples = 3\nvalue = 2615.194", fillcolor="#fefcfa"] ;
57 -> 58 ;
59 [label="bmi <= 0.17\nsquared_error = 841.928\nsamples = 2\nvalue = 2556.835", fillcolor="#fefcfa"] ;
58 -> 59 ;
60 [label="squared_error = 0.0\nsamples = 1\nvalue = 2527.819", fillcolor="#fefcfa"] ;
59 -> 60 ;
61 [label="squared_error = 0.0\nsamples = 1\nvalue = 2585.851", fillcolor="#fefcfa"] ;
59 -> 61 ;
62 [label="squared_error = 0.0\nsamples = 1\nvalue = 2731.912", fillcolor="#fefcfa"] ;
58 -> 62 ;
63 [label="bmi <= 0.267\nsquared_error = 53150.777\nsamples = 16\nvalue = 2024.433", fillcolor="#fffdfc"] ;
57 -> 63 ;
64 [label="squared_error = 0.0\nsamples = 1\nvalue = 1515.345", fillcolor="#fffefe"] ;
63 -> 64 ;
65 [label="bmi <= 0.433\nsquared_error = 38264.258\nsamples = 15\nvalue = 2058.372", fillcolor="#fffdfc"] ;
63 -> 65 ;
66 [label="sex <= 0.5\nsquared_error = 33839.089\nsamples = 13\nvalue = 2094.67", fillcolor="#fffdfc"] ;
65 -> 66 ;
67 [label="region <= 0.167\nsquared_error = 18707.487\nsamples = 6\nvalue = 2198.238", fillcolor="#fffdfc"] ;
66 -> 67 ;
68 [label="squared_error = 0.0\nsamples = 1\nvalue = 2457.211", fillcolor="#fefcfb"] ;
67 -> 68 ;
69 [label="bmi <= 0.341\nsquared_error = 6352.835\nsamples = 5\nvalue = 2146.443", fillcolor="#fffdfc"] ;
67 -> 69 ;
70 [label="squared_error = 0.0\nsamples = 1\nvalue = 2007.945", fillcolor="#fffdfc"] ;
69 -> 70 ;
71 [label="bmi <= 0.42\nsquared_error = 1946.771\nsamples = 4\nvalue = 2181.067", fillcolor="#fffdfc"] ;
69 -> 71 ;
72 [label="region <= 0.833\nsquared_error = 0.956\nsamples = 3\nvalue = 2155.598", fillcolor="#fffdfc"] ;
71 -> 72 ;
73 [label="bmi <= 0.405\nsquared_error = 0.286\nsamples = 2\nvalue = 2156.217", fillcolor="#fffdfc"] ;
72 -> 73 ;
74 [label="squared_error = 0.0\nsamples = 1\nvalue = 2155.682", fillcolor="#fffdfc"] ;
73 -> 74 ;
75 [label="squared_error = -0.0\nsamples = 1\nvalue = 2156.752", fillcolor="#fffdfc"] ;
73 -> 75 ;
76 [label="squared_error = 0.0\nsamples = 1\nvalue = 2154.361", fillcolor="#fffdfc"] ;
72 -> 76 ;
77 [label="squared_error = 0.0\nsamples = 1\nvalue = 2257.475", fillcolor="#fffdfb"] ;
71 -> 77 ;
78 [label="region <= 0.5\nsquared_error = 29734.462\nsamples = 7\nvalue = 2005.897", fillcolor="#fffdfc"] ;
66 -> 78 ;
79 [label="bmi <= 0.421\nsquared_error = 12093.613\nsamples = 6\nvalue = 2062.713", fillcolor="#fffdfc"] ;
78 -> 79 ;
80 [label="bmi <= 0.404\nsquared_error = 8645.083\nsamples = 5\nvalue = 2093.984", fillcolor="#fffdfc"] ;
79 -> 80 ;
81 [label="bmi <= 0.38\nsquared_error = 3118.16\nsamples = 4\nvalue = 2054.772", fillcolor="#fffdfc"] ;
80 -> 81 ;
82 [label="age <= 0.076\nsquared_error = 735.389\nsamples = 3\nvalue = 2084.021", fillcolor="#fffdfc"] ;
81 -> 82 ;
83 [label="bmi <= 0.349\nsquared_error = 0.854\nsamples = 2\nvalue = 2103.189", fillcolor="#fffdfc"] ;
82 -> 83 ;
84 [label="squared_error = 0.0\nsamples = 1\nvalue = 2102.265", fillcolor="#fffdfc"] ;
83 -> 84 ;
85 [label="squared_error = 0.0\nsamples = 1\nvalue = 2104.113", fillcolor="#fffdfc"] ;
83 -> 85 ;
86 [label="squared_error = -0.0\nsamples = 1\nvalue = 2045.685", fillcolor="#fffdfc"] ;
82 -> 86 ;
87 [label="squared_error = 0.0\nsamples = 1\nvalue = 1967.023", fillcolor="#fffdfc"] ;
81 -> 87 ;
88 [label="squared_error = 0.0\nsamples = 1\nvalue = 2250.835", fillcolor="#fffdfb"] ;
80 -> 88 ;
89 [label="squared_error = 0.0\nsamples = 1\nvalue = 1906.358", fillcolor="#fffdfc"] ;
79 -> 89 ;
90 [label="squared_error = 0.0\nsamples = 1\nvalue = 1665.0", fillcolor="#fffefd"] ;
78 -> 90 ;
91 [label="region <= 0.667\nsquared_error = 2799.063\nsamples = 2\nvalue = 1822.438", fillcolor="#fffefd"] ;
65 -> 91 ;
92 [label="squared_error = 0.0\nsamples = 1\nvalue = 1769.532", fillcolor="#fffefd"] ;
91 -> 92 ;
93 [label="squared_error = 0.0\nsamples = 1\nvalue = 1875.344", fillcolor="#fffdfd"] ;
91 -> 93 ;
94 [label="bmi <= 0.464\nsquared_error = 23682730.829\nsamples = 49\nvalue = 3347.68", fillcolor="#fefaf8"] ;
4 -> 94 ;
95 [label="squared_error = 0.0\nsamples = 1\nvalue = 21344.847", fillcolor="#f6d6be"] ;
94 -> 95 ;
96 [label="bmi <= 0.586\nsquared_error = 17287664.749\nsamples = 48\nvalue = 2972.739", fillcolor="#fefbf9"] ;
94 -> 96 ;
97 [label="bmi <= 0.553\nsquared_error = 30221680.16\nsamples = 22\nvalue = 3975.216", fillcolor="#fef9f6"] ;
96 -> 97 ;
98 [label="age <= 0.054\nsquared_error = 12030076.552\nsamples = 17\nvalue = 2803.798", fillcolor="#fefcfa"] ;
97 -> 98 ;
99 [label="region <= 0.5\nsquared_error = 150554.303\nsamples = 12\nvalue = 1843.04", fillcolor="#fffefd"] ;
98 -> 99 ;
100 [label="sex <= 0.5\nsquared_error = 61996.384\nsamples = 6\nvalue = 2137.657", fillcolor="#fffdfc"] ;
99 -> 100 ;
101 [label="age <= 0.033\nsquared_error = 14852.342\nsamples = 5\nvalue = 2237.275", fillcolor="#fffdfb"] ;
100 -> 101 ;
102 [label="region <= 0.167\nsquared_error = 1298.87\nsamples = 3\nvalue = 2155.029", fillcolor="#fffdfc"] ;
101 -> 102 ;
103 [label="squared_error = 0.0\nsamples = 1\nvalue = 2205.981", fillcolor="#fffdfc"] ;
102 -> 103 ;
104 [label="bmi <= 0.498\nsquared_error = 1.26\nsamples = 2\nvalue = 2129.553", fillcolor="#fffdfc"] ;
102 -> 104 ;
105 [label="squared_error = 0.0\nsamples = 1\nvalue = 2128.431", fillcolor="#fffdfc"] ;
104 -> 105 ;
106 [label="squared_error = -0.0\nsamples = 1\nvalue = 2130.676", fillcolor="#fffdfc"] ;
104 -> 106 ;
107 [label="bmi <= 0.497\nsquared_error = 9815.984\nsamples = 2\nvalue = 2360.644", fillcolor="#fefcfb"] ;
101 -> 107 ;
108 [label="squared_error = 0.0\nsamples = 1\nvalue = 2459.72", fillcolor="#fefcfb"] ;
107 -> 108 ;
109 [label="squared_error = 0.0\nsamples = 1\nvalue = 2261.569", fillcolor="#fffdfb"] ;
107 -> 109 ;
110 [label="squared_error = 0.0\nsamples = 1\nvalue = 1639.563", fillcolor="#fffefd"] ;
100 -> 110 ;
111 [label="sex <= 0.5\nsquared_error = 65513.922\nsamples = 6\nvalue = 1548.423", fillcolor="#fffefe"] ;
99 -> 111 ;
112 [label="bmi <= 0.502\nsquared_error = 11235.614\nsamples = 4\nvalue = 1717.694", fillcolor="#fffefd"] ;
111 -> 112 ;
113 [label="bmi <= 0.496\nsquared_error = 0.023\nsamples = 2\nvalue = 1622.036", fillcolor="#fffefd"] ;
112 -> 113 ;
114 [label="squared_error = 0.0\nsamples = 1\nvalue = 1621.883", fillcolor="#fffefd"] ;
113 -> 114 ;
115 [label="squared_error = -0.0\nsamples = 1\nvalue = 1622.188", fillcolor="#fffefd"] ;
113 -> 115 ;
116 [label="bmi <= 0.527\nsquared_error = 4170.279\nsamples = 2\nvalue = 1813.352", fillcolor="#fffefd"] ;
112 -> 116 ;
117 [label="squared_error = 0.0\nsamples = 1\nvalue = 1877.929", fillcolor="#fffdfd"] ;
116 -> 117 ;
118 [label="squared_error = -0.0\nsamples = 1\nvalue = 1748.774", fillcolor="#fffefd"] ;
116 -> 118 ;
119 [label="bmi <= 0.5\nsquared_error = 2154.645\nsamples = 2\nvalue = 1209.881", fillcolor="#ffffff"] ;
111 -> 119 ;
120 [label="squared_error = 0.0\nsamples = 1\nvalue = 1256.299", fillcolor="#ffffff"] ;
119 -> 120 ;
121 [label="squared_error = 0.0\nsamples = 1\nvalue = 1163.463", fillcolor="#ffffff"] ;
119 -> 121 ;
122 [label="region <= 0.5\nsquared_error = 33008783.926\nsamples = 5\nvalue = 5109.619", fillcolor="#fdf7f2"] ;
98 -> 122 ;
123 [label="sex <= 0.5\nsquared_error = 98871.775\nsamples = 4\nvalue = 2240.399", fillcolor="#fffdfb"] ;
122 -> 123 ;
124 [label="squared_error = 0.0\nsamples = 1\nvalue = 2741.948", fillcolor="#fefcfa"] ;
123 -> 124 ;
125 [label="region <= 0.167\nsquared_error = 20028.528\nsamples = 3\nvalue = 2073.216", fillcolor="#fffdfc"] ;
123 -> 125 ;
126 [label="squared_error = 0.0\nsamples = 1\nvalue = 2254.797", fillcolor="#fffdfb"] ;
125 -> 126 ;
127 [label="bmi <= 0.511\nsquared_error = 5314.224\nsamples = 2\nvalue = 1982.426", fillcolor="#fffdfc"] ;
125 -> 127 ;
128 [label="squared_error = 0.0\nsamples = 1\nvalue = 1909.527", fillcolor="#fffdfc"] ;
127 -> 128 ;
129 [label="squared_error = 0.0\nsamples = 1\nvalue = 2055.325", fillcolor="#fffdfc"] ;
127 -> 129 ;
130 [label="squared_error = 0.0\nsamples = 1\nvalue = 16586.498", fillcolor="#f8dfcd"] ;
122 -> 130 ;
131 [label="bmi <= 0.558\nsquared_error = 71544740.596\nsamples = 5\nvalue = 7958.035", fillcolor="#fcf1e9"] ;
97 -> 131 ;
132 [label="squared_error = 0.0\nsamples = 1\nvalue = 23082.955", fillcolor="#f6d2b8"] ;
131 -> 132 ;
133 [label="bmi <= 0.578\nsquared_error = 17942419.228\nsamples = 4\nvalue = 4176.805", fillcolor="#fef9f5"] ;
131 -> 133 ;
134 [label="bmi <= 0.569\nsquared_error = 200934.727\nsamples = 3\nvalue = 1741.528", fillcolor="#fffefd"] ;
133 -> 134 ;
135 [label="bmi <= 0.561\nsquared_error = 26766.67\nsamples = 2\nvalue = 2044.092", fillcolor="#fffdfc"] ;
134 -> 135 ;
136 [label="squared_error = 0.0\nsamples = 1\nvalue = 2207.697", fillcolor="#fffdfc"] ;
135 -> 136 ;
137 [label="squared_error = 0.0\nsamples = 1\nvalue = 1880.487", fillcolor="#fffdfd"] ;
135 -> 137 ;
138 [label="squared_error = -0.0\nsamples = 1\nvalue = 1136.399", fillcolor="#ffffff"] ;
134 -> 138 ;
139 [label="squared_error = 0.0\nsamples = 1\nvalue = 11482.635", fillcolor="#fbeade"] ;
133 -> 139 ;
140 [label="region <= 0.167\nsquared_error = 4773618.822\nsamples = 26\nvalue = 2124.489", fillcolor="#fffdfc"] ;
96 -> 140 ;
141 [label="sex <= 0.5\nsquared_error = 25327073.911\nsamples = 3\nvalue = 5772.886", fillcolor="#fdf5f0"] ;
140 -> 141 ;
142 [label="bmi <= 0.713\nsquared_error = 10.044\nsamples = 2\nvalue = 2214.3", fillcolor="#fffdfb"] ;
141 -> 142 ;
143 [label="squared_error = 0.0\nsamples = 1\nvalue = 2211.131", fillcolor="#fffdfb"] ;
142 -> 143 ;
144 [label="squared_error = 0.0\nsamples = 1\nvalue = 2217.469", fillcolor="#fffdfb"] ;
142 -> 144 ;
145 [label="squared_error = 0.0\nsamples = 1\nvalue = 12890.058", fillcolor="#fae7d9"] ;
141 -> 145 ;
146 [label="sex <= 0.5\nsquared_error = 130081.989\nsamples = 23\nvalue = 1648.611", fillcolor="#fffefd"] ;
140 -> 146 ;
147 [label="age <= 0.011\nsquared_error = 48967.919\nsamples = 12\nvalue = 1911.304", fillcolor="#fffdfc"] ;
146 -> 147 ;
148 [label="bmi <= 0.75\nsquared_error = 1.641\nsamples = 4\nvalue = 1633.006", fillcolor="#fffefd"] ;
147 -> 148 ;
149 [label="bmi <= 0.723\nsquared_error = 0.006\nsamples = 2\nvalue = 1631.745", fillcolor="#fffefd"] ;
148 -> 149 ;
150 [label="squared_error = 0.0\nsamples = 1\nvalue = 1631.668", fillcolor="#fffefd"] ;
149 -> 150 ;
151 [label="squared_error = 0.0\nsamples = 1\nvalue = 1631.821", fillcolor="#fffefd"] ;
149 -> 151 ;
152 [label="bmi <= 0.782\nsquared_error = 0.094\nsamples = 2\nvalue = 1634.268", fillcolor="#fffefd"] ;
148 -> 152 ;
153 [label="squared_error = 0.0\nsamples = 1\nvalue = 1633.962", fillcolor="#fffefd"] ;
152 -> 153 ;
154 [label="squared_error = -0.0\nsamples = 1\nvalue = 1634.573", fillcolor="#fffefd"] ;
152 -> 154 ;
155 [label="bmi <= 0.781\nsquared_error = 15363.64\nsamples = 8\nvalue = 2050.453", fillcolor="#fffdfc"] ;
147 -> 155 ;
156 [label="bmi <= 0.619\nsquared_error = 3722.001\nsamples = 7\nvalue = 2092.041", fillcolor="#fffdfc"] ;
155 -> 156 ;
157 [label="region <= 0.833\nsquared_error = 0.035\nsamples = 2\nvalue = 2020.365", fillcolor="#fffdfc"] ;
156 -> 157 ;
158 [label="squared_error = 0.0\nsamples = 1\nvalue = 2020.552", fillcolor="#fffdfc"] ;
157 -> 158 ;
159 [label="squared_error = -0.0\nsamples = 1\nvalue = 2020.177", fillcolor="#fffdfc"] ;
157 -> 159 ;
160 [label="bmi <= 0.731\nsquared_error = 2333.756\nsamples = 5\nvalue = 2120.712", fillcolor="#fffdfc"] ;
156 -> 160 ;
161 [label="age <= 0.054\nsquared_error = 171.315\nsamples = 4\nvalue = 2144.147", fillcolor="#fffdfc"] ;
160 -> 161 ;
162 [label="bmi <= 0.646\nsquared_error = 1.709\nsamples = 3\nvalue = 2136.618", fillcolor="#fffdfc"] ;
161 -> 162 ;
163 [label="squared_error = 0.0\nsamples = 1\nvalue = 2134.902", fillcolor="#fffdfc"] ;
162 -> 163 ;
164 [label="bmi <= 0.683\nsquared_error = 0.353\nsamples = 2\nvalue = 2137.476", fillcolor="#fffdfc"] ;
162 -> 164 ;
165 [label="squared_error = 0.0\nsamples = 1\nvalue = 2136.882", fillcolor="#fffdfc"] ;
164 -> 165 ;
166 [label="squared_error = -0.0\nsamples = 1\nvalue = 2138.071", fillcolor="#fffdfc"] ;
164 -> 166 ;
167 [label="squared_error = 0.0\nsamples = 1\nvalue = 2166.732", fillcolor="#fffdfc"] ;
161 -> 167 ;
168 [label="squared_error = 0.0\nsamples = 1\nvalue = 2026.974", fillcolor="#fffdfc"] ;
160 -> 168 ;
169 [label="squared_error = -0.0\nsamples = 1\nvalue = 1759.338", fillcolor="#fffefd"] ;
155 -> 169 ;
170 [label="region <= 0.5\nsquared_error = 61163.481\nsamples = 11\nvalue = 1362.036", fillcolor="#fffffe"] ;
146 -> 170 ;
171 [label="age <= 0.043\nsquared_error = 18345.172\nsamples = 2\nvalue = 1781.874", fillcolor="#fffefd"] ;
170 -> 171 ;
172 [label="squared_error = 0.0\nsamples = 1\nvalue = 1646.43", fillcolor="#fffefd"] ;
171 -> 172 ;
173 [label="squared_error = 0.0\nsamples = 1\nvalue = 1917.318", fillcolor="#fffdfc"] ;
171 -> 173 ;
174 [label="age <= 0.043\nsquared_error = 22804.449\nsamples = 9\nvalue = 1268.738", fillcolor="#ffffff"] ;
170 -> 174 ;
175 [label="age <= 0.011\nsquared_error = 3591.184\nsamples = 7\nvalue = 1193.125", fillcolor="#ffffff"] ;
174 -> 175 ;
176 [label="bmi <= 0.786\nsquared_error = 24.657\nsamples = 4\nvalue = 1141.33", fillcolor="#ffffff"] ;
175 -> 176 ;
177 [label="bmi <= 0.646\nsquared_error = 3.964\nsamples = 3\nvalue = 1138.642", fillcolor="#ffffff"] ;
176 -> 177 ;
178 [label="bmi <= 0.595\nsquared_error = 0.053\nsamples = 2\nvalue = 1137.24", fillcolor="#ffffff"] ;
177 -> 178 ;
179 [label="squared_error = 0.0\nsamples = 1\nvalue = 1137.011", fillcolor="#ffffff"] ;
178 -> 179 ;
180 [label="squared_error = -0.0\nsamples = 1\nvalue = 1137.47", fillcolor="#ffffff"] ;
178 -> 180 ;
181 [label="squared_error = -0.0\nsamples = 1\nvalue = 1141.445", fillcolor="#ffffff"] ;
177 -> 181 ;
182 [label="squared_error = 0.0\nsamples = 1\nvalue = 1149.396", fillcolor="#ffffff"] ;
176 -> 182 ;
183 [label="bmi <= 0.615\nsquared_error = 0.597\nsamples = 3\nvalue = 1262.183", fillcolor="#ffffff"] ;
175 -> 183 ;
184 [label="bmi <= 0.594\nsquared_error = 0.043\nsamples = 2\nvalue = 1261.65", fillcolor="#ffffff"] ;
183 -> 184 ;
185 [label="squared_error = 0.0\nsamples = 1\nvalue = 1261.442", fillcolor="#ffffff"] ;
184 -> 185 ;
186 [label="squared_error = 0.0\nsamples = 1\nvalue = 1261.859", fillcolor="#ffffff"] ;
184 -> 186 ;
187 [label="squared_error = 0.0\nsamples = 1\nvalue = 1263.249", fillcolor="#ffffff"] ;
183 -> 187 ;
188 [label="bmi <= 0.657\nsquared_error = 0.842\nsamples = 2\nvalue = 1533.387", fillcolor="#fffefe"] ;
174 -> 188 ;
189 [label="squared_error = 0.0\nsamples = 1\nvalue = 1532.47", fillcolor="#fffefe"] ;
188 -> 189 ;
190 [label="squared_error = 0.0\nsamples = 1\nvalue = 1534.304", fillcolor="#fffefe"] ;
188 -> 190 ;
191 [label="age <= 0.315\nsquared_error = 20167394.842\nsamples = 110\nvalue = 5092.164", fillcolor="#fdf7f2"] ;
3 -> 191 ;
192 [label="age <= 0.141\nsquared_error = 20480053.767\nsamples = 70\nvalue = 4325.862", fillcolor="#fef8f5"] ;
191 -> 192 ;
193 [label="bmi <= 0.239\nsquared_error = 48737168.244\nsamples = 22\nvalue = 5924.1", fillcolor="#fdf5f0"] ;
192 -> 193 ;
194 [label="region <= 0.833\nsquared_error = 98918972.333\nsamples = 3\nvalue = 16378.217", fillcolor="#f9e0ce"] ;
193 -> 194 ;
195 [label="age <= 0.12\nsquared_error = 3038721.051\nsamples = 2\nvalue = 23338.575", fillcolor="#f6d1b7"] ;
194 -> 195 ;
196 [label="squared_error = 0.0\nsamples = 1\nvalue = 21595.382", fillcolor="#f6d5bd"] ;
195 -> 196 ;
197 [label="squared_error = -0.0\nsamples = 1\nvalue = 25081.768", fillcolor="#f5ceb2"] ;
195 -> 197 ;
198 [label="squared_error = -0.0\nsamples = 1\nvalue = 2457.502", fillcolor="#fefcfb"] ;
194 -> 198 ;
199 [label="region <= 0.833\nsquared_error = 20832991.389\nsamples = 19\nvalue = 4273.45", fillcolor="#fef9f5"] ;
193 -> 199 ;
200 [label="sex <= 0.5\nsquared_error = 145757.089\nsamples = 12\nvalue = 2547.542", fillcolor="#fefcfa"] ;
199 -> 200 ;
201 [label="region <= 0.5\nsquared_error = 49802.633\nsamples = 7\nvalue = 2804.115", fillcolor="#fefcfa"] ;
200 -> 201 ;
202 [label="region <= 0.167\nsquared_error = 8225.43\nsamples = 5\nvalue = 2936.642", fillcolor="#fefbf9"] ;
201 -> 202 ;
203 [label="age <= 0.12\nsquared_error = 4714.665\nsamples = 3\nvalue = 2996.588", fillcolor="#fefbf9"] ;
202 -> 203 ;
204 [label="squared_error = 0.0\nsamples = 1\nvalue = 2899.489", fillcolor="#fefbf9"] ;
203 -> 204 ;
205 [label="bmi <= 0.324\nsquared_error = 0.854\nsamples = 2\nvalue = 3045.138", fillcolor="#fefbf9"] ;
203 -> 205 ;
206 [label="squared_error = 0.0\nsamples = 1\nvalue = 3044.213", fillcolor="#fefbf9"] ;
205 -> 206 ;
207 [label="squared_error = 0.0\nsamples = 1\nvalue = 3046.062", fillcolor="#fefbf9"] ;
205 -> 207 ;
208 [label="bmi <= 0.361\nsquared_error = 15.693\nsamples = 2\nvalue = 2846.722", fillcolor="#fefbf9"] ;
202 -> 208 ;
209 [label="squared_error = 0.0\nsamples = 1\nvalue = 2842.761", fillcolor="#fefbf9"] ;
208 -> 209 ;
210 [label="squared_error = 0.0\nsamples = 1\nvalue = 2850.684", fillcolor="#fefbf9"] ;
208 -> 210 ;
211 [label="bmi <= 0.573\nsquared_error = 66.915\nsamples = 2\nvalue = 2472.799", fillcolor="#fefcfb"] ;
201 -> 211 ;
212 [label="squared_error = 0.0\nsamples = 1\nvalue = 2464.619", fillcolor="#fefcfb"] ;
211 -> 212 ;
213 [label="squared_error = -0.0\nsamples = 1\nvalue = 2480.979", fillcolor="#fefcfb"] ;
211 -> 213 ;
214 [label="region <= 0.5\nsquared_error = 58904.55\nsamples = 5\nvalue = 2188.339", fillcolor="#fffdfc"] ;
200 -> 214 ;
215 [label="region <= 0.167\nsquared_error = 404.659\nsamples = 3\nvalue = 2381.412", fillcolor="#fefcfb"] ;
214 -> 215 ;
216 [label="bmi <= 0.267\nsquared_error = 0.214\nsamples = 2\nvalue = 2395.634", fillcolor="#fefcfb"] ;
215 -> 216 ;
217 [label="squared_error = 0.0\nsamples = 1\nvalue = 2395.172", fillcolor="#fefcfb"] ;
216 -> 217 ;
218 [label="squared_error = 0.0\nsamples = 1\nvalue = 2396.096", fillcolor="#fefcfb"] ;
216 -> 218 ;
219 [label="squared_error = -0.0\nsamples = 1\nvalue = 2352.968", fillcolor="#fefcfb"] ;
215 -> 219 ;
220 [label="bmi <= 0.432\nsquared_error = 6864.62\nsamples = 2\nvalue = 1898.729", fillcolor="#fffdfc"] ;
214 -> 220 ;
221 [label="squared_error = 0.0\nsamples = 1\nvalue = 1815.876", fillcolor="#fffefd"] ;
220 -> 221 ;
222 [label="squared_error = -0.0\nsamples = 1\nvalue = 1981.582", fillcolor="#fffdfc"] ;
220 -> 222 ;
223 [label="sex <= 0.5\nsquared_error = 42436465.436\nsamples = 7\nvalue = 7232.151", fillcolor="#fcf2eb"] ;
199 -> 223 ;
224 [label="bmi <= 0.385\nsquared_error = 11775350.69\nsamples = 3\nvalue = 14292.612", fillcolor="#f9e4d5"] ;
223 -> 224 ;
225 [label="squared_error = 0.0\nsamples = 1\nvalue = 18955.22", fillcolor="#f7dac6"] ;
224 -> 225 ;
226 [label="bmi <= 0.479\nsquared_error = 1358087.377\nsamples = 2\nvalue = 11961.307", fillcolor="#fae9dc"] ;
224 -> 226 ;
227 [label="squared_error = 0.0\nsamples = 1\nvalue = 13126.677", fillcolor="#fae6d8"] ;
226 -> 227 ;
228 [label="squared_error = 0.0\nsamples = 1\nvalue = 10795.937", fillcolor="#fbebe0"] ;
226 -> 228 ;
229 [label="age <= 0.12\nsquared_error = 4039.088\nsamples = 4\nvalue = 1936.806", fillcolor="#fffdfc"] ;
223 -> 229 ;
230 [label="squared_error = 0.0\nsamples = 1\nvalue = 1826.843", fillcolor="#fffefd"] ;
229 -> 230 ;
231 [label="bmi <= 0.376\nsquared_error = 11.339\nsamples = 3\nvalue = 1973.46", fillcolor="#fffdfc"] ;
229 -> 231 ;
232 [label="bmi <= 0.281\nsquared_error = 2.782\nsamples = 2\nvalue = 1971.282", fillcolor="#fffdfc"] ;
231 -> 232 ;
233 [label="squared_error = 0.0\nsamples = 1\nvalue = 1969.614", fillcolor="#fffdfc"] ;
232 -> 233 ;
234 [label="squared_error = -0.0\nsamples = 1\nvalue = 1972.95", fillcolor="#fffdfc"] ;
232 -> 234 ;
235 [label="squared_error = 0.0\nsamples = 1\nvalue = 1977.815", fillcolor="#fffdfc"] ;
231 -> 235 ;
236 [label="age <= 0.207\nsquared_error = 5821530.556\nsamples = 48\nvalue = 3593.336", fillcolor="#fefaf7"] ;
192 -> 236 ;
237 [label="sex <= 0.5\nsquared_error = 134610.653\nsamples = 21\nvalue = 2819.64", fillcolor="#fefcfa"] ;
236 -> 237 ;
238 [label="region <= 0.667\nsquared_error = 69708.283\nsamples = 8\nvalue = 3182.37", fillcolor="#fefbf8"] ;
237 -> 238 ;
239 [label="region <= 0.167\nsquared_error = 19470.038\nsamples = 6\nvalue = 3308.64", fillcolor="#fefbf8"] ;
238 -> 239 ;
240 [label="bmi <= 0.358\nsquared_error = 7501.387\nsamples = 2\nvalue = 3472.01", fillcolor="#fefaf7"] ;
239 -> 240 ;
241 [label="squared_error = 0.0\nsamples = 1\nvalue = 3558.62", fillcolor="#fefaf7"] ;
240 -> 241 ;
242 [label="squared_error = 0.0\nsamples = 1\nvalue = 3385.399", fillcolor="#fefaf8"] ;
240 -> 242 ;
243 [label="age <= 0.185\nsquared_error = 5437.056\nsamples = 4\nvalue = 3226.955", fillcolor="#fefbf8"] ;
239 -> 243 ;
244 [label="bmi <= 0.501\nsquared_error = 135.549\nsamples = 3\nvalue = 3184.783", fillcolor="#fefbf8"] ;
243 -> 244 ;
245 [label="bmi <= 0.21\nsquared_error = 0.07\nsamples = 2\nvalue = 3176.552", fillcolor="#fefbf8"] ;
244 -> 245 ;
246 [label="squared_error = 0.0\nsamples = 1\nvalue = 3176.288", fillcolor="#fefbf8"] ;
245 -> 246 ;
247 [label="squared_error = -0.0\nsamples = 1\nvalue = 3176.816", fillcolor="#fefbf8"] ;
245 -> 247 ;
248 [label="squared_error = 0.0\nsamples = 1\nvalue = 3201.245", fillcolor="#fefbf8"] ;
244 -> 248 ;
249 [label="squared_error = 0.0\nsamples = 1\nvalue = 3353.47", fillcolor="#fefaf8"] ;
243 -> 249 ;
250 [label="age <= 0.174\nsquared_error = 29093.101\nsamples = 2\nvalue = 2803.559", fillcolor="#fefcfa"] ;
238 -> 250 ;
251 [label="squared_error = 0.0\nsamples = 1\nvalue = 2632.992", fillcolor="#fefcfa"] ;
250 -> 251 ;
252 [label="squared_error = 0.0\nsamples = 1\nvalue = 2974.126", fillcolor="#fefbf9"] ;
250 -> 252 ;
253 [label="region <= 0.167\nsquared_error = 43756.709\nsamples = 13\nvalue = 2596.423", fillcolor="#fefcfa"] ;
237 -> 253 ;
254 [label="age <= 0.163\nsquared_error = 20628.832\nsamples = 4\nvalue = 2854.212", fillcolor="#fefbf9"] ;
253 -> 254 ;
255 [label="bmi <= 0.404\nsquared_error = 9.224\nsamples = 2\nvalue = 2724.358", fillcolor="#fefcfa"] ;
254 -> 255 ;
256 [label="squared_error = 0.0\nsamples = 1\nvalue = 2721.321", fillcolor="#fefcfa"] ;
255 -> 256 ;
257 [label="squared_error = 0.0\nsamples = 1\nvalue = 2727.395", fillcolor="#fefcfa"] ;
255 -> 257 ;
258 [label="age <= 0.185\nsquared_error = 7524.279\nsamples = 2\nvalue = 2984.066", fillcolor="#fefbf9"] ;
254 -> 258 ;
259 [label="squared_error = 0.0\nsamples = 1\nvalue = 2897.324", fillcolor="#fefbf9"] ;
258 -> 259 ;
260 [label="squared_error = 0.0\nsamples = 1\nvalue = 3070.809", fillcolor="#fefbf9"] ;
258 -> 260 ;
261 [label="bmi <= 0.106\nsquared_error = 11373.031\nsamples = 9\nvalue = 2481.849", fillcolor="#fefcfb"] ;
253 -> 261 ;
262 [label="squared_error = 0.0\nsamples = 1\nvalue = 2680.949", fillcolor="#fefcfa"] ;
261 -> 262 ;
263 [label="bmi <= 0.195\nsquared_error = 7220.179\nsamples = 8\nvalue = 2456.962", fillcolor="#fefcfb"] ;
261 -> 263 ;
264 [label="squared_error = 0.0\nsamples = 1\nvalue = 2302.3", fillcolor="#fffdfb"] ;
263 -> 264 ;
265 [label="bmi <= 0.603\nsquared_error = 4346.274\nsamples = 7\nvalue = 2479.057", fillcolor="#fefcfb"] ;
263 -> 265 ;
266 [label="region <= 0.5\nsquared_error = 169.149\nsamples = 5\nvalue = 2499.276", fillcolor="#fefcfb"] ;
265 -> 266 ;
267 [label="squared_error = 0.0\nsamples = 1\nvalue = 2523.17", fillcolor="#fefcfa"] ;
266 -> 267 ;
268 [label="bmi <= 0.352\nsquared_error = 33.031\nsamples = 4\nvalue = 2493.303", fillcolor="#fefcfb"] ;
266 -> 268 ;
269 [label="squared_error = 0.0\nsamples = 1\nvalue = 2483.736", fillcolor="#fefcfb"] ;
268 -> 269 ;
270 [label="bmi <= 0.507\nsquared_error = 3.365\nsamples = 3\nvalue = 2496.492", fillcolor="#fefcfb"] ;
268 -> 270 ;
271 [label="squared_error = 0.0\nsamples = 1\nvalue = 2494.022", fillcolor="#fefcfb"] ;
270 -> 271 ;
272 [label="bmi <= 0.559\nsquared_error = 0.473\nsamples = 2\nvalue = 2497.726", fillcolor="#fefcfb"] ;
270 -> 272 ;
273 [label="squared_error = 0.0\nsamples = 1\nvalue = 2497.038", fillcolor="#fefcfb"] ;
272 -> 273 ;
274 [label="squared_error = 0.0\nsamples = 1\nvalue = 2498.414", fillcolor="#fefcfb"] ;
272 -> 274 ;
275 [label="age <= 0.163\nsquared_error = 11211.84\nsamples = 2\nvalue = 2428.508", fillcolor="#fefcfb"] ;
265 -> 275 ;
276 [label="squared_error = 0.0\nsamples = 1\nvalue = 2534.394", fillcolor="#fefcfa"] ;
275 -> 276 ;
277 [label="squared_error = -0.0\nsamples = 1\nvalue = 2322.622", fillcolor="#fefdfb"] ;
275 -> 277 ;
278 [label="bmi <= 0.573\nsquared_error = 9416990.401\nsamples = 27\nvalue = 4195.099", fillcolor="#fef9f5"] ;
236 -> 278 ;
279 [label="age <= 0.272\nsquared_error = 206980.644\nsamples = 20\nvalue = 3636.419", fillcolor="#fefaf7"] ;
278 -> 279 ;
280 [label="sex <= 0.5\nsquared_error = 130314.999\nsamples = 10\nvalue = 3345.952", fillcolor="#fefaf8"] ;
279 -> 280 ;
281 [label="region <= 0.5\nsquared_error = 77549.461\nsamples = 7\nvalue = 3523.401", fillcolor="#fefaf7"] ;
280 -> 281 ;
282 [label="bmi <= 0.41\nsquared_error = 9714.037\nsamples = 3\nvalue = 3804.228", fillcolor="#fefaf6"] ;
281 -> 282 ;
283 [label="age <= 0.228\nsquared_error = 3.686\nsamples = 2\nvalue = 3734.545", fillcolor="#fefaf7"] ;
282 -> 283 ;
284 [label="squared_error = 0.0\nsamples = 1\nvalue = 3732.625", fillcolor="#fefaf7"] ;
283 -> 284 ;
285 [label="squared_error = 0.0\nsamples = 1\nvalue = 3736.465", fillcolor="#fefaf7"] ;
283 -> 285 ;
286 [label="squared_error = -0.0\nsamples = 1\nvalue = 3943.595", fillcolor="#fef9f6"] ;
282 -> 286 ;
287 [label="bmi <= 0.469\nsquared_error = 24916.791\nsamples = 4\nvalue = 3312.78", fillcolor="#fefbf8"] ;
281 -> 287 ;
288 [label="age <= 0.25\nsquared_error = 10092.111\nsamples = 2\nvalue = 3453.744", fillcolor="#fefaf7"] ;
287 -> 288 ;
289 [label="squared_error = 0.0\nsamples = 1\nvalue = 3353.284", fillcolor="#fefaf8"] ;
288 -> 289 ;
290 [label="squared_error = 0.0\nsamples = 1\nvalue = 3554.203", fillcolor="#fefaf7"] ;
288 -> 290 ;
291 [label="bmi <= 0.562\nsquared_error = 0.041\nsamples = 2\nvalue = 3171.816", fillcolor="#fefbf8"] ;
287 -> 291 ;
292 [label="squared_error = 0.0\nsamples = 1\nvalue = 3171.615", fillcolor="#fefbf8"] ;
291 -> 292 ;
293 [label="squared_error = -0.0\nsamples = 1\nvalue = 3172.018", fillcolor="#fefbf8"] ;
291 -> 293 ;
294 [label="bmi <= 0.437\nsquared_error = 8528.613\nsamples = 3\nvalue = 2931.906", fillcolor="#fefbf9"] ;
280 -> 294 ;
295 [label="bmi <= 0.377\nsquared_error = 0.265\nsamples = 2\nvalue = 2866.605", fillcolor="#fefbf9"] ;
294 -> 295 ;
296 [label="squared_error = 0.0\nsamples = 1\nvalue = 2866.091", fillcolor="#fefbf9"] ;
295 -> 296 ;
297 [label="squared_error = -0.0\nsamples = 1\nvalue = 2867.12", fillcolor="#fefbf9"] ;
295 -> 297 ;
298 [label="squared_error = 0.0\nsamples = 1\nvalue = 3062.508", fillcolor="#fefbf9"] ;
294 -> 298 ;
299 [label="region <= 0.5\nsquared_error = 114904.51\nsamples = 10\nvalue = 3926.886", fillcolor="#fef9f6"] ;
279 -> 299 ;
300 [label="sex <= 0.5\nsquared_error = 72819.45\nsamples = 5\nvalue = 4151.995", fillcolor="#fef9f5"] ;
299 -> 300 ;
301 [label="age <= 0.293\nsquared_error = 28108.575\nsamples = 3\nvalue = 4345.12", fillcolor="#fef8f5"] ;
300 -> 301 ;
302 [label="squared_error = 0.0\nsamples = 1\nvalue = 4134.082", fillcolor="#fef9f5"] ;
301 -> 302 ;
303 [label="region <= 0.167\nsquared_error = 8760.132\nsamples = 2\nvalue = 4450.639", fillcolor="#fef8f4"] ;
301 -> 303 ;
304 [label="squared_error = 0.0\nsamples = 1\nvalue = 4544.235", fillcolor="#fef8f4"] ;
303 -> 304 ;
305 [label="squared_error = 0.0\nsamples = 1\nvalue = 4357.044", fillcolor="#fef8f5"] ;
303 -> 305 ;
306 [label="bmi <= 0.452\nsquared_error = 20.684\nsamples = 2\nvalue = 3862.307", fillcolor="#fef9f6"] ;
300 -> 306 ;
307 [label="squared_error = 0.0\nsamples = 1\nvalue = 3866.855", fillcolor="#fef9f6"] ;
306 -> 307 ;
308 [label="squared_error = 0.0\nsamples = 1\nvalue = 3857.759", fillcolor="#fef9f6"] ;
306 -> 308 ;
309 [label="sex <= 0.5\nsquared_error = 55641.154\nsamples = 5\nvalue = 3701.776", fillcolor="#fefaf7"] ;
299 -> 309 ;
310 [label="age <= 0.293\nsquared_error = 8616.874\nsamples = 4\nvalue = 3812.171", fillcolor="#fef9f6"] ;
309 -> 310 ;
311 [label="bmi <= 0.386\nsquared_error = 3.91\nsamples = 3\nvalue = 3758.586", fillcolor="#fefaf7"] ;
310 -> 311 ;
312 [label="bmi <= 0.332\nsquared_error = 0.374\nsamples = 2\nvalue = 3757.233", fillcolor="#fefaf7"] ;
311 -> 312 ;
313 [label="squared_error = 0.0\nsamples = 1\nvalue = 3756.622", fillcolor="#fefaf7"] ;
312 -> 313 ;
314 [label="squared_error = 0.0\nsamples = 1\nvalue = 3757.845", fillcolor="#fefaf7"] ;
312 -> 314 ;
315 [label="squared_error = 0.0\nsamples = 1\nvalue = 3761.292", fillcolor="#fefaf6"] ;
311 -> 315 ;
316 [label="squared_error = 0.0\nsamples = 1\nvalue = 3972.925", fillcolor="#fef9f6"] ;
310 -> 316 ;
317 [label="squared_error = -0.0\nsamples = 1\nvalue = 3260.199", fillcolor="#fefbf8"] ;
309 -> 317 ;
318 [label="bmi <= 0.595\nsquared_error = 32291579.602\nsamples = 7\nvalue = 5791.327", fillcolor="#fdf5f0"] ;
278 -> 318 ;
319 [label="squared_error = 0.0\nsamples = 1\nvalue = 19673.336", fillcolor="#f7d9c3"] ;
318 -> 319 ;
320 [label="age <= 0.272\nsquared_error = 202087.971\nsamples = 6\nvalue = 3477.659", fillcolor="#fefaf7"] ;
318 -> 320 ;
321 [label="bmi <= 0.677\nsquared_error = 104712.207\nsamples = 4\nvalue = 3220.484", fillcolor="#fefbf8"] ;
320 -> 321 ;
322 [label="bmi <= 0.622\nsquared_error = 14305.887\nsamples = 3\nvalue = 3397.48", fillcolor="#fefaf8"] ;
321 -> 322 ;
323 [label="squared_error = 0.0\nsamples = 1\nvalue = 3556.922", fillcolor="#fefaf7"] ;
322 -> 323 ;
324 [label="region <= 0.333\nsquared_error = 2392.337\nsamples = 2\nvalue = 3317.758", fillcolor="#fefaf8"] ;
322 -> 324 ;
325 [label="squared_error = 0.0\nsamples = 1\nvalue = 3268.847", fillcolor="#fefbf8"] ;
324 -> 325 ;
326 [label="squared_error = 0.0\nsamples = 1\nvalue = 3366.67", fillcolor="#fefaf8"] ;
324 -> 326 ;
327 [label="squared_error = 0.0\nsamples = 1\nvalue = 2689.495", fillcolor="#fefcfa"] ;
321 -> 327 ;
328 [label="bmi <= 0.867\nsquared_error = 4.702\nsamples = 2\nvalue = 3992.009", fillcolor="#fef9f6"] ;
320 -> 328 ;
329 [label="squared_error = 0.0\nsamples = 1\nvalue = 3989.841", fillcolor="#fef9f6"] ;
328 -> 329 ;
330 [label="squared_error = 0.0\nsamples = 1\nvalue = 3994.178", fillcolor="#fef9f6"] ;
328 -> 330 ;
331 [label="bmi <= 0.233\nsquared_error = 16794248.378\nsamples = 40\nvalue = 6433.193", fillcolor="#fdf4ee"] ;
191 -> 331 ;
332 [label="age <= 0.337\nsquared_error = 76423712.353\nsamples = 2\nvalue = 13242.405", fillcolor="#fae6d8"] ;
331 -> 332 ;
333 [label="squared_error = 0.0\nsamples = 1\nvalue = 21984.471", fillcolor="#f6d4bc"] ;
332 -> 333 ;
334 [label="squared_error = -0.0\nsamples = 1\nvalue = 4500.339", fillcolor="#fef8f4"] ;
332 -> 334 ;
335 [label="age <= 0.402\nsquared_error = 11087137.515\nsamples = 38\nvalue = 6074.814", fillcolor="#fdf5ef"] ;
331 -> 335 ;
336 [label="sex <= 0.5\nsquared_error = 265395.887\nsamples = 16\nvalue = 4677.0", fillcolor="#fdf8f4"] ;
335 -> 336 ;
337 [label="age <= 0.359\nsquared_error = 167190.346\nsamples = 10\nvalue = 4955.127", fillcolor="#fdf7f3"] ;
336 -> 337 ;
338 [label="region <= 0.167\nsquared_error = 86791.98\nsamples = 4\nvalue = 4541.012", fillcolor="#fef8f4"] ;
337 -> 338 ;
339 [label="squared_error = 0.0\nsamples = 1\nvalue = 4992.376", fillcolor="#fdf7f3"] ;
338 -> 339 ;
340 [label="bmi <= 0.31\nsquared_error = 25175.867\nsamples = 3\nvalue = 4390.557", fillcolor="#fef8f4"] ;
338 -> 340 ;
341 [label="squared_error = 0.0\nsamples = 1\nvalue = 4185.098", fillcolor="#fef9f5"] ;
340 -> 341 ;
342 [label="age <= 0.337\nsquared_error = 6103.848\nsamples = 2\nvalue = 4493.286", fillcolor="#fef8f4"] ;
340 -> 342 ;
343 [label="squared_error = 0.0\nsamples = 1\nvalue = 4571.413", fillcolor="#fef8f4"] ;
342 -> 343 ;
344 [label="squared_error = 0.0\nsamples = 1\nvalue = 4415.159", fillcolor="#fef8f4"] ;
342 -> 344 ;
345 [label="region <= 0.667\nsquared_error = 30243.287\nsamples = 6\nvalue = 5231.203", fillcolor="#fdf7f2"] ;
337 -> 345 ;
346 [label="bmi <= 0.369\nsquared_error = 7337.546\nsamples = 5\nvalue = 5300.671", fillcolor="#fdf6f2"] ;
345 -> 346 ;
347 [label="age <= 0.38\nsquared_error = 340.142\nsamples = 3\nvalue = 5254.058", fillcolor="#fdf7f2"] ;
346 -> 347 ;
348 [label="squared_error = 0.0\nsamples = 1\nvalue = 5227.989", fillcolor="#fdf7f2"] ;
347 -> 348 ;
349 [label="bmi <= 0.338\nsquared_error = 0.527\nsamples = 2\nvalue = 5267.092", fillcolor="#fdf7f2"] ;
347 -> 349 ;
350 [label="squared_error = 0.0\nsamples = 1\nvalue = 5266.366", fillcolor="#fdf7f2"] ;
349 -> 350 ;
351 [label="squared_error = 0.0\nsamples = 1\nvalue = 5267.818", fillcolor="#fdf7f2"] ;
349 -> 351 ;
352 [label="region <= 0.167\nsquared_error = 9685.591\nsamples = 2\nvalue = 5370.591", fillcolor="#fdf6f1"] ;
346 -> 352 ;
353 [label="squared_error = 0.0\nsamples = 1\nvalue = 5469.007", fillcolor="#fdf6f1"] ;
352 -> 353 ;
354 [label="squared_error = 0.0\nsamples = 1\nvalue = 5272.176", fillcolor="#fdf6f2"] ;
352 -> 354 ;
355 [label="squared_error = 0.0\nsamples = 1\nvalue = 4883.866", fillcolor="#fdf7f3"] ;
345 -> 355 ;
356 [label="age <= 0.337\nsquared_error = 85274.564\nsamples = 6\nvalue = 4213.456", fillcolor="#fef9f5"] ;
336 -> 356 ;
357 [label="squared_error = 0.0\nsamples = 1\nvalue = 3704.354", fillcolor="#fefaf7"] ;
356 -> 357 ;
358 [label="region <= 0.167\nsquared_error = 40125.257\nsamples = 5\nvalue = 4315.276", fillcolor="#fef8f5"] ;
356 -> 358 ;
359 [label="squared_error = 0.0\nsamples = 1\nvalue = 4518.826", fillcolor="#fef8f4"] ;
358 -> 359 ;
360 [label="bmi <= 0.549\nsquared_error = 37208.876\nsamples = 4\nvalue = 4264.389", fillcolor="#fef9f5"] ;
358 -> 360 ;
361 [label="region <= 0.833\nsquared_error = 1.565\nsamples = 2\nvalue = 4400.982", fillcolor="#fef8f4"] ;
360 -> 361 ;
362 [label="squared_error = 0.0\nsamples = 1\nvalue = 4399.731", fillcolor="#fef8f4"] ;
361 -> 362 ;
363 [label="squared_error = 0.0\nsamples = 1\nvalue = 4402.233", fillcolor="#fef8f4"] ;
361 -> 363 ;
364 [label="region <= 0.5\nsquared_error = 37100.721\nsamples = 2\nvalue = 4127.795", fillcolor="#fef9f5"] ;
360 -> 364 ;
365 [label="squared_error = 0.0\nsamples = 1\nvalue = 4320.411", fillcolor="#fef8f5"] ;
364 -> 365 ;
366 [label="squared_error = 0.0\nsamples = 1\nvalue = 3935.18", fillcolor="#fef9f6"] ;
364 -> 366 ;
367 [label="age <= 0.424\nsquared_error = 16503029.972\nsamples = 22\nvalue = 7091.406", fillcolor="#fcf3ec"] ;
335 -> 367 ;
368 [label="region <= 0.5\nsquared_error = 56301571.311\nsamples = 4\nvalue = 12327.554", fillcolor="#fae8db"] ;
367 -> 368 ;
369 [label="squared_error = 0.0\nsamples = 1\nvalue = 5028.147", fillcolor="#fdf7f2"] ;
368 -> 369 ;
370 [label="bmi <= 0.466\nsquared_error = 51388162.82\nsamples = 3\nvalue = 14760.69", fillcolor="#f9e3d3"] ;
368 -> 370 ;
371 [label="squared_error = 0.0\nsamples = 1\nvalue = 20420.605", fillcolor="#f7d7c1"] ;
370 -> 371 ;
372 [label="region <= 0.833\nsquared_error = 53056266.525\nsamples = 2\nvalue = 11930.732", fillcolor="#fae9dc"] ;
370 -> 372 ;
373 [label="squared_error = 0.0\nsamples = 1\nvalue = 19214.706", fillcolor="#f7dac5"] ;
372 -> 373 ;
374 [label="squared_error = 0.0\nsamples = 1\nvalue = 4646.759", fillcolor="#fef8f4"] ;
372 -> 374 ;
375 [label="region <= 0.5\nsquared_error = 212249.885\nsamples = 18\nvalue = 5927.817", fillcolor="#fdf5f0"] ;
367 -> 375 ;
376 [label="region <= 0.167\nsquared_error = 83589.632\nsamples = 3\nvalue = 6659.941", fillcolor="#fdf4ed"] ;
375 -> 376 ;
377 [label="squared_error = 0.0\nsamples = 1\nvalue = 7050.021", fillcolor="#fcf3ec"] ;
376 -> 377 ;
378 [label="age <= 0.511\nsquared_error = 11262.293\nsamples = 2\nvalue = 6464.9", fillcolor="#fdf4ee"] ;
376 -> 378 ;
379 [label="squared_error = 0.0\nsamples = 1\nvalue = 6571.024", fillcolor="#fdf4ed"] ;
378 -> 379 ;
380 [label="squared_error = -0.0\nsamples = 1\nvalue = 6358.776", fillcolor="#fdf4ee"] ;
378 -> 380 ;
381 [label="age <= 0.489\nsquared_error = 109340.821\nsamples = 15\nvalue = 5781.393", fillcolor="#fdf5f0"] ;
375 -> 381 ;
382 [label="age <= 0.446\nsquared_error = 47663.368\nsamples = 8\nvalue = 5566.227", fillcolor="#fdf6f1"] ;
381 -> 382 ;
383 [label="region <= 0.833\nsquared_error = 57.099\nsamples = 3\nvalue = 5394.044", fillcolor="#fdf6f1"] ;
382 -> 383 ;
384 [label="bmi <= 0.746\nsquared_error = 2.829\nsamples = 2\nvalue = 5399.299", fillcolor="#fdf6f1"] ;
383 -> 384 ;
385 [label="squared_error = 0.0\nsamples = 1\nvalue = 5397.617", fillcolor="#fdf6f1"] ;
384 -> 385 ;
386 [label="squared_error = -0.0\nsamples = 1\nvalue = 5400.98", fillcolor="#fdf6f1"] ;
384 -> 386 ;
387 [label="squared_error = -0.0\nsamples = 1\nvalue = 5383.536", fillcolor="#fdf6f1"] ;
383 -> 387 ;
388 [label="sex <= 0.5\nsquared_error = 47766.131\nsamples = 5\nvalue = 5669.537", fillcolor="#fdf6f0"] ;
382 -> 388 ;
389 [label="age <= 0.467\nsquared_error = 14271.853\nsamples = 3\nvalue = 5831.091", fillcolor="#fdf5f0"] ;
388 -> 389 ;
390 [label="squared_error = 0.0\nsamples = 1\nvalue = 5662.225", fillcolor="#fdf6f0"] ;
389 -> 390 ;
391 [label="bmi <= 0.55\nsquared_error = 20.977\nsamples = 2\nvalue = 5915.524", fillcolor="#fdf5f0"] ;
389 -> 391 ;
392 [label="squared_error = 0.0\nsamples = 1\nvalue = 5910.944", fillcolor="#fdf5f0"] ;
391 -> 392 ;
393 [label="squared_error = 0.0\nsamples = 1\nvalue = 5920.104", fillcolor="#fdf5f0"] ;
391 -> 393 ;
394 [label="bmi <= 0.566\nsquared_error = 133.263\nsamples = 2\nvalue = 5427.205", fillcolor="#fdf6f1"] ;
388 -> 394 ;
395 [label="squared_error = 0.0\nsamples = 1\nvalue = 5415.661", fillcolor="#fdf6f1"] ;
394 -> 395 ;
396 [label="squared_error = 0.0\nsamples = 1\nvalue = 5438.749", fillcolor="#fdf6f1"] ;
394 -> 396 ;
397 [label="sex <= 0.5\nsquared_error = 66450.834\nsamples = 7\nvalue = 6027.296", fillcolor="#fdf5ef"] ;
381 -> 397 ;
398 [label="bmi <= 0.61\nsquared_error = 18469.132\nsamples = 3\nvalue = 6281.82", fillcolor="#fdf4ee"] ;
397 -> 398 ;
399 [label="bmi <= 0.499\nsquared_error = 0.162\nsamples = 2\nvalue = 6185.724", fillcolor="#fdf5ef"] ;
398 -> 399 ;
400 [label="squared_error = 0.0\nsamples = 1\nvalue = 6185.321", fillcolor="#fdf5ef"] ;
399 -> 400 ;
401 [label="squared_error = -0.0\nsamples = 1\nvalue = 6186.127", fillcolor="#fdf5ef"] ;
399 -> 401 ;
402 [label="squared_error = 0.0\nsamples = 1\nvalue = 6474.013", fillcolor="#fdf4ee"] ;
398 -> 402 ;
403 [label="bmi <= 0.463\nsquared_error = 17410.05\nsamples = 4\nvalue = 5836.403", fillcolor="#fdf5f0"] ;
397 -> 403 ;
404 [label="region <= 0.833\nsquared_error = 2.01\nsamples = 2\nvalue = 5968.305", fillcolor="#fdf5ef"] ;
403 -> 404 ;
405 [label="squared_error = 0.0\nsamples = 1\nvalue = 5966.887", fillcolor="#fdf5ef"] ;
404 -> 405 ;
406 [label="squared_error = 0.0\nsamples = 1\nvalue = 5969.723", fillcolor="#fdf5ef"] ;
404 -> 406 ;
407 [label="bmi <= 0.68\nsquared_error = 21.748\nsamples = 2\nvalue = 5704.501", fillcolor="#fdf6f0"] ;
403 -> 407 ;
408 [label="squared_error = 0.0\nsamples = 1\nvalue = 5699.838", fillcolor="#fdf6f0"] ;
407 -> 408 ;
409 [label="squared_error = 0.0\nsamples = 1\nvalue = 5709.164", fillcolor="#fdf6f0"] ;
407 -> 409 ;
410 [label="region <= 0.5\nsquared_error = 24013089.363\nsamples = 280\nvalue = 6660.674", fillcolor="#fdf4ed"] ;
2 -> 410 ;
411 [label="bmi <= 0.825\nsquared_error = 30593764.9\nsamples = 147\nvalue = 7543.388", fillcolor="#fcf2ea"] ;
410 -> 411 ;
412 [label="children <= 0.3\nsquared_error = 27965448.372\nsamples = 145\nvalue = 7407.174", fillcolor="#fcf2eb"] ;
411 -> 412 ;
413 [label="region <= 0.167\nsquared_error = 13333881.559\nsamples = 58\nvalue = 5957.732", fillcolor="#fdf5ef"] ;
412 -> 413 ;
414 [label="age <= 0.228\nsquared_error = 23750581.305\nsamples = 23\nvalue = 7444.053", fillcolor="#fcf2eb"] ;
413 -> 414 ;
415 [label="bmi <= 0.296\nsquared_error = 62191444.799\nsamples = 6\nvalue = 10767.138", fillcolor="#fbebe0"] ;
414 -> 415 ;
416 [label="squared_error = 0.0\nsamples = 1\nvalue = 23288.928", fillcolor="#f6d2b8"] ;
415 -> 416 ;
417 [label="age <= 0.185\nsquared_error = 36998877.502\nsamples = 5\nvalue = 8262.78", fillcolor="#fcf0e8"] ;
415 -> 417 ;
418 [label="age <= 0.076\nsquared_error = 13776759.167\nsamples = 3\nvalue = 6024.224", fillcolor="#fdf5ef"] ;
417 -> 418 ;
419 [label="squared_error = 0.0\nsamples = 1\nvalue = 11272.331", fillcolor="#fbeade"] ;
418 -> 419 ;
420 [label="bmi <= 0.429\nsquared_error = 8168.228\nsamples = 2\nvalue = 3400.171", fillcolor="#fefaf8"] ;
418 -> 420 ;
421 [label="squared_error = 0.0\nsamples = 1\nvalue = 3309.793", fillcolor="#fefbf8"] ;
420 -> 421 ;
422 [label="squared_error = -0.0\nsamples = 1\nvalue = 3490.549", fillcolor="#fefaf7"] ;
420 -> 422 ;
423 [label="bmi <= 0.477\nsquared_error = 53040313.492\nsamples = 2\nvalue = 11620.613", fillcolor="#fbe9dd"] ;
417 -> 423 ;
424 [label="squared_error = 0.0\nsamples = 1\nvalue = 4337.735", fillcolor="#fef8f5"] ;
423 -> 424 ;
425 [label="squared_error = 0.0\nsamples = 1\nvalue = 18903.491", fillcolor="#f7dbc6"] ;
423 -> 425 ;
426 [label="bmi <= 0.191\nsquared_error = 4910141.727\nsamples = 17\nvalue = 6271.2", fillcolor="#fdf4ee"] ;
414 -> 426 ;
427 [label="squared_error = 0.0\nsamples = 1\nvalue = 13725.472", fillcolor="#fae5d6"] ;
426 -> 427 ;
428 [label="age <= 0.38\nsquared_error = 1527084.772\nsamples = 16\nvalue = 5805.308", fillcolor="#fdf5f0"] ;
426 -> 428 ;
429 [label="sex <= 0.5\nsquared_error = 167191.892\nsamples = 8\nvalue = 4665.858", fillcolor="#fef8f4"] ;
428 -> 429 ;
430 [label="age <= 0.283\nsquared_error = 76155.836\nsamples = 4\nvalue = 4985.089", fillcolor="#fdf7f3"] ;
429 -> 430 ;
431 [label="bmi <= 0.21\nsquared_error = 0.436\nsamples = 2\nvalue = 4718.864", fillcolor="#fdf8f3"] ;
430 -> 431 ;
432 [label="squared_error = 0.0\nsamples = 1\nvalue = 4718.204", fillcolor="#fdf8f3"] ;
431 -> 432 ;
433 [label="squared_error = 0.0\nsamples = 1\nvalue = 4719.524", fillcolor="#fdf8f3"] ;
431 -> 433 ;
434 [label="bmi <= 0.353\nsquared_error = 10559.828\nsamples = 2\nvalue = 5251.314", fillcolor="#fdf7f2"] ;
430 -> 434 ;
435 [label="squared_error = 0.0\nsamples = 1\nvalue = 5354.075", fillcolor="#fdf6f1"] ;
434 -> 435 ;
436 [label="squared_error = -0.0\nsamples = 1\nvalue = 5148.553", fillcolor="#fdf7f2"] ;
434 -> 436 ;
437 [label="age <= 0.272\nsquared_error = 54410.886\nsamples = 4\nvalue = 4346.626", fillcolor="#fef8f5"] ;
429 -> 437 ;
438 [label="bmi <= 0.401\nsquared_error = 9659.774\nsamples = 2\nvalue = 4138.842", fillcolor="#fef9f5"] ;
437 -> 438 ;
439 [label="squared_error = 0.0\nsamples = 1\nvalue = 4237.127", fillcolor="#fef9f5"] ;
438 -> 439 ;
440 [label="squared_error = 0.0\nsamples = 1\nvalue = 4040.558", fillcolor="#fef9f6"] ;
438 -> 440 ;
441 [label="bmi <= 0.525\nsquared_error = 12813.617\nsamples = 2\nvalue = 4554.41", fillcolor="#fef8f4"] ;
437 -> 441 ;
442 [label="squared_error = 0.0\nsamples = 1\nvalue = 4441.213", fillcolor="#fef8f4"] ;
441 -> 442 ;
443 [label="squared_error = 0.0\nsamples = 1\nvalue = 4667.608", fillcolor="#fef8f4"] ;
441 -> 443 ;
444 [label="age <= 0.489\nsquared_error = 290282.612\nsamples = 8\nvalue = 6944.759", fillcolor="#fdf3ec"] ;
428 -> 444 ;
445 [label="bmi <= 0.338\nsquared_error = 102430.761\nsamples = 5\nvalue = 6581.94", fillcolor="#fdf4ed"] ;
444 -> 445 ;
446 [label="squared_error = 0.0\nsamples = 1\nvalue = 7077.189", fillcolor="#fcf3ec"] ;
445 -> 446 ;
447 [label="age <= 0.457\nsquared_error = 51391.094\nsamples = 4\nvalue = 6458.128", fillcolor="#fdf4ee"] ;
445 -> 447 ;
448 [label="sex <= 0.5\nsquared_error = 59522.239\nsamples = 2\nvalue = 6311.099", fillcolor="#fdf4ee"] ;
447 -> 448 ;
449 [label="squared_error = 0.0\nsamples = 1\nvalue = 6555.07", fillcolor="#fdf4ed"] ;
448 -> 449 ;
450 [label="squared_error = -0.0\nsamples = 1\nvalue = 6067.127", fillcolor="#fdf5ef"] ;
448 -> 450 ;
451 [label="bmi <= 0.705\nsquared_error = 24.521\nsamples = 2\nvalue = 6605.158", fillcolor="#fdf4ed"] ;
447 -> 451 ;
452 [label="squared_error = 0.0\nsamples = 1\nvalue = 6600.206", fillcolor="#fdf4ed"] ;
451 -> 452 ;
453 [label="squared_error = -0.0\nsamples = 1\nvalue = 6610.11", fillcolor="#fdf4ed"] ;
451 -> 453 ;
454 [label="age <= 0.511\nsquared_error = 18315.507\nsamples = 3\nvalue = 7549.456", fillcolor="#fcf2ea"] ;
444 -> 454 ;
455 [label="squared_error = 0.0\nsamples = 1\nvalue = 7358.176", fillcolor="#fcf2eb"] ;
454 -> 455 ;
456 [label="bmi <= 0.691\nsquared_error = 32.241\nsamples = 2\nvalue = 7645.096", fillcolor="#fcf2ea"] ;
454 -> 456 ;
457 [label="squared_error = 0.0\nsamples = 1\nvalue = 7639.417", fillcolor="#fcf2ea"] ;
456 -> 457 ;
458 [label="squared_error = -0.0\nsamples = 1\nvalue = 7650.774", fillcolor="#fcf2ea"] ;
456 -> 458 ;
459 [label="age <= 0.12\nsquared_error = 4082899.916\nsamples = 35\nvalue = 4981.006", fillcolor="#fdf7f3"] ;
413 -> 459 ;
460 [label="age <= 0.098\nsquared_error = 34088.312\nsamples = 9\nvalue = 2619.869", fillcolor="#fefcfa"] ;
459 -> 460 ;
461 [label="sex <= 0.5\nsquared_error = 34142.941\nsamples = 7\nvalue = 2573.51", fillcolor="#fefcfa"] ;
460 -> 461 ;
462 [label="bmi <= 0.525\nsquared_error = 97.35\nsamples = 3\nvalue = 2716.155", fillcolor="#fefcfa"] ;
461 -> 462 ;
463 [label="bmi <= 0.279\nsquared_error = 0.004\nsamples = 2\nvalue = 2709.178", fillcolor="#fefcfa"] ;
462 -> 463 ;
464 [label="squared_error = 0.0\nsamples = 1\nvalue = 2709.112", fillcolor="#fefcfa"] ;
463 -> 464 ;
465 [label="squared_error = 0.0\nsamples = 1\nvalue = 2709.244", fillcolor="#fefcfa"] ;
463 -> 465 ;
466 [label="squared_error = -0.0\nsamples = 1\nvalue = 2730.108", fillcolor="#fefcfa"] ;
462 -> 466 ;
467 [label="age <= 0.065\nsquared_error = 32971.002\nsamples = 4\nvalue = 2466.526", fillcolor="#fefcfb"] ;
461 -> 467 ;
468 [label="age <= 0.033\nsquared_error = 4946.632\nsamples = 2\nvalue = 2291.897", fillcolor="#fffdfb"] ;
467 -> 468 ;
469 [label="squared_error = 0.0\nsamples = 1\nvalue = 2221.564", fillcolor="#fffdfb"] ;
468 -> 469 ;
470 [label="squared_error = 0.0\nsamples = 1\nvalue = 2362.229", fillcolor="#fefcfb"] ;
468 -> 470 ;
471 [label="bmi <= 0.45\nsquared_error = 4.464\nsamples = 2\nvalue = 2641.156", fillcolor="#fefcfa"] ;
467 -> 471 ;
472 [label="squared_error = 0.0\nsamples = 1\nvalue = 2639.043", fillcolor="#fefcfa"] ;
471 -> 472 ;
473 [label="squared_error = -0.0\nsamples = 1\nvalue = 2643.268", fillcolor="#fefcfa"] ;
471 -> 473 ;
474 [label="bmi <= 0.208\nsquared_error = 48.061\nsamples = 2\nvalue = 2782.125", fillcolor="#fefcfa"] ;
460 -> 474 ;
475 [label="squared_error = 0.0\nsamples = 1\nvalue = 2775.192", fillcolor="#fefcfa"] ;
474 -> 475 ;
476 [label="squared_error = -0.0\nsamples = 1\nvalue = 2789.057", fillcolor="#fefcfa"] ;
474 -> 476 ;
477 [label="age <= 0.152\nsquared_error = 2886607.857\nsamples = 26\nvalue = 5798.323", fillcolor="#fdf5f0"] ;
459 -> 477 ;
478 [label="squared_error = 0.0\nsamples = 1\nvalue = 12609.887", fillcolor="#fae7da"] ;
477 -> 478 ;
479 [label="age <= 0.402\nsquared_error = 1071940.003\nsamples = 25\nvalue = 5525.86", fillcolor="#fdf6f1"] ;
477 -> 479 ;
480 [label="age <= 0.326\nsquared_error = 391961.495\nsamples = 14\nvalue = 4755.561", fillcolor="#fdf8f3"] ;
479 -> 480 ;
481 [label="age <= 0.228\nsquared_error = 200663.261\nsamples = 7\nvalue = 4239.252", fillcolor="#fef9f5"] ;
480 -> 481 ;
482 [label="bmi <= 0.54\nsquared_error = 110071.864\nsamples = 2\nvalue = 3624.301", fillcolor="#fefaf7"] ;
481 -> 482 ;
483 [label="squared_error = 0.0\nsamples = 1\nvalue = 3956.071", fillcolor="#fef9f6"] ;
482 -> 483 ;
484 [label="squared_error = -0.0\nsamples = 1\nvalue = 3292.53", fillcolor="#fefbf8"] ;
482 -> 484 ;
485 [label="sex <= 0.5\nsquared_error = 25127.038\nsamples = 5\nvalue = 4485.233", fillcolor="#fef8f4"] ;
481 -> 485 ;
486 [label="bmi <= 0.474\nsquared_error = 11139.246\nsamples = 2\nvalue = 4632.726", fillcolor="#fef8f4"] ;
485 -> 486 ;
487 [label="squared_error = 0.0\nsamples = 1\nvalue = 4527.183", fillcolor="#fef8f4"] ;
486 -> 487 ;
488 [label="squared_error = -0.0\nsamples = 1\nvalue = 4738.268", fillcolor="#fdf8f3"] ;
486 -> 488 ;
489 [label="age <= 0.293\nsquared_error = 10281.098\nsamples = 3\nvalue = 4386.905", fillcolor="#fef8f4"] ;
485 -> 489 ;
490 [label="squared_error = 0.0\nsamples = 1\nvalue = 4243.59", fillcolor="#fef9f5"] ;
489 -> 490 ;
491 [label="bmi <= 0.483\nsquared_error = 17.302\nsamples = 2\nvalue = 4458.562", fillcolor="#fef8f4"] ;
489 -> 491 ;
492 [label="squared_error = 0.0\nsamples = 1\nvalue = 4454.403", fillcolor="#fef8f4"] ;
491 -> 492 ;
493 [label="squared_error = 0.0\nsamples = 1\nvalue = 4462.722", fillcolor="#fef8f4"] ;
491 -> 493 ;
494 [label="bmi <= 0.321\nsquared_error = 50110.611\nsamples = 7\nvalue = 5271.87", fillcolor="#fdf6f2"] ;
480 -> 494 ;
495 [label="bmi <= 0.284\nsquared_error = 11373.406\nsamples = 3\nvalue = 5045.49", fillcolor="#fdf7f2"] ;
494 -> 495 ;
496 [label="bmi <= 0.164\nsquared_error = 18.989\nsamples = 2\nvalue = 5120.858", fillcolor="#fdf7f2"] ;
495 -> 496 ;
497 [label="squared_error = 0.0\nsamples = 1\nvalue = 5116.5", fillcolor="#fdf7f2"] ;
496 -> 497 ;
498 [label="squared_error = 0.0\nsamples = 1\nvalue = 5125.216", fillcolor="#fdf7f2"] ;
496 -> 498 ;
499 [label="squared_error = 0.0\nsamples = 1\nvalue = 4894.753", fillcolor="#fdf7f3"] ;
495 -> 499 ;
500 [label="bmi <= 0.612\nsquared_error = 11900.76\nsamples = 4\nvalue = 5441.654", fillcolor="#fdf6f1"] ;
494 -> 500 ;
501 [label="sex <= 0.5\nsquared_error = 24.691\nsamples = 3\nvalue = 5378.72", fillcolor="#fdf6f1"] ;
500 -> 501 ;
502 [label="squared_error = 0.0\nsamples = 1\nvalue = 5385.338", fillcolor="#fdf6f1"] ;
501 -> 502 ;
503 [label="bmi <= 0.532\nsquared_error = 4.189\nsamples = 2\nvalue = 5375.411", fillcolor="#fdf6f1"] ;
501 -> 503 ;
504 [label="squared_error = 0.0\nsamples = 1\nvalue = 5373.364", fillcolor="#fdf6f1"] ;
503 -> 504 ;
505 [label="squared_error = 0.0\nsamples = 1\nvalue = 5377.458", fillcolor="#fdf6f1"] ;
503 -> 505 ;
506 [label="squared_error = 0.0\nsamples = 1\nvalue = 5630.458", fillcolor="#fdf6f0"] ;
500 -> 506 ;
507 [label="age <= 0.489\nsquared_error = 221034.308\nsamples = 11\nvalue = 6506.241", fillcolor="#fdf4ee"] ;
479 -> 507 ;
508 [label="bmi <= 0.335\nsquared_error = 34576.553\nsamples = 7\nvalue = 6195.122", fillcolor="#fdf5ef"] ;
507 -> 508 ;
509 [label="age <= 0.446\nsquared_error = 15568.058\nsamples = 3\nvalue = 6032.322", fillcolor="#fdf5ef"] ;
508 -> 509 ;
510 [label="squared_error = 0.0\nsamples = 1\nvalue = 5855.902", fillcolor="#fdf5f0"] ;
509 -> 510 ;
511 [label="bmi <= 0.262\nsquared_error = 9.224\nsamples = 2\nvalue = 6120.532", fillcolor="#fdf5ef"] ;
509 -> 511 ;
512 [label="squared_error = 0.0\nsamples = 1\nvalue = 6117.494", fillcolor="#fdf5ef"] ;
511 -> 512 ;
513 [label="squared_error = -0.0\nsamples = 1\nvalue = 6123.569", fillcolor="#fdf5ef"] ;
511 -> 513 ;
514 [label="age <= 0.424\nsquared_error = 14046.398\nsamples = 4\nvalue = 6317.223", fillcolor="#fdf4ee"] ;
508 -> 514 ;
515 [label="squared_error = 0.0\nsamples = 1\nvalue = 6112.353", fillcolor="#fdf5ef"] ;
514 -> 515 ;
516 [label="bmi <= 0.617\nsquared_error = 74.443\nsamples = 3\nvalue = 6385.513", fillcolor="#fdf4ee"] ;
514 -> 516 ;
517 [label="bmi <= 0.386\nsquared_error = 4.464\nsamples = 2\nvalue = 6391.491", fillcolor="#fdf4ee"] ;
516 -> 517 ;
518 [label="squared_error = 0.0\nsamples = 1\nvalue = 6389.378", fillcolor="#fdf4ee"] ;
517 -> 518 ;
519 [label="squared_error = 0.0\nsamples = 1\nvalue = 6393.603", fillcolor="#fdf4ee"] ;
517 -> 519 ;
520 [label="squared_error = -0.0\nsamples = 1\nvalue = 6373.557", fillcolor="#fdf4ee"] ;
516 -> 520 ;
521 [label="sex <= 0.5\nsquared_error = 81510.972\nsamples = 4\nvalue = 7050.698", fillcolor="#fcf3ec"] ;
507 -> 521 ;
522 [label="age <= 0.511\nsquared_error = 21037.929\nsamples = 2\nvalue = 7298.598", fillcolor="#fcf2eb"] ;
521 -> 522 ;
523 [label="squared_error = 0.0\nsamples = 1\nvalue = 7153.554", fillcolor="#fcf3ec"] ;
522 -> 523 ;
524 [label="squared_error = 0.0\nsamples = 1\nvalue = 7443.643", fillcolor="#fcf2eb"] ;
522 -> 524 ;
525 [label="age <= 0.511\nsquared_error = 19074.911\nsamples = 2\nvalue = 6802.798", fillcolor="#fdf3ed"] ;
521 -> 525 ;
526 [label="squared_error = 0.0\nsamples = 1\nvalue = 6664.686", fillcolor="#fdf4ed"] ;
525 -> 526 ;
527 [label="squared_error = 0.0\nsamples = 1\nvalue = 6940.91", fillcolor="#fdf3ec"] ;
525 -> 527 ;
528 [label="age <= 0.185\nsquared_error = 35385510.77\nsamples = 87\nvalue = 8373.469", fillcolor="#fcf0e8"] ;
412 -> 528 ;
529 [label="sex <= 0.5\nsquared_error = 78384086.967\nsamples = 23\nvalue = 10820.774", fillcolor="#fbebe0"] ;
528 -> 529 ;
530 [label="bmi <= 0.58\nsquared_error = 84983231.853\nsamples = 11\nvalue = 13761.296", fillcolor="#fae5d6"] ;
529 -> 530 ;
531 [label="age <= 0.076\nsquared_error = 77552532.703\nsamples = 9\nvalue = 15946.031", fillcolor="#f9e1cf"] ;
530 -> 531 ;
532 [label="bmi <= 0.432\nsquared_error = 9183697.903\nsamples = 3\nvalue = 22972.445", fillcolor="#f6d2b9"] ;
531 -> 532 ;
533 [label="squared_error = 0.0\nsamples = 1\nvalue = 18838.704", fillcolor="#f8dbc6"] ;
532 -> 533 ;
534 [label="bmi <= 0.509\nsquared_error = 959685.057\nsamples = 2\nvalue = 25039.315", fillcolor="#f5ceb2"] ;
532 -> 534 ;
535 [label="squared_error = 0.0\nsamples = 1\nvalue = 24059.68", fillcolor="#f5d0b5"] ;
534 -> 535 ;
536 [label="squared_error = 0.0\nsamples = 1\nvalue = 26018.951", fillcolor="#f4ccaf"] ;
534 -> 536 ;
537 [label="region <= 0.167\nsquared_error = 74709083.214\nsamples = 6\nvalue = 12432.824", fillcolor="#fae8db"] ;
531 -> 537 ;
538 [label="bmi <= 0.356\nsquared_error = 1294951.937\nsamples = 2\nvalue = 23533.704", fillcolor="#f6d1b7"] ;
537 -> 538 ;
539 [label="squared_error = 0.0\nsamples = 1\nvalue = 22395.744", fillcolor="#f6d3ba"] ;
538 -> 539 ;
540 [label="squared_error = -0.0\nsamples = 1\nvalue = 24671.663", fillcolor="#f5cfb3"] ;
538 -> 540 ;
541 [label="bmi <= 0.293\nsquared_error = 18994004.291\nsamples = 4\nvalue = 6882.385", fillcolor="#fdf3ec"] ;
537 -> 541 ;
542 [label="bmi <= 0.204\nsquared_error = 25653225.432\nsamples = 2\nvalue = 9361.173", fillcolor="#fceee4"] ;
541 -> 542 ;
543 [label="squared_error = 0.0\nsamples = 1\nvalue = 4296.271", fillcolor="#fef8f5"] ;
542 -> 543 ;
544 [label="squared_error = 0.0\nsamples = 1\nvalue = 14426.074", fillcolor="#f9e4d4"] ;
542 -> 544 ;
545 [label="bmi <= 0.407\nsquared_error = 46003.129\nsamples = 2\nvalue = 4403.596", fillcolor="#fef8f4"] ;
541 -> 545 ;
546 [label="squared_error = 0.0\nsamples = 1\nvalue = 4189.113", fillcolor="#fef9f5"] ;
545 -> 546 ;
547 [label="squared_error = -0.0\nsamples = 1\nvalue = 4618.08", fillcolor="#fef8f4"] ;
545 -> 547 ;
548 [label="region <= 0.167\nsquared_error = 287974.467\nsamples = 2\nvalue = 3929.989", fillcolor="#fef9f6"] ;
530 -> 548 ;
549 [label="squared_error = 0.0\nsamples = 1\nvalue = 3393.356", fillcolor="#fefaf8"] ;
548 -> 549 ;
550 [label="squared_error = 0.0\nsamples = 1\nvalue = 4466.621", fillcolor="#fef8f4"] ;
548 -> 550 ;
551 [label="bmi <= 0.273\nsquared_error = 57143150.398\nsamples = 12\nvalue = 8125.295", fillcolor="#fcf1e8"] ;
529 -> 551 ;
552 [label="children <= 0.5\nsquared_error = 264519.936\nsamples = 3\nvalue = 3295.405", fillcolor="#fefbf8"] ;
551 -> 552 ;
553 [label="bmi <= 0.202\nsquared_error = 18686.569\nsamples = 2\nvalue = 2940.397", fillcolor="#fefbf9"] ;
552 -> 553 ;
554 [label="squared_error = 0.0\nsamples = 1\nvalue = 2803.698", fillcolor="#fefcfa"] ;
553 -> 554 ;
555 [label="squared_error = 0.0\nsamples = 1\nvalue = 3077.096", fillcolor="#fefbf9"] ;
553 -> 555 ;
556 [label="squared_error = -0.0\nsamples = 1\nvalue = 4005.422", fillcolor="#fef9f6"] ;
552 -> 556 ;
557 [label="bmi <= 0.305\nsquared_error = 65734766.325\nsamples = 9\nvalue = 9735.259", fillcolor="#fbede3"] ;
551 -> 557 ;
558 [label="squared_error = 0.0\nsamples = 1\nvalue = 23241.475", fillcolor="#f6d2b8"] ;
557 -> 558 ;
559 [label="bmi <= 0.521\nsquared_error = 48299099.175\nsamples = 8\nvalue = 8046.982", fillcolor="#fcf1e9"] ;
557 -> 559 ;
560 [label="age <= 0.033\nsquared_error = 41734050.571\nsamples = 7\nvalue = 6749.632", fillcolor="#fdf3ed"] ;
559 -> 560 ;
561 [label="region <= 0.167\nsquared_error = 90362055.341\nsamples = 2\nvalue = 12987.764", fillcolor="#fae7d9"] ;
560 -> 561 ;
562 [label="squared_error = 0.0\nsamples = 1\nvalue = 3481.868", fillcolor="#fefaf7"] ;
561 -> 562 ;
563 [label="squared_error = 0.0\nsamples = 1\nvalue = 22493.66", fillcolor="#f6d3ba"] ;
561 -> 563 ;
564 [label="children <= 0.5\nsquared_error = 490849.48\nsamples = 5\nvalue = 4254.38", fillcolor="#fef9f5"] ;
560 -> 564 ;
565 [label="age <= 0.098\nsquared_error = 16619.651\nsamples = 2\nvalue = 3408.786", fillcolor="#fefaf8"] ;
564 -> 565 ;
566 [label="squared_error = 0.0\nsamples = 1\nvalue = 3279.869", fillcolor="#fefbf8"] ;
565 -> 566 ;
567 [label="squared_error = -0.0\nsamples = 1\nvalue = 3537.703", fillcolor="#fefaf7"] ;
565 -> 567 ;
568 [label="age <= 0.163\nsquared_error = 12525.824\nsamples = 3\nvalue = 4818.109", fillcolor="#fdf7f3"] ;
564 -> 568 ;
569 [label="region <= 0.167\nsquared_error = 343.709\nsamples = 2\nvalue = 4896.52", fillcolor="#fdf7f3"] ;
568 -> 569 ;
570 [label="squared_error = 0.0\nsamples = 1\nvalue = 4915.06", fillcolor="#fdf7f3"] ;
569 -> 570 ;
571 [label="squared_error = 0.0\nsamples = 1\nvalue = 4877.981", fillcolor="#fdf7f3"] ;
569 -> 571 ;
572 [label="squared_error = 0.0\nsamples = 1\nvalue = 4661.286", fillcolor="#fef8f4"] ;
568 -> 572 ;
573 [label="squared_error = 0.0\nsamples = 1\nvalue = 17128.426", fillcolor="#f8decb"] ;
559 -> 573 ;
574 [label="bmi <= 0.734\nsquared_error = 17006972.602\nsamples = 64\nvalue = 7493.969", fillcolor="#fcf2ea"] ;
528 -> 574 ;
575 [label="bmi <= 0.211\nsquared_error = 14953864.784\nsamples = 63\nvalue = 7303.45", fillcolor="#fcf2eb"] ;
574 -> 575 ;
576 [label="bmi <= 0.205\nsquared_error = 44138897.74\nsamples = 9\nvalue = 8741.905", fillcolor="#fcefe6"] ;
575 -> 576 ;
577 [label="age <= 0.293\nsquared_error = 827609.726\nsamples = 8\nvalue = 6412.655", fillcolor="#fdf4ee"] ;
576 -> 577 ;
578 [label="sex <= 0.5\nsquared_error = 1540.747\nsamples = 2\nvalue = 4867.157", fillcolor="#fdf7f3"] ;
577 -> 578 ;
579 [label="squared_error = 0.0\nsamples = 1\nvalue = 4906.41", fillcolor="#fdf7f3"] ;
578 -> 579 ;
580 [label="squared_error = -0.0\nsamples = 1\nvalue = 4827.905", fillcolor="#fdf7f3"] ;
578 -> 580 ;
581 [label="bmi <= 0.122\nsquared_error = 41382.787\nsamples = 6\nvalue = 6927.821", fillcolor="#fdf3ec"] ;
577 -> 581 ;
582 [label="sex <= 0.5\nsquared_error = 12864.999\nsamples = 4\nvalue = 6801.201", fillcolor="#fdf3ed"] ;
581 -> 582 ;
583 [label="children <= 0.5\nsquared_error = 5682.001\nsamples = 3\nvalue = 6854.753", fillcolor="#fdf3ed"] ;
582 -> 583 ;
584 [label="region <= 0.167\nsquared_error = 763.476\nsamples = 2\nvalue = 6905.611", fillcolor="#fdf3ec"] ;
583 -> 584 ;
585 [label="squared_error = 0.0\nsamples = 1\nvalue = 6877.98", fillcolor="#fdf3ec"] ;
584 -> 585 ;
586 [label="squared_error = -0.0\nsamples = 1\nvalue = 6933.242", fillcolor="#fdf3ec"] ;
584 -> 586 ;
587 [label="squared_error = -0.0\nsamples = 1\nvalue = 6753.038", fillcolor="#fdf3ed"] ;
583 -> 587 ;
588 [label="squared_error = -0.0\nsamples = 1\nvalue = 6640.545", fillcolor="#fdf4ed"] ;
582 -> 588 ;
589 [label="age <= 0.413\nsquared_error = 2223.743\nsamples = 2\nvalue = 7181.059", fillcolor="#fcf3eb"] ;
581 -> 589 ;
590 [label="squared_error = 0.0\nsamples = 1\nvalue = 7228.216", fillcolor="#fcf2eb"] ;
589 -> 590 ;
591 [label="squared_error = -0.0\nsamples = 1\nvalue = 7133.902", fillcolor="#fcf3ec"] ;
589 -> 591 ;
592 [label="squared_error = 0.0\nsamples = 1\nvalue = 27375.905", fillcolor="#f4c9aa"] ;
576 -> 592 ;
593 [label="bmi <= 0.438\nsquared_error = 9687357.229\nsamples = 54\nvalue = 7063.707", fillcolor="#fcf3ec"] ;
575 -> 593 ;
594 [label="age <= 0.348\nsquared_error = 1500182.293\nsamples = 29\nvalue = 6434.105", fillcolor="#fdf4ee"] ;
593 -> 594 ;
595 [label="children <= 0.8\nsquared_error = 447463.734\nsamples = 10\nvalue = 5089.344", fillcolor="#fdf7f2"] ;
594 -> 595 ;
596 [label="age <= 0.228\nsquared_error = 136133.608\nsamples = 9\nvalue = 4899.331", fillcolor="#fdf7f3"] ;
595 -> 596 ;
597 [label="children <= 0.5\nsquared_error = 116364.653\nsamples = 5\nvalue = 4666.83", fillcolor="#fef8f4"] ;
596 -> 597 ;
598 [label="region <= 0.167\nsquared_error = 15311.114\nsamples = 4\nvalue = 4505.496", fillcolor="#fef8f4"] ;
597 -> 598 ;
599 [label="bmi <= 0.285\nsquared_error = 15.163\nsamples = 3\nvalue = 4434.082", fillcolor="#fef8f4"] ;
598 -> 599 ;
600 [label="squared_error = 0.0\nsamples = 1\nvalue = 4428.888", fillcolor="#fef8f4"] ;
599 -> 600 ;
601 [label="bmi <= 0.395\nsquared_error = 2.511\nsamples = 2\nvalue = 4436.679", fillcolor="#fef8f4"] ;
599 -> 601 ;
602 [label="squared_error = 0.0\nsamples = 1\nvalue = 4435.094", fillcolor="#fef8f4"] ;
601 -> 602 ;
603 [label="squared_error = 0.0\nsamples = 1\nvalue = 4438.263", fillcolor="#fef8f4"] ;
601 -> 603 ;
604 [label="squared_error = 0.0\nsamples = 1\nvalue = 4719.737", fillcolor="#fdf8f3"] ;
598 -> 604 ;
605 [label="squared_error = -0.0\nsamples = 1\nvalue = 5312.17", fillcolor="#fdf6f2"] ;
597 -> 605 ;
606 [label="bmi <= 0.376\nsquared_error = 8810.971\nsamples = 4\nvalue = 5189.956", fillcolor="#fdf7f2"] ;
596 -> 606 ;
607 [label="age <= 0.283\nsquared_error = 556.17\nsamples = 3\nvalue = 5242.852", fillcolor="#fdf7f2"] ;
606 -> 607 ;
608 [label="squared_error = 0.0\nsamples = 1\nvalue = 5209.579", fillcolor="#fdf7f2"] ;
607 -> 608 ;
609 [label="bmi <= 0.327\nsquared_error = 3.923\nsamples = 2\nvalue = 5259.489", fillcolor="#fdf7f2"] ;
607 -> 609 ;
610 [label="squared_error = 0.0\nsamples = 1\nvalue = 5257.508", fillcolor="#fdf7f2"] ;
609 -> 610 ;
611 [label="squared_error = 0.0\nsamples = 1\nvalue = 5261.469", fillcolor="#fdf7f2"] ;
609 -> 611 ;
612 [label="squared_error = -0.0\nsamples = 1\nvalue = 5031.27", fillcolor="#fdf7f2"] ;
606 -> 612 ;
613 [label="squared_error = 0.0\nsamples = 1\nvalue = 6799.458", fillcolor="#fdf3ed"] ;
595 -> 613 ;
614 [label="age <= 0.446\nsquared_error = 601526.87\nsamples = 19\nvalue = 7141.874", fillcolor="#fcf3ec"] ;
594 -> 614 ;
615 [label="sex <= 0.5\nsquared_error = 109653.162\nsamples = 11\nvalue = 6624.998", fillcolor="#fdf4ed"] ;
614 -> 615 ;
616 [label="bmi <= 0.313\nsquared_error = 124256.835\nsamples = 4\nvalue = 6878.773", fillcolor="#fdf3ec"] ;
615 -> 616 ;
617 [label="region <= 0.167\nsquared_error = 20183.878\nsamples = 2\nvalue = 6544.361", fillcolor="#fdf4ee"] ;
616 -> 617 ;
618 [label="squared_error = 0.0\nsamples = 1\nvalue = 6402.291", fillcolor="#fdf4ee"] ;
617 -> 618 ;
619 [label="squared_error = 0.0\nsamples = 1\nvalue = 6686.431", fillcolor="#fdf4ed"] ;
617 -> 619 ;
620 [label="age <= 0.424\nsquared_error = 4667.824\nsamples = 2\nvalue = 7213.184", fillcolor="#fcf3eb"] ;
616 -> 620 ;
621 [label="squared_error = 0.0\nsamples = 1\nvalue = 7281.506", fillcolor="#fcf2eb"] ;
620 -> 621 ;
622 [label="squared_error = 0.0\nsamples = 1\nvalue = 7144.863", fillcolor="#fcf3ec"] ;
620 -> 622 ;
623 [label="children <= 0.5\nsquared_error = 43478.24\nsamples = 7\nvalue = 6479.984", fillcolor="#fdf4ee"] ;
615 -> 623 ;
624 [label="age <= 0.424\nsquared_error = 16327.222\nsamples = 4\nvalue = 6329.09", fillcolor="#fdf4ee"] ;
623 -> 624 ;
625 [label="bmi <= 0.332\nsquared_error = 6.63\nsamples = 2\nvalue = 6201.327", fillcolor="#fdf5ef"] ;
624 -> 625 ;
626 [label="squared_error = 0.0\nsamples = 1\nvalue = 6198.752", fillcolor="#fdf5ef"] ;
625 -> 626 ;
627 [label="squared_error = 0.0\nsamples = 1\nvalue = 6203.902", fillcolor="#fdf5ef"] ;
625 -> 627 ;
628 [label="bmi <= 0.409\nsquared_error = 0.981\nsamples = 2\nvalue = 6456.853", fillcolor="#fdf4ee"] ;
624 -> 628 ;
629 [label="squared_error = 0.0\nsamples = 1\nvalue = 6455.863", fillcolor="#fdf4ee"] ;
628 -> 629 ;
630 [label="squared_error = -0.0\nsamples = 1\nvalue = 6457.843", fillcolor="#fdf4ee"] ;
628 -> 630 ;
631 [label="region <= 0.167\nsquared_error = 8842.569\nsamples = 3\nvalue = 6681.176", fillcolor="#fdf4ed"] ;
623 -> 631 ;
632 [label="bmi <= 0.398\nsquared_error = 0.854\nsamples = 2\nvalue = 6747.667", fillcolor="#fdf3ed"] ;
631 -> 632 ;
633 [label="squared_error = 0.0\nsamples = 1\nvalue = 6746.742", fillcolor="#fdf3ed"] ;
632 -> 633 ;
634 [label="squared_error = 0.0\nsamples = 1\nvalue = 6748.591", fillcolor="#fdf3ed"] ;
632 -> 634 ;
635 [label="squared_error = 0.0\nsamples = 1\nvalue = 6548.195", fillcolor="#fdf4ee"] ;
631 -> 635 ;
636 [label="sex <= 0.5\nsquared_error = 405406.208\nsamples = 8\nvalue = 7852.579", fillcolor="#fcf1e9"] ;
614 -> 636 ;
637 [label="children <= 0.8\nsquared_error = 141101.175\nsamples = 5\nvalue = 8241.486", fillcolor="#fcf0e8"] ;
636 -> 637 ;
638 [label="age <= 0.467\nsquared_error = 12431.408\nsamples = 4\nvalue = 8060.409", fillcolor="#fcf1e9"] ;
637 -> 638 ;
639 [label="bmi <= 0.23\nsquared_error = 0.109\nsamples = 2\nvalue = 7986.145", fillcolor="#fcf1e9"] ;
638 -> 639 ;
640 [label="squared_error = 0.0\nsamples = 1\nvalue = 7985.815", fillcolor="#fcf1e9"] ;
639 -> 640 ;
641 [label="squared_error = 0.0\nsamples = 1\nvalue = 7986.475", fillcolor="#fcf1e9"] ;
639 -> 641 ;
642 [label="region <= 0.167\nsquared_error = 13832.483\nsamples = 2\nvalue = 8134.673", fillcolor="#fcf1e8"] ;
638 -> 642 ;
643 [label="squared_error = 0.0\nsamples = 1\nvalue = 8252.284", fillcolor="#fcf0e8"] ;
642 -> 643 ;
644 [label="squared_error = -0.0\nsamples = 1\nvalue = 8017.061", fillcolor="#fcf1e9"] ;
642 -> 644 ;
645 [label="squared_error = 0.0\nsamples = 1\nvalue = 8965.796", fillcolor="#fcefe6"] ;
637 -> 645 ;
646 [label="bmi <= 0.304\nsquared_error = 173696.076\nsamples = 3\nvalue = 7204.399", fillcolor="#fcf3eb"] ;
636 -> 646 ;
647 [label="age <= 0.467\nsquared_error = 53631.161\nsamples = 2\nvalue = 6941.776", fillcolor="#fdf3ec"] ;
646 -> 647 ;
648 [label="squared_error = 0.0\nsamples = 1\nvalue = 6710.192", fillcolor="#fdf4ed"] ;
647 -> 648 ;
649 [label="squared_error = -0.0\nsamples = 1\nvalue = 7173.36", fillcolor="#fcf3ec"] ;
647 -> 649 ;
650 [label="squared_error = 0.0\nsamples = 1\nvalue = 7729.646", fillcolor="#fcf1ea"] ;
646 -> 650 ;
651 [label="bmi <= 0.477\nsquared_error = 18191263.592\nsamples = 25\nvalue = 7794.045", fillcolor="#fcf1ea"] ;
593 -> 651 ;
652 [label="age <= 0.326\nsquared_error = 28628195.761\nsamples = 5\nvalue = 12025.721", fillcolor="#fae9dc"] ;
651 -> 652 ;
653 [label="children <= 0.5\nsquared_error = 104612.269\nsamples = 2\nvalue = 18481.314", fillcolor="#f8dbc7"] ;
652 -> 653 ;
654 [label="squared_error = 0.0\nsamples = 1\nvalue = 18157.876", fillcolor="#f8dcc8"] ;
653 -> 654 ;
655 [label="squared_error = -0.0\nsamples = 1\nvalue = 18804.752", fillcolor="#f8dbc6"] ;
653 -> 655 ;
656 [label="children <= 0.8\nsquared_error = 1338715.851\nsamples = 3\nvalue = 7721.992", fillcolor="#fcf1ea"] ;
652 -> 656 ;
657 [label="sex <= 0.5\nsquared_error = 319650.7\nsamples = 2\nvalue = 6971.787", fillcolor="#fdf3ec"] ;
656 -> 657 ;
658 [label="squared_error = 0.0\nsamples = 1\nvalue = 7537.164", fillcolor="#fcf2ea"] ;
657 -> 658 ;
659 [label="squared_error = 0.0\nsamples = 1\nvalue = 6406.411", fillcolor="#fdf4ee"] ;
657 -> 659 ;
660 [label="squared_error = 0.0\nsamples = 1\nvalue = 9222.403", fillcolor="#fceee5"] ;
656 -> 660 ;
661 [label="bmi <= 0.562\nsquared_error = 9986067.994\nsamples = 20\nvalue = 6736.126", fillcolor="#fdf3ed"] ;
651 -> 661 ;
662 [label="age <= 0.359\nsquared_error = 2008891.405\nsamples = 13\nvalue = 5943.933", fillcolor="#fdf5ef"] ;
661 -> 662 ;
663 [label="age <= 0.261\nsquared_error = 387069.928\nsamples = 8\nvalue = 4947.134", fillcolor="#fdf7f3"] ;
662 -> 663 ;
664 [label="bmi <= 0.549\nsquared_error = 99015.77\nsamples = 5\nvalue = 4539.17", fillcolor="#fef8f4"] ;
663 -> 664 ;
665 [label="sex <= 0.5\nsquared_error = 51632.256\nsamples = 4\nvalue = 4659.285", fillcolor="#fef8f4"] ;
664 -> 665 ;
666 [label="squared_error = 0.0\nsamples = 1\nvalue = 4922.916", fillcolor="#fdf7f3"] ;
665 -> 666 ;
667 [label="age <= 0.217\nsquared_error = 37953.542\nsamples = 3\nvalue = 4571.408", fillcolor="#fef8f4"] ;
665 -> 667 ;
668 [label="squared_error = 0.0\nsamples = 1\nvalue = 4846.92", fillcolor="#fdf7f3"] ;
667 -> 668 ;
669 [label="bmi <= 0.518\nsquared_error = 0.07\nsamples = 2\nvalue = 4433.652", fillcolor="#fef8f4"] ;
667 -> 669 ;
670 [label="squared_error = 0.0\nsamples = 1\nvalue = 4433.388", fillcolor="#fef8f4"] ;
669 -> 670 ;
671 [label="squared_error = 0.0\nsamples = 1\nvalue = 4433.916", fillcolor="#fef8f4"] ;
669 -> 671 ;
672 [label="squared_error = 0.0\nsamples = 1\nvalue = 4058.712", fillcolor="#fef9f6"] ;
664 -> 672 ;
673 [label="age <= 0.293\nsquared_error = 127451.747\nsamples = 3\nvalue = 5627.074", fillcolor="#fdf6f0"] ;
663 -> 673 ;
674 [label="bmi <= 0.518\nsquared_error = 2382.567\nsamples = 2\nvalue = 5376.212", fillcolor="#fdf6f1"] ;
673 -> 674 ;
675 [label="squared_error = 0.0\nsamples = 1\nvalue = 5425.023", fillcolor="#fdf6f1"] ;
674 -> 675 ;
676 [label="squared_error = 0.0\nsamples = 1\nvalue = 5327.4", fillcolor="#fdf6f1"] ;
674 -> 676 ;
677 [label="squared_error = 0.0\nsamples = 1\nvalue = 6128.797", fillcolor="#fdf5ef"] ;
673 -> 677 ;
678 [label="age <= 0.489\nsquared_error = 470396.08\nsamples = 5\nvalue = 7538.811", fillcolor="#fcf2ea"] ;
662 -> 678 ;
679 [label="children <= 0.7\nsquared_error = 275821.828\nsamples = 4\nvalue = 7288.942", fillcolor="#fcf2eb"] ;
678 -> 679 ;
680 [label="sex <= 0.5\nsquared_error = 28437.411\nsamples = 3\nvalue = 6997.684", fillcolor="#fdf3ec"] ;
679 -> 680 ;
681 [label="squared_error = 0.0\nsamples = 1\nvalue = 7209.492", fillcolor="#fcf3eb"] ;
680 -> 681 ;
682 [label="children <= 0.5\nsquared_error = 9009.213\nsamples = 2\nvalue = 6891.78", fillcolor="#fdf3ec"] ;
680 -> 682 ;
683 [label="squared_error = 0.0\nsamples = 1\nvalue = 6986.697", fillcolor="#fdf3ec"] ;
682 -> 683 ;
684 [label="squared_error = 0.0\nsamples = 1\nvalue = 6796.863", fillcolor="#fdf3ed"] ;
682 -> 684 ;
685 [label="squared_error = -0.0\nsamples = 1\nvalue = 8162.716", fillcolor="#fcf1e8"] ;
679 -> 685 ;
686 [label="squared_error = -0.0\nsamples = 1\nvalue = 8538.288", fillcolor="#fcf0e7"] ;
678 -> 686 ;
687 [label="bmi <= 0.579\nsquared_error = 21470860.18\nsamples = 7\nvalue = 8207.342", fillcolor="#fcf0e8"] ;
661 -> 687 ;
688 [label="squared_error = 0.0\nsamples = 1\nvalue = 19442.354", fillcolor="#f7d9c4"] ;
687 -> 688 ;
689 [label="age <= 0.435\nsquared_error = 505494.878\nsamples = 6\nvalue = 6334.841", fillcolor="#fdf4ee"] ;
687 -> 689 ;
690 [label="sex <= 0.5\nsquared_error = 111125.236\nsamples = 4\nvalue = 5870.4", fillcolor="#fdf5f0"] ;
689 -> 690 ;
691 [label="children <= 0.5\nsquared_error = 29725.191\nsamples = 2\nvalue = 6161.934", fillcolor="#fdf5ef"] ;
690 -> 691 ;
692 [label="squared_error = 0.0\nsamples = 1\nvalue = 5989.524", fillcolor="#fdf5ef"] ;
691 -> 692 ;
693 [label="squared_error = -0.0\nsamples = 1\nvalue = 6334.344", fillcolor="#fdf4ee"] ;
691 -> 693 ;
694 [label="age <= 0.315\nsquared_error = 22541.659\nsamples = 2\nvalue = 5578.866", fillcolor="#fdf6f1"] ;
690 -> 694 ;
695 [label="squared_error = 0.0\nsamples = 1\nvalue = 5428.728", fillcolor="#fdf6f1"] ;
694 -> 695 ;
696 [label="squared_error = 0.0\nsamples = 1\nvalue = 5729.005", fillcolor="#fdf6f0"] ;
694 -> 696 ;
697 [label="bmi <= 0.639\nsquared_error = 3.923\nsamples = 2\nvalue = 7263.722", fillcolor="#fcf2eb"] ;
689 -> 697 ;
698 [label="squared_error = 0.0\nsamples = 1\nvalue = 7261.741", fillcolor="#fcf2eb"] ;
697 -> 698 ;
699 [label="squared_error = -0.0\nsamples = 1\nvalue = 7265.702", fillcolor="#fcf2eb"] ;
697 -> 699 ;
700 [label="squared_error = 0.0\nsamples = 1\nvalue = 19496.719", fillcolor="#f7d9c4"] ;
574 -> 700 ;
701 [label="children <= 0.4\nsquared_error = 122276504.307\nsamples = 2\nvalue = 17418.864", fillcolor="#f8decb"] ;
411 -> 701 ;
702 [label="squared_error = 0.0\nsamples = 1\nvalue = 28476.735", fillcolor="#f3c7a7"] ;
701 -> 702 ;
703 [label="squared_error = -0.0\nsamples = 1\nvalue = 6360.994", fillcolor="#fdf4ee"] ;
701 -> 703 ;
704 [label="age <= 0.25\nsquared_error = 14926654.107\nsamples = 133\nvalue = 5685.044", fillcolor="#fdf6f0"] ;
410 -> 704 ;
705 [label="bmi <= 0.527\nsquared_error = 17312286.641\nsamples = 52\nvalue = 4098.154", fillcolor="#fef9f5"] ;
704 -> 705 ;
706 [label="children <= 0.3\nsquared_error = 3324229.7\nsamples = 29\nvalue = 3295.673", fillcolor="#fefbf8"] ;
705 -> 706 ;
707 [label="age <= 0.109\nsquared_error = 400943.051\nsamples = 15\nvalue = 2517.793", fillcolor="#fefcfb"] ;
706 -> 707 ;
708 [label="sex <= 0.5\nsquared_error = 71447.571\nsamples = 9\nvalue = 2046.439", fillcolor="#fffdfc"] ;
707 -> 708 ;
709 [label="age <= 0.043\nsquared_error = 25442.998\nsamples = 3\nvalue = 2372.628", fillcolor="#fefcfb"] ;
708 -> 709 ;
710 [label="bmi <= 0.334\nsquared_error = 4252.468\nsamples = 2\nvalue = 2266.308", fillcolor="#fffdfb"] ;
709 -> 710 ;
711 [label="squared_error = 0.0\nsamples = 1\nvalue = 2201.097", fillcolor="#fffdfc"] ;
710 -> 711 ;
712 [label="squared_error = 0.0\nsamples = 1\nvalue = 2331.519", fillcolor="#fefdfb"] ;
710 -> 712 ;
713 [label="squared_error = -0.0\nsamples = 1\nvalue = 2585.269", fillcolor="#fefcfa"] ;
709 -> 713 ;
714 [label="age <= 0.033\nsquared_error = 14650.111\nsamples = 6\nvalue = 1883.344", fillcolor="#fffdfd"] ;
708 -> 714 ;
715 [label="region <= 0.833\nsquared_error = 2577.187\nsamples = 4\nvalue = 1808.051", fillcolor="#fffefd"] ;
714 -> 715 ;
716 [label="squared_error = 0.0\nsamples = 1\nvalue = 1720.354", fillcolor="#fffefd"] ;
715 -> 716 ;
717 [label="bmi <= 0.342\nsquared_error = 18.115\nsamples = 3\nvalue = 1837.283", fillcolor="#fffefd"] ;
715 -> 717 ;
718 [label="bmi <= 0.221\nsquared_error = 6.613\nsamples = 2\nvalue = 1834.666", fillcolor="#fffefd"] ;
717 -> 718 ;
719 [label="squared_error = 0.0\nsamples = 1\nvalue = 1832.094", fillcolor="#fffefd"] ;
718 -> 719 ;
720 [label="squared_error = -0.0\nsamples = 1\nvalue = 1837.237", fillcolor="#fffefd"] ;
718 -> 720 ;
721 [label="squared_error = -0.0\nsamples = 1\nvalue = 1842.519", fillcolor="#fffefd"] ;
717 -> 721 ;
722 [label="age <= 0.054\nsquared_error = 4781.722\nsamples = 2\nvalue = 2033.93", fillcolor="#fffdfc"] ;
714 -> 722 ;
723 [label="squared_error = 0.0\nsamples = 1\nvalue = 1964.78", fillcolor="#fffdfc"] ;
722 -> 723 ;
724 [label="squared_error = 0.0\nsamples = 1\nvalue = 2103.08", fillcolor="#fffdfc"] ;
722 -> 724 ;
725 [label="sex <= 0.5\nsquared_error = 62030.823\nsamples = 6\nvalue = 3224.824", fillcolor="#fefbf8"] ;
707 -> 725 ;
726 [label="age <= 0.163\nsquared_error = 15607.772\nsamples = 4\nvalue = 3385.488", fillcolor="#fefaf8"] ;
725 -> 726 ;
727 [label="squared_error = 0.0\nsamples = 1\nvalue = 3208.787", fillcolor="#fefbf8"] ;
726 -> 727 ;
728 [label="age <= 0.185\nsquared_error = 6933.401\nsamples = 3\nvalue = 3444.388", fillcolor="#fefaf8"] ;
726 -> 728 ;
729 [label="bmi <= 0.282\nsquared_error = 45.261\nsamples = 2\nvalue = 3385.638", fillcolor="#fefaf8"] ;
728 -> 729 ;
730 [label="squared_error = 0.0\nsamples = 1\nvalue = 3378.91", fillcolor="#fefaf8"] ;
729 -> 730 ;
731 [label="squared_error = -0.0\nsamples = 1\nvalue = 3392.365", fillcolor="#fefaf8"] ;
729 -> 731 ;
732 [label="squared_error = 0.0\nsamples = 1\nvalue = 3561.889", fillcolor="#fefaf7"] ;
728 -> 732 ;
733 [label="bmi <= 0.442\nsquared_error = 0.349\nsamples = 2\nvalue = 2903.497", fillcolor="#fefbf9"] ;
725 -> 733 ;
734 [label="squared_error = 0.0\nsamples = 1\nvalue = 2902.906", fillcolor="#fefbf9"] ;
733 -> 734 ;
735 [label="squared_error = -0.0\nsamples = 1\nvalue = 2904.088", fillcolor="#fefbf9"] ;
733 -> 735 ;
736 [label="bmi <= 0.191\nsquared_error = 5113377.876\nsamples = 14\nvalue = 4129.115", fillcolor="#fef9f5"] ;
706 -> 736 ;
737 [label="squared_error = 0.0\nsamples = 1\nvalue = 11884.049", fillcolor="#fae9dc"] ;
736 -> 737 ;
738 [label="age <= 0.098\nsquared_error = 524786.454\nsamples = 13\nvalue = 3532.582", fillcolor="#fefaf7"] ;
736 -> 738 ;
739 [label="sex <= 0.5\nsquared_error = 87314.986\nsamples = 6\nvalue = 2803.7", fillcolor="#fefcfa"] ;
738 -> 739 ;
740 [label="age <= 0.033\nsquared_error = 20537.325\nsamples = 4\nvalue = 2987.932", fillcolor="#fefbf9"] ;
739 -> 740 ;
741 [label="region <= 0.833\nsquared_error = 3153.395\nsamples = 2\nvalue = 2857.414", fillcolor="#fefbf9"] ;
740 -> 741 ;
742 [label="squared_error = 0.0\nsamples = 1\nvalue = 2801.259", fillcolor="#fefcfa"] ;
741 -> 742 ;
743 [label="squared_error = 0.0\nsamples = 1\nvalue = 2913.569", fillcolor="#fefbf9"] ;
741 -> 743 ;
744 [label="bmi <= 0.353\nsquared_error = 3851.568\nsamples = 2\nvalue = 3118.449", fillcolor="#fefbf9"] ;
740 -> 744 ;
745 [label="squared_error = 0.0\nsamples = 1\nvalue = 3180.51", fillcolor="#fefbf8"] ;
744 -> 745 ;
746 [label="squared_error = 0.0\nsamples = 1\nvalue = 3056.388", fillcolor="#fefbf9"] ;
744 -> 746 ;
747 [label="age <= 0.022\nsquared_error = 17222.428\nsamples = 2\nvalue = 2435.236", fillcolor="#fefcfb"] ;
739 -> 747 ;
748 [label="squared_error = 0.0\nsamples = 1\nvalue = 2304.002", fillcolor="#fffdfb"] ;
747 -> 748 ;
749 [label="squared_error = -0.0\nsamples = 1\nvalue = 2566.471", fillcolor="#fefcfa"] ;
747 -> 749 ;
750 [label="age <= 0.228\nsquared_error = 54068.182\nsamples = 7\nvalue = 4157.338", fillcolor="#fef9f5"] ;
738 -> 750 ;
751 [label="bmi <= 0.299\nsquared_error = 36151.447\nsamples = 6\nvalue = 4095.315", fillcolor="#fef9f5"] ;
750 -> 751 ;
752 [label="squared_error = 0.0\nsamples = 1\nvalue = 3847.674", fillcolor="#fef9f6"] ;
751 -> 752 ;
753 [label="age <= 0.185\nsquared_error = 28663.487\nsamples = 5\nvalue = 4144.843", fillcolor="#fef9f5"] ;
751 -> 753 ;
754 [label="age <= 0.141\nsquared_error = 19760.715\nsamples = 3\nvalue = 4041.01", fillcolor="#fef9f6"] ;
753 -> 754 ;
755 [label="squared_error = 0.0\nsamples = 1\nvalue = 4234.927", fillcolor="#fef9f5"] ;
754 -> 755 ;
756 [label="region <= 0.833\nsquared_error = 1438.298\nsamples = 2\nvalue = 3944.052", fillcolor="#fef9f6"] ;
754 -> 756 ;
757 [label="squared_error = 0.0\nsamples = 1\nvalue = 3981.977", fillcolor="#fef9f6"] ;
756 -> 757 ;
758 [label="squared_error = 0.0\nsamples = 1\nvalue = 3906.127", fillcolor="#fef9f6"] ;
756 -> 758 ;
759 [label="children <= 0.5\nsquared_error = 1587.899\nsamples = 2\nvalue = 4300.592", fillcolor="#fef8f5"] ;
753 -> 759 ;
760 [label="squared_error = 0.0\nsamples = 1\nvalue = 4340.441", fillcolor="#fef8f5"] ;
759 -> 760 ;
761 [label="squared_error = -0.0\nsamples = 1\nvalue = 4260.744", fillcolor="#fef9f5"] ;
759 -> 761 ;
762 [label="squared_error = 0.0\nsamples = 1\nvalue = 4529.477", fillcolor="#fef8f4"] ;
750 -> 762 ;
763 [label="bmi <= 0.53\nsquared_error = 33113644.43\nsamples = 23\nvalue = 5109.978", fillcolor="#fdf7f2"] ;
705 -> 763 ;
764 [label="squared_error = 0.0\nsamples = 1\nvalue = 18218.161", fillcolor="#f8dcc8"] ;
763 -> 764 ;
765 [label="age <= 0.076\nsquared_error = 26453597.374\nsamples = 22\nvalue = 4514.151", fillcolor="#fef8f4"] ;
763 -> 765 ;
766 [label="age <= 0.022\nsquared_error = 102118270.779\nsamples = 5\nvalue = 7645.491", fillcolor="#fcf2ea"] ;
765 -> 766 ;
767 [label="bmi <= 0.659\nsquared_error = 53989.408\nsamples = 3\nvalue = 1890.846", fillcolor="#fffdfd"] ;
766 -> 767 ;
768 [label="bmi <= 0.602\nsquared_error = 0.988\nsamples = 2\nvalue = 1726.546", fillcolor="#fffefd"] ;
767 -> 768 ;
769 [label="squared_error = 0.0\nsamples = 1\nvalue = 1725.552", fillcolor="#fffefd"] ;
768 -> 769 ;
770 [label="squared_error = -0.0\nsamples = 1\nvalue = 1727.54", fillcolor="#fffefd"] ;
768 -> 770 ;
771 [label="squared_error = 0.0\nsamples = 1\nvalue = 2219.445", fillcolor="#fffdfb"] ;
767 -> 771 ;
772 [label="children <= 0.6\nsquared_error = 131029902.74\nsamples = 2\nvalue = 16277.459", fillcolor="#f9e0ce"] ;
766 -> 772 ;
773 [label="squared_error = 0.0\nsamples = 1\nvalue = 27724.289", fillcolor="#f4c8a9"] ;
772 -> 773 ;
774 [label="squared_error = 0.0\nsamples = 1\nvalue = 4830.63", fillcolor="#fdf7f3"] ;
772 -> 774 ;
775 [label="children <= 0.5\nsquared_error = 467164.475\nsamples = 17\nvalue = 3593.169", fillcolor="#fefaf7"] ;
765 -> 775 ;
776 [label="age <= 0.13\nsquared_error = 229035.983\nsamples = 14\nvalue = 3356.535", fillcolor="#fefaf8"] ;
775 -> 776 ;
777 [label="children <= 0.3\nsquared_error = 255976.217\nsamples = 3\nvalue = 2785.208", fillcolor="#fefcfa"] ;
776 -> 777 ;
778 [label="bmi <= 0.578\nsquared_error = 111.305\nsamples = 2\nvalue = 2427.505", fillcolor="#fefcfb"] ;
777 -> 778 ;
779 [label="squared_error = 0.0\nsamples = 1\nvalue = 2438.055", fillcolor="#fefcfb"] ;
778 -> 779 ;
780 [label="squared_error = 0.0\nsamples = 1\nvalue = 2416.955", fillcolor="#fefcfb"] ;
778 -> 780 ;
781 [label="squared_error = -0.0\nsamples = 1\nvalue = 3500.612", fillcolor="#fefaf7"] ;
777 -> 781 ;
782 [label="children <= 0.3\nsquared_error = 108387.49\nsamples = 11\nvalue = 3512.352", fillcolor="#fefaf7"] ;
776 -> 782 ;
783 [label="bmi <= 0.926\nsquared_error = 56839.867\nsamples = 8\nvalue = 3362.05", fillcolor="#fefaf8"] ;
782 -> 783 ;
784 [label="age <= 0.163\nsquared_error = 34068.078\nsamples = 7\nvalue = 3424.191", fillcolor="#fefaf8"] ;
783 -> 784 ;
785 [label="bmi <= 0.718\nsquared_error = 32.005\nsamples = 2\nvalue = 3232.778", fillcolor="#fefbf8"] ;
784 -> 785 ;
786 [label="squared_error = 0.0\nsamples = 1\nvalue = 3227.121", fillcolor="#fefbf8"] ;
785 -> 786 ;
787 [label="squared_error = -0.0\nsamples = 1\nvalue = 3238.436", fillcolor="#fefbf8"] ;
785 -> 787 ;
788 [label="sex <= 0.5\nsquared_error = 27164.874\nsamples = 5\nvalue = 3500.755", fillcolor="#fefaf7"] ;
784 -> 788 ;
789 [label="age <= 0.207\nsquared_error = 21214.14\nsamples = 3\nvalue = 3585.069", fillcolor="#fefaf7"] ;
788 -> 789 ;
790 [label="bmi <= 0.735\nsquared_error = 7028.726\nsamples = 2\nvalue = 3494.162", fillcolor="#fefaf7"] ;
789 -> 790 ;
791 [label="squared_error = 0.0\nsamples = 1\nvalue = 3577.999", fillcolor="#fefaf7"] ;
790 -> 791 ;
792 [label="squared_error = -0.0\nsamples = 1\nvalue = 3410.324", fillcolor="#fefaf8"] ;
790 -> 792 ;
793 [label="squared_error = 0.0\nsamples = 1\nvalue = 3766.884", fillcolor="#fefaf6"] ;
789 -> 793 ;
794 [label="bmi <= 0.716\nsquared_error = 9433.13\nsamples = 2\nvalue = 3374.285", fillcolor="#fefaf8"] ;
788 -> 794 ;
795 [label="squared_error = 0.0\nsamples = 1\nvalue = 3277.161", fillcolor="#fefbf8"] ;
794 -> 795 ;
796 [label="squared_error = -0.0\nsamples = 1\nvalue = 3471.41", fillcolor="#fefaf7"] ;
794 -> 796 ;
797 [label="squared_error = 0.0\nsamples = 1\nvalue = 2927.065", fillcolor="#fefbf9"] ;
783 -> 797 ;
798 [label="bmi <= 0.833\nsquared_error = 24961.459\nsamples = 3\nvalue = 3913.157", fillcolor="#fef9f6"] ;
782 -> 798 ;
799 [label="region <= 0.833\nsquared_error = 1231.663\nsamples = 2\nvalue = 4023.021", fillcolor="#fef9f6"] ;
798 -> 799 ;
800 [label="squared_error = 0.0\nsamples = 1\nvalue = 4058.116", fillcolor="#fef9f6"] ;
799 -> 800 ;
801 [label="squared_error = -0.0\nsamples = 1\nvalue = 3987.926", fillcolor="#fef9f6"] ;
799 -> 801 ;
802 [label="squared_error = 0.0\nsamples = 1\nvalue = 3693.428", fillcolor="#fefaf7"] ;
798 -> 802 ;
803 [label="bmi <= 0.659\nsquared_error = 97658.551\nsamples = 3\nvalue = 4697.46", fillcolor="#fdf8f3"] ;
775 -> 803 ;
804 [label="age <= 0.185\nsquared_error = 761.771\nsamples = 2\nvalue = 4477.062", fillcolor="#fef8f4"] ;
803 -> 804 ;
805 [label="squared_error = 0.0\nsamples = 1\nvalue = 4504.662", fillcolor="#fef8f4"] ;
804 -> 805 ;
806 [label="squared_error = 0.0\nsamples = 1\nvalue = 4449.462", fillcolor="#fef8f4"] ;
804 -> 806 ;
807 [label="squared_error = 0.0\nsamples = 1\nvalue = 5138.257", fillcolor="#fdf7f2"] ;
803 -> 807 ;
808 [label="age <= 0.446\nsquared_error = 10740661.862\nsamples = 81\nvalue = 6703.788", fillcolor="#fdf4ed"] ;
704 -> 808 ;
809 [label="bmi <= 0.285\nsquared_error = 8486278.177\nsamples = 55\nvalue = 6073.211", fillcolor="#fdf5ef"] ;
808 -> 809 ;
810 [label="bmi <= 0.249\nsquared_error = 28344248.366\nsamples = 4\nvalue = 8494.109", fillcolor="#fcf0e7"] ;
809 -> 810 ;
811 [label="region <= 0.833\nsquared_error = 727530.413\nsamples = 3\nvalue = 5450.066", fillcolor="#fdf6f1"] ;
810 -> 811 ;
812 [label="squared_error = 0.0\nsamples = 1\nvalue = 6652.529", fillcolor="#fdf4ed"] ;
811 -> 812 ;
813 [label="children <= 0.3\nsquared_error = 6857.91\nsamples = 2\nvalue = 4848.834", fillcolor="#fdf7f3"] ;
811 -> 813 ;
814 [label="squared_error = 0.0\nsamples = 1\nvalue = 4766.022", fillcolor="#fdf8f3"] ;
813 -> 814 ;
815 [label="squared_error = -0.0\nsamples = 1\nvalue = 4931.647", fillcolor="#fdf7f3"] ;
813 -> 815 ;
816 [label="squared_error = 0.0\nsamples = 1\nvalue = 17626.24", fillcolor="#f8ddca"] ;
810 -> 816 ;
817 [label="age <= 0.315\nsquared_error = 6433071.331\nsamples = 51\nvalue = 5883.336", fillcolor="#fdf5f0"] ;
809 -> 817 ;
818 [label="bmi <= 0.716\nsquared_error = 11163780.113\nsamples = 18\nvalue = 5313.996", fillcolor="#fdf6f1"] ;
817 -> 818 ;
819 [label="children <= 0.3\nsquared_error = 239963.316\nsamples = 13\nvalue = 4546.679", fillcolor="#fef8f4"] ;
818 -> 819 ;
820 [label="sex <= 0.5\nsquared_error = 43337.079\nsamples = 6\nvalue = 4076.929", fillcolor="#fef9f5"] ;
819 -> 820 ;
821 [label="bmi <= 0.483\nsquared_error = 8900.909\nsamples = 3\nvalue = 4217.093", fillcolor="#fef9f5"] ;
820 -> 821 ;
822 [label="squared_error = 0.0\nsamples = 1\nvalue = 4350.514", fillcolor="#fef8f5"] ;
821 -> 822 ;
823 [label="bmi <= 0.549\nsquared_error = 0.418\nsamples = 2\nvalue = 4150.382", fillcolor="#fef9f5"] ;
821 -> 823 ;
824 [label="squared_error = 0.0\nsamples = 1\nvalue = 4149.736", fillcolor="#fef9f5"] ;
823 -> 824 ;
825 [label="squared_error = 0.0\nsamples = 1\nvalue = 4151.029", fillcolor="#fef9f5"] ;
823 -> 825 ;
826 [label="age <= 0.283\nsquared_error = 38481.504\nsamples = 3\nvalue = 3936.766", fillcolor="#fef9f6"] ;
820 -> 826 ;
827 [label="squared_error = 0.0\nsamples = 1\nvalue = 3659.346", fillcolor="#fefaf7"] ;
826 -> 827 ;
828 [label="region <= 0.833\nsquared_error = 1.044\nsamples = 2\nvalue = 4075.475", fillcolor="#fef9f5"] ;
826 -> 828 ;
829 [label="squared_error = 0.0\nsamples = 1\nvalue = 4074.454", fillcolor="#fef9f5"] ;
828 -> 829 ;
830 [label="squared_error = 0.0\nsamples = 1\nvalue = 4076.497", fillcolor="#fef9f5"] ;
828 -> 830 ;
831 [label="bmi <= 0.496\nsquared_error = 57237.556\nsamples = 7\nvalue = 4949.322", fillcolor="#fdf7f3"] ;
819 -> 831 ;
832 [label="children <= 0.5\nsquared_error = 28854.07\nsamples = 3\nvalue = 5171.293", fillcolor="#fdf7f2"] ;
831 -> 832 ;
833 [label="squared_error = 0.0\nsamples = 1\nvalue = 4934.705", fillcolor="#fdf7f3"] ;
832 -> 833 ;
834 [label="sex <= 0.5\nsquared_error = 1300.576\nsamples = 2\nvalue = 5289.588", fillcolor="#fdf6f2"] ;
832 -> 834 ;
835 [label="squared_error = 0.0\nsamples = 1\nvalue = 5325.651", fillcolor="#fdf6f1"] ;
834 -> 835 ;
836 [label="squared_error = 0.0\nsamples = 1\nvalue = 5253.524", fillcolor="#fdf7f2"] ;
834 -> 836 ;
837 [label="age <= 0.293\nsquared_error = 13856.558\nsamples = 4\nvalue = 4782.843", fillcolor="#fdf7f3"] ;
831 -> 837 ;
838 [label="sex <= 0.5\nsquared_error = 3145.886\nsamples = 2\nvalue = 4893.67", fillcolor="#fdf7f3"] ;
837 -> 838 ;
839 [label="squared_error = 0.0\nsamples = 1\nvalue = 4949.759", fillcolor="#fdf7f3"] ;
838 -> 839 ;
840 [label="squared_error = 0.0\nsamples = 1\nvalue = 4837.582", fillcolor="#fdf7f3"] ;
838 -> 840 ;
841 [label="bmi <= 0.657\nsquared_error = 1.894\nsamples = 2\nvalue = 4672.016", fillcolor="#fdf8f4"] ;
837 -> 841 ;
842 [label="squared_error = 0.0\nsamples = 1\nvalue = 4670.64", fillcolor="#fdf8f4"] ;
841 -> 842 ;
843 [label="squared_error = -0.0\nsamples = 1\nvalue = 4673.392", fillcolor="#fdf8f4"] ;
841 -> 843 ;
844 [label="bmi <= 0.753\nsquared_error = 34054769.793\nsamples = 5\nvalue = 7309.019", fillcolor="#fcf2eb"] ;
818 -> 844 ;
845 [label="squared_error = 0.0\nsamples = 1\nvalue = 18963.172", fillcolor="#f7dac6"] ;
844 -> 845 ;
846 [label="bmi <= 0.823\nsquared_error = 124940.532\nsamples = 4\nvalue = 4395.481", fillcolor="#fef8f4"] ;
844 -> 846 ;
847 [label="squared_error = 0.0\nsamples = 1\nvalue = 3875.734", fillcolor="#fef9f6"] ;
846 -> 847 ;
848 [label="sex <= 0.5\nsquared_error = 46526.396\nsamples = 3\nvalue = 4568.73", fillcolor="#fef8f4"] ;
846 -> 848 ;
849 [label="squared_error = 0.0\nsamples = 1\nvalue = 4753.637", fillcolor="#fdf8f3"] ;
848 -> 849 ;
850 [label="bmi <= 0.955\nsquared_error = 44146.821\nsamples = 2\nvalue = 4476.277", fillcolor="#fef8f4"] ;
848 -> 850 ;
851 [label="squared_error = 0.0\nsamples = 1\nvalue = 4266.166", fillcolor="#fef9f5"] ;
850 -> 851 ;
852 [label="squared_error = 0.0\nsamples = 1\nvalue = 4686.389", fillcolor="#fdf8f4"] ;
850 -> 852 ;
853 [label="bmi <= 0.549\nsquared_error = 3579435.641\nsamples = 33\nvalue = 6193.886", fillcolor="#fdf5ef"] ;
817 -> 853 ;
854 [label="bmi <= 0.518\nsquared_error = 5500671.745\nsamples = 19\nvalue = 6592.445", fillcolor="#fdf4ed"] ;
853 -> 854 ;
855 [label="children <= 0.3\nsquared_error = 2269596.037\nsamples = 18\nvalue = 6161.005", fillcolor="#fdf5ef"] ;
854 -> 855 ;
856 [label="age <= 0.38\nsquared_error = 145360.601\nsamples = 10\nvalue = 5386.888", fillcolor="#fdf6f1"] ;
855 -> 856 ;
857 [label="sex <= 0.5\nsquared_error = 30491.23\nsamples = 4\nvalue = 4998.613", fillcolor="#fdf7f3"] ;
856 -> 857 ;
858 [label="bmi <= 0.432\nsquared_error = 12529.335\nsamples = 3\nvalue = 5082.467", fillcolor="#fdf7f2"] ;
857 -> 858 ;
859 [label="region <= 0.833\nsquared_error = 0.286\nsamples = 2\nvalue = 5003.318", fillcolor="#fdf7f2"] ;
858 -> 859 ;
860 [label="squared_error = 0.0\nsamples = 1\nvalue = 5002.783", fillcolor="#fdf7f2"] ;
859 -> 860 ;
861 [label="squared_error = 0.0\nsamples = 1\nvalue = 5003.853", fillcolor="#fdf7f2"] ;
859 -> 861 ;
862 [label="squared_error = 0.0\nsamples = 1\nvalue = 5240.765", fillcolor="#fdf7f2"] ;
858 -> 862 ;
863 [label="squared_error = 0.0\nsamples = 1\nvalue = 4747.053", fillcolor="#fdf8f3"] ;
857 -> 863 ;
864 [label="age <= 0.413\nsquared_error = 54431.832\nsamples = 6\nvalue = 5645.738", fillcolor="#fdf6f0"] ;
856 -> 864 ;
865 [label="bmi <= 0.388\nsquared_error = 7.806\nsamples = 2\nvalue = 5475.243", fillcolor="#fdf6f1"] ;
864 -> 865 ;
866 [label="squared_error = 0.0\nsamples = 1\nvalue = 5472.449", fillcolor="#fdf6f1"] ;
865 -> 866 ;
867 [label="squared_error = 0.0\nsamples = 1\nvalue = 5478.037", fillcolor="#fdf6f1"] ;
865 -> 867 ;
868 [label="sex <= 0.5\nsquared_error = 59842.287\nsamples = 4\nvalue = 5730.986", fillcolor="#fdf6f0"] ;
864 -> 868 ;
869 [label="bmi <= 0.45\nsquared_error = 1.496\nsamples = 2\nvalue = 5975.608", fillcolor="#fdf5ef"] ;
868 -> 869 ;
870 [label="squared_error = 0.0\nsamples = 1\nvalue = 5974.385", fillcolor="#fdf5ef"] ;
869 -> 870 ;
871 [label="squared_error = 0.0\nsamples = 1\nvalue = 5976.831", fillcolor="#fdf5ef"] ;
869 -> 871 ;
872 [label="region <= 0.833\nsquared_error = 3.6\nsamples = 2\nvalue = 5486.365", fillcolor="#fdf6f1"] ;
868 -> 872 ;
873 [label="squared_error = 0.0\nsamples = 1\nvalue = 5484.467", fillcolor="#fdf6f1"] ;
872 -> 873 ;
874 [label="squared_error = 0.0\nsamples = 1\nvalue = 5488.262", fillcolor="#fdf6f1"] ;
872 -> 874 ;
875 [label="bmi <= 0.37\nsquared_error = 3239482.259\nsamples = 8\nvalue = 7128.65", fillcolor="#fcf3ec"] ;
855 -> 875 ;
876 [label="squared_error = 0.0\nsamples = 1\nvalue = 11737.849", fillcolor="#fbe9dd"] ;
875 -> 876 ;
877 [label="age <= 0.38\nsquared_error = 233741.247\nsamples = 7\nvalue = 6470.193", fillcolor="#fdf4ee"] ;
875 -> 877 ;
878 [label="bmi <= 0.401\nsquared_error = 32238.406\nsamples = 4\nvalue = 6146.124", fillcolor="#fdf5ef"] ;
877 -> 878 ;
879 [label="squared_error = 0.0\nsamples = 1\nvalue = 6414.178", fillcolor="#fdf4ee"] ;
878 -> 879 ;
880 [label="bmi <= 0.426\nsquared_error = 11049.923\nsamples = 3\nvalue = 6056.773", fillcolor="#fdf5ef"] ;
878 -> 880 ;
881 [label="squared_error = 0.0\nsamples = 1\nvalue = 5926.846", fillcolor="#fdf5f0"] ;
880 -> 881 ;
882 [label="children <= 0.7\nsquared_error = 3914.154\nsamples = 2\nvalue = 6121.736", fillcolor="#fdf5ef"] ;
880 -> 882 ;
883 [label="squared_error = 0.0\nsamples = 1\nvalue = 6184.299", fillcolor="#fdf5ef"] ;
882 -> 883 ;
884 [label="squared_error = 0.0\nsamples = 1\nvalue = 6059.173", fillcolor="#fdf5ef"] ;
882 -> 884 ;
885 [label="bmi <= 0.432\nsquared_error = 175679.92\nsamples = 3\nvalue = 6902.286", fillcolor="#fdf3ec"] ;
877 -> 885 ;
886 [label="region <= 0.833\nsquared_error = 2149.324\nsamples = 2\nvalue = 7197.453", fillcolor="#fcf3eb"] ;
885 -> 886 ;
887 [label="squared_error = 0.0\nsamples = 1\nvalue = 7243.814", fillcolor="#fcf2eb"] ;
886 -> 887 ;
888 [label="squared_error = 0.0\nsamples = 1\nvalue = 7151.092", fillcolor="#fcf3ec"] ;
886 -> 888 ;
889 [label="squared_error = -0.0\nsamples = 1\nvalue = 6311.952", fillcolor="#fdf4ee"] ;
885 -> 889 ;
890 [label="squared_error = 0.0\nsamples = 1\nvalue = 14358.364", fillcolor="#f9e4d4"] ;
854 -> 890 ;
891 [label="children <= 0.5\nsquared_error = 463887.413\nsamples = 14\nvalue = 5652.984", fillcolor="#fdf6f0"] ;
853 -> 891 ;
892 [label="children <= 0.3\nsquared_error = 244256.667\nsamples = 10\nvalue = 5318.967", fillcolor="#fdf6f1"] ;
891 -> 892 ;
893 [label="bmi <= 0.674\nsquared_error = 66258.69\nsamples = 4\nvalue = 4835.073", fillcolor="#fdf7f3"] ;
892 -> 893 ;
894 [label="squared_error = 0.0\nsamples = 1\nvalue = 5246.047", fillcolor="#fdf7f2"] ;
893 -> 894 ;
895 [label="bmi <= 0.825\nsquared_error = 13278.401\nsamples = 3\nvalue = 4698.082", fillcolor="#fdf8f3"] ;
893 -> 895 ;
896 [label="sex <= 0.5\nsquared_error = 277.686\nsamples = 2\nvalue = 4778.993", fillcolor="#fdf8f3"] ;
895 -> 896 ;
897 [label="squared_error = 0.0\nsamples = 1\nvalue = 4795.657", fillcolor="#fdf7f3"] ;
896 -> 897 ;
898 [label="squared_error = 0.0\nsamples = 1\nvalue = 4762.329", fillcolor="#fdf8f3"] ;
896 -> 898 ;
899 [label="squared_error = 0.0\nsamples = 1\nvalue = 4536.259", fillcolor="#fef8f4"] ;
895 -> 899 ;
900 [label="age <= 0.359\nsquared_error = 102751.785\nsamples = 6\nvalue = 5641.563", fillcolor="#fdf6f0"] ;
892 -> 900 ;
